{"conv1.weight": [[[[0.07205933332443237, 0.19491301476955414, 0.2155698835849762, -0.07173191756010056, -0.039847537875175476], [0.197668194770813, 0.11639384180307388, -0.11008890718221664, -0.2570991516113281, -0.19714821875095367], [-0.1314372569322586, -0.13561946153640747, -0.32653868198394775, -0.3204948604106903, 0.045619357377290726], [-0.48707282543182373, -0.5040398240089417, -0.3749198615550995, -0.1784016638994217, 0.08287914842367172], [-0.2558692395687103, 0.1544685810804367, 0.12451715022325516, 0.26862555742263794, 0.42803874611854553]]], [[[-0.12669400870800018, 0.030092500150203705, -0.009289218112826347, 0.1002311035990715, 0.15444283187389374], [-0.06027236953377724, 0.15189360082149506, 0.05102821812033653, 0.29394087195396423, -0.0031097526662051678], [0.16923460364341736, -0.11142698675394058, -0.024210050702095032, 0.2953413724899292, 0.16769346594810486], [-0.2965862452983856, 0.009879265911877155, 0.09721681475639343, 0.03670620173215866, -0.12280915677547455], [-0.08593542873859406, 0.011750403791666031, -0.208707794547081, -0.021582115441560745, 0.08675233274698257]]], [[[0.021931998431682587, 0.249573215842247, 0.2162981480360031, -0.1428629457950592, -0.1762111932039261], [0.0659184530377388, 0.10579555481672287, 0.08323296159505844, 0.02977733500301838, -0.33605432510375977], [0.22594717144966125, 0.11861555278301239, -0.07827980816364288, 0.02648909203708172, -0.055303458124399185], [0.2537499666213989, 0.17972472310066223, 0.1731116622686386, -0.33785757422447205, -0.150722935795784], [0.2800231873989105, 0.19805079698562622, -0.06195167079567909, 0.1409781277179718, 0.11158773303031921]]], [[[-0.14113108813762665, -0.11512386798858643, 0.26447486877441406, 0.05492715165019035, 0.14503219723701477], [-0.22504980862140656, -0.4034545421600342, -0.16351476311683655, -0.17991545796394348, -0.11943833529949188], [-0.029411885887384415, -0.3360233008861542, -0.21740278601646423, -0.0224897563457489, -0.19412638247013092], [0.4187355935573578, 0.07067778706550598, -0.11098160594701767, -0.09081622958183289, -0.011255912482738495], [0.3418945372104645, 0.44634369015693665, 0.23994497954845428, 0.14078310132026672, 0.16559827327728271]]], [[[0.05617495998740196, 0.2718692421913147, -0.18988735973834991, -0.3001548647880554, -0.3568986654281616], [0.0599832721054554, 0.20629999041557312, 0.15077920258045197, 0.10284329205751419, 0.17485825717449188], [-0.17503583431243896, 0.01116851158440113, 0.18665346503257751, 0.3445334732532501, 0.012490118853747845], [0.07260526716709137, 0.3582268953323364, 0.15687306225299835, 0.2468540370464325, 0.24602963030338287], [0.18163196742534637, -0.06520339101552963, -0.029858868569135666, -0.23496592044830322, -0.16685040295124054]]]], "conv1.bias": [-0.244864359498024, 0.0903996080160141, 0.06636572629213333, -0.09383200109004974, 0.09871669113636017], "conv2.weight": [[[[-0.14871498942375183, -0.0640416145324707, -0.0450594499707222, -0.12851373851299286, -0.19216641783714294], [0.0789627805352211, -0.002720988355576992, -0.1197541356086731, 0.004915871657431126, 0.05373501405119896], [0.014247859828174114, -0.02949969843029976, -0.03621961921453476, -0.10395564883947372, -0.01741626486182213], [0.14163053035736084, 0.10770544409751892, -0.0734252780675888, -0.0741988942027092, -0.01693691685795784], [0.025180049240589142, -7.400522008538246e-05, -0.03085598163306713, -0.09454568475484848, -0.14914929866790771]], [[-0.0674390122294426, -0.09315334260463715, -0.0693388283252716, 0.06047068163752556, 0.18103070557117462], [-0.05443691462278366, -0.06933083385229111, -0.025265362113714218, -0.1286713033914566, -0.055550139397382736], [0.04550900310277939, -0.0304301455616951, -0.11850971728563309, -0.11659563332796097, 0.06984645128250122], [-0.0026839261408895254, 0.04429035261273384, 0.018644286319613457, 0.06536123156547546, 0.09085889160633087], [0.033934012055397034, 0.08138884603977203, 0.13165287673473358, 0.07793005555868149, -0.04309770092368126]], [[-0.11680596321821213, -0.05506443604826927, 0.03371890261769295, 0.11715111881494522, -0.017430676147341728], [0.037971556186676025, -0.07956326007843018, -0.08947920799255371, -0.07817485928535461, -0.01337498053908348], [0.09052833914756775, -0.012325532734394073, 0.050818610936403275, -0.04052334278821945, 0.10932601243257523], [-0.033530473709106445, 0.05355820432305336, 0.07961231470108032, -0.05224057286977768, 0.004944032058119774], [0.0070546590723097324, 0.08875741809606552, 0.05824438855051994, -0.13967733085155487, -0.08960174769163132]], [[0.18345698714256287, -0.01822737231850624, -0.03619969263672829, -0.01738244853913784, -0.12479360401630402], [0.2171592116355896, 0.3286328911781311, 0.20356005430221558, 0.1261032521724701, 0.0953441858291626], [0.07589632272720337, 0.14792218804359436, 0.21209250390529633, 0.19106733798980713, 0.10551512986421585], [0.06763231009244919, 0.11253496259450912, 0.11568433046340942, 0.1451454758644104, -0.022294484078884125], [-0.04560915380716324, -0.1368478238582611, -0.1853887438774109, -0.16499647498130798, -0.16575701534748077]], [[-0.07350603491067886, -0.1456831842660904, -0.11431781202554703, -0.1285131871700287, -0.07335745543241501], [0.030244290828704834, -0.15148575603961945, -0.18086542189121246, -0.1711874157190323, -0.09547584503889084], [0.13156700134277344, -0.03180410712957382, -0.09998643398284912, -0.007485732436180115, 0.06534910947084427], [0.07667418569326401, 0.05966883897781372, 0.1241733580827713, 0.03246995434165001, 0.1166139543056488], [0.005451520439237356, -0.005277690012007952, 0.1496637463569641, -0.031727321445941925, 0.0993238240480423]]], [[[-0.017752498388290405, 0.12581507861614227, 0.14386874437332153, 0.10339415818452835, -0.09239445626735687], [-0.04346838593482971, -0.062085606157779694, 0.025632265955209732, -0.05440007150173187, -0.05691331997513771], [-0.029995255172252655, -0.11054462939500809, -0.18113692104816437, -0.24339964985847473, 0.06709770858287811], [-0.09569909423589706, -0.08884366601705551, -0.20707552134990692, -0.21141092479228973, -0.1643061339855194], [0.05649147182703018, 0.08373290300369263, -0.0073945666663348675, -0.03245856240391731, 0.12123614549636841]], [[-0.0013540732907131314, -0.06566276401281357, -0.04347142204642296, -0.08342800289392471, -0.03334806114435196], [0.09083419293165207, 0.016682816669344902, 0.019127894192934036, -0.028869163244962692, 0.037558458745479584], [0.08112294971942902, 0.0510965958237648, -0.013420412316918373, 0.062358930706977844, 0.05155092105269432], [-0.0974474772810936, -0.12222247570753098, -0.04114653542637825, 0.1633686125278473, 0.16445372998714447], [-0.05314769968390465, -0.1901765763759613, -0.1725064218044281, -0.05096897482872009, -0.02083871327340603]], [[0.006878191605210304, -0.05753690004348755, 0.07588454335927963, -0.023574959486722946, -0.03194224089384079], [-0.017542796209454536, -0.006745224352926016, 0.179898202419281, 0.13030767440795898, 0.054869502782821655], [-0.05476502701640129, -0.1023215800523758, 0.03554834425449371, 0.09799063205718994, 0.035737115889787674], [0.025924373418092728, -0.008150937967002392, -0.12860983610153198, -0.09818709641695023, 0.05864360183477402], [-0.06627189368009567, -0.11998631060123444, -0.05480094626545906, -0.14747977256774902, -0.08100477606058121]], [[0.027060626074671745, -0.06892887502908707, 0.0498630553483963, -0.06541017442941666, -0.02485991083085537], [0.015420210547745228, 0.05277298390865326, 0.039783068001270294, 0.08109170943498611, 0.1277921050786972], [-0.034712303429841995, -0.0365559384226799, -0.07713440805673599, 0.17596782743930817, 0.3216873109340668], [-0.09264706820249557, -0.07701150327920914, -0.15191905200481415, -0.11823268979787827, 0.15152786672115326], [0.15616343915462494, 0.11437275260686874, 0.18802426755428314, 0.0173032209277153, -0.13958851993083954]], [[0.004792866297066212, 0.009349623695015907, -0.08000373840332031, 0.04008840024471283, 0.05843743309378624], [0.09180837869644165, -0.01023554615676403, 0.047390423715114594, 0.06679043173789978, -0.05314400792121887], [0.004416255280375481, 0.10257436335086823, 0.014953549951314926, 0.09489881992340088, 0.0002570213400758803], [-0.06469446420669556, -0.023108631372451782, 0.03759078308939934, 0.19997122883796692, 0.22112631797790527], [-0.0021950756199657917, -0.06854569166898727, -0.21575336158275604, -0.09434807300567627, -0.0346827358007431]]], [[[-0.10752637684345245, -0.11963244527578354, -0.0026745980139821768, 0.08760984987020493, 0.12207458168268204], [0.04991011694073677, -0.014081902801990509, 0.1204257532954216, 0.1322694569826126, 0.06345126032829285], [-0.10280907154083252, -0.1740673929452896, -0.004235559143126011, 0.04523521661758423, 0.038208115845918655], [-0.06338423490524292, -0.13917960226535797, 0.03002208098769188, 0.040724124759435654, 0.051047857850790024], [0.02828533574938774, -0.022095834836363792, 0.0886053591966629, -0.016973888501524925, -0.049155108630657196]], [[0.05442476272583008, 0.00209629419259727, -0.07505454868078232, 0.005754981189966202, -0.0951780378818512], [0.09581410884857178, -0.034791674464941025, 0.054626885801553726, 0.045991912484169006, 0.007829716429114342], [0.0778515487909317, 0.06349869072437286, 0.12059491872787476, 0.09091460704803467, 0.02990565076470375], [-0.051258936524391174, 0.05017375946044922, -0.0022997092455625534, 0.05992661044001579, -0.05110446363687515], [-0.18819621205329895, -0.03605368733406067, -0.12122630327939987, -0.052969206124544144, -0.09574256837368011]], [[-0.004540317691862583, 0.11550511419773102, -0.02670104242861271, -0.06995570659637451, -0.012693997472524643], [0.09765373170375824, -0.005684763193130493, 0.11191917955875397, -0.0223217960447073, 0.03332940489053726], [-0.10904541611671448, -0.1154506653547287, 0.05966140329837799, 0.06769710034132004, 0.029304280877113342], [-0.33301353454589844, -0.25076329708099365, -0.12849567830562592, -0.0561591312289238, 0.020357325673103333], [-0.024460390210151672, -0.04406599700450897, -0.09846813976764679, -0.0421014130115509, -0.09824565052986145]], [[-0.07803045958280563, -0.14013157784938812, -0.0440920889377594, -0.07832682132720947, 0.01079251803457737], [-0.047338325530290604, 0.08446541428565979, 0.12672682106494904, 0.05678869038820267, 0.035998038947582245], [-0.08479712158441544, -0.04696106165647507, 0.0915449783205986, 0.05414082854986191, 0.08701705932617188], [0.09188499301671982, 0.005898749455809593, -0.173739954829216, -0.111871637403965, -0.08299297839403152], [0.19254301488399506, 0.19974765181541443, 0.21328598260879517, 0.01747344247996807, 0.09684527665376663]], [[0.0716037005186081, -0.0726376324892044, 0.0579373836517334, -0.1193832978606224, 0.016719499602913857], [-0.0035740698222070932, 0.03776438534259796, -0.02803303673863411, 0.013671791180968285, 0.10715754330158234], [-0.0548144169151783, 0.061086881905794144, 0.10198762267827988, -0.03806981444358826, 0.07360140979290009], [-0.280610591173172, -0.1233239695429802, 0.015142250806093216, 0.017427127808332443, -0.07523386180400848], [-0.17467601597309113, -0.17298772931098938, -0.13503852486610413, -0.12082035094499588, -0.0275182593613863]]], [[[0.008734166622161865, -0.06518517434597015, -0.05315481126308441, -0.041124582290649414, 0.03464711084961891], [-0.04632116109132767, -0.019900398328900337, -0.22919447720050812, -0.18054892122745514, 0.18705874681472778], [0.12476235628128052, -0.03355655074119568, -0.2864002287387848, -0.13917145133018494, 0.09750565886497498], [0.11612354964017868, -0.016289377585053444, -0.1918470859527588, -0.04516751319169998, 0.029599705711007118], [0.011800767853856087, 0.23349788784980774, 0.0480242483317852, 0.10738107562065125, 0.09381192177534103]], [[0.08029372990131378, -0.00852889847010374, -0.094647116959095, -0.04080094397068024, 0.04173551872372627], [-0.012832407839596272, -0.022675208747386932, -0.12684091925621033, -0.1285458356142044, 0.14221195876598358], [0.06392361968755722, 0.07843806594610214, -0.09664133191108704, -0.2982371151447296, 0.041035525500774384], [-0.0510285347700119, 0.1669163554906845, 0.06415222585201263, -0.14858219027519226, 0.085381418466568], [-0.03709891438484192, 0.19034263491630554, 0.016541659832000732, -0.06135806441307068, 0.2281816303730011]], [[-0.05297909304499626, 0.06935588270425797, -0.04109279066324234, -0.04922521114349365, -0.19573599100112915], [-0.0012289192527532578, -0.007605325430631638, 0.041441600769758224, -0.05487598478794098, -0.25052976608276367], [-0.19702912867069244, 0.0840601697564125, 0.14161959290504456, 0.062301408499479294, -0.14390096068382263], [-0.060410600155591965, 0.0039828186854720116, 0.1629764437675476, -0.0059088957495987415, -0.03386109694838524], [-0.058383844792842865, 0.08189061284065247, 0.20657651126384735, -0.0010498113697394729, 0.010820827446877956]], [[0.03123483620584011, 0.2542039752006531, 0.2008834034204483, -0.04595567286014557, -0.12958355247974396], [-0.1229727640748024, 0.15742245316505432, 0.3614606559276581, 0.035641372203826904, -0.09571900963783264], [-0.0501946397125721, -0.18647067248821259, 0.060417745262384415, 0.12499992549419403, -0.14689847826957703], [-0.011273215524852276, -0.22584864497184753, -0.14721745252609253, -0.06300745159387589, -0.14132122695446014], [-0.006494299974292517, -0.14608676731586456, -0.24479442834854126, -0.07983905076980591, -0.01798737421631813]], [[0.09307850152254105, -0.10270904749631882, -0.1546938419342041, -0.20828106999397278, -0.0591130405664444], [0.011880612000823021, 0.00156146299559623, -0.13150149583816528, -0.21440142393112183, -0.2135094255208969], [-0.1897617131471634, 0.15048344433307648, -0.0351211279630661, -0.15187282860279083, -0.1366751790046692], [-0.13269422948360443, 0.016975747421383858, 0.10013297945261002, -0.026164168491959572, -0.12402711063623428], [-0.032806482166051865, 0.05227102339267731, 0.17414140701293945, -0.09499070793390274, 0.03456832468509674]]], [[[0.040517114102840424, 0.08216319233179092, 0.23759959638118744, 0.20204530656337738, 0.043532341718673706], [-0.05876903980970383, -0.04637325182557106, -0.11138758808374405, -0.11165411025285721, -0.07006163895130157], [-0.19486194849014282, -0.014033736661076546, 0.23829539120197296, 0.24147823452949524, 0.13837650418281555], [-0.019416432827711105, 0.03952248394489288, 0.0887688398361206, 0.047722309827804565, -0.06285149604082108], [0.10799852013587952, 0.0008859792724251747, -0.02561883255839348, -0.16268399357795715, -0.19091878831386566]], [[0.005973006598651409, 0.034415893256664276, -0.09091366827487946, 0.023008473217487335, -0.1047883853316307], [0.12436934560537338, 0.0354815311729908, 0.05943134427070618, 0.02811591513454914, 0.06416064500808716], [0.005856235045939684, -0.028215717524290085, 0.1167822778224945, -0.01716623455286026, -0.1300361007452011], [-0.08328507840633392, -0.21753810346126556, -0.20241160690784454, -0.17286644876003265, -0.027936309576034546], [-0.046223994344472885, -0.01205673161894083, 0.09097093343734741, -0.032745521515607834, 0.07624106854200363]], [[0.09006546437740326, 0.05743180587887764, 0.03410020470619202, -0.03686222434043884, 0.02015765942633152], [0.05350157245993614, -0.010069746524095535, 0.0006439730059355497, 0.10704892128705978, 0.026078779250383377], [-0.14333435893058777, -0.24494029581546783, -0.1532352864742279, -0.19584494829177856, -0.12103433161973953], [-0.09267755597829819, -0.15840250253677368, -0.03034893609583378, -0.06738902628421783, -0.01972615160048008], [-0.06811996549367905, -0.034537989646196365, -0.02861170656979084, -0.09928656369447708, -0.034228499978780746]], [[0.03230717405676842, 0.08632150292396545, 0.09960487484931946, 0.15150247514247894, 0.15649044513702393], [0.03515521064400673, 0.009493011981248856, 0.06133214011788368, -0.007594663184136152, -0.06546705961227417], [0.022185076028108597, 0.042778514325618744, 0.0542314350605011, -0.1503312885761261, -0.0539674386382103], [0.12653356790542603, 0.1516088843345642, 0.2072763592004776, 0.17367838323116302, 0.11690013110637665], [-0.024227380752563477, -0.03190239518880844, 0.044328708201646805, 0.08660479635000229, -0.06561858206987381]], [[-0.07124180346727371, -0.09236545115709305, 0.004792992025613785, 0.07791274040937424, 0.12454034388065338], [0.12627996504306793, 0.16967609524726868, 0.1307186633348465, 0.02693711407482624, -0.06011207401752472], [-0.11849146336317062, -0.09086580574512482, -0.04702494665980339, -0.1039949581027031, -0.1522211730480194], [-0.1182020902633667, -0.10606047511100769, -0.10648535937070847, -0.0817866399884224, -0.047855228185653687], [0.05396806448698044, -0.05656379461288452, -0.05048695206642151, 0.07499497383832932, -0.0635986328125]]], [[[0.11762237548828125, 0.18571850657463074, 0.0825091004371643, -0.18617603182792664, -0.035750068724155426], [0.06508432328701019, 0.14050991833209991, 0.05392232909798622, 0.01942211575806141, 0.013968303799629211], [-0.025124676525592804, 0.0726926401257515, 0.16853198409080505, 0.08917006850242615, -0.026759644970297813], [0.021226972341537476, -0.013353810645639896, 0.11621151864528656, -0.0779932513833046, -0.1657806634902954], [0.0392819382250309, 0.0623941607773304, -0.007499192375689745, 0.023759664967656136, -0.08156217634677887]], [[0.04894111678004265, 0.0038541313260793686, 0.08419372141361237, 0.21237675845623016, 0.10453085601329803], [-0.02747664600610733, 0.18758609890937805, 0.19171349704265594, -0.05251653119921684, -0.0559859462082386], [0.0843011736869812, 0.01446704100817442, -0.03870154544711113, -0.05733414739370346, 0.07083707302808762], [0.1263507902622223, 0.05681769922375679, -0.21868781745433807, -0.1174064427614212, 0.008401825092732906], [0.02983114868402481, -0.0725470632314682, -0.01687389612197876, -0.05810454115271568, -0.008864003233611584]], [[-0.16396230459213257, -0.18469414114952087, 0.0205680038779974, 0.046687401831150055, 0.11869978904724121], [-0.047818105667829514, -0.041630569845438004, 0.05825638771057129, 0.13046316802501678, -0.04810807853937149], [0.001989946700632572, -0.036034002900123596, 0.10387294739484787, -0.0764378234744072, -0.035317398607730865], [0.031151916831731796, 0.02245083637535572, -0.034531574696302414, -0.19162747263908386, 0.0734516903758049], [0.057542286813259125, -0.023663468658924103, -0.02258017659187317, -0.041620973497629166, -0.00668585579842329]], [[-0.12246879935264587, 0.042885225266218185, -0.00888864416629076, -0.08908294141292572, -0.0708259716629982], [0.04385935887694359, 0.08109812438488007, -0.16377125680446625, -0.17000752687454224, -0.16287299990653992], [0.04479602351784706, -0.2560475766658783, -0.2573321461677551, -0.1782292127609253, -0.2068370282649994], [-0.14522182941436768, -0.2182016670703888, -0.16855889558792114, -0.2077072113752365, -0.09192024916410446], [-0.09675762057304382, 0.037968650460243225, 0.04887278750538826, -0.04263634979724884, -0.01666427217423916]], [[-0.08830807358026505, -0.030525658279657364, 0.131508931517601, 0.16537541151046753, 0.08604548871517181], [0.040341176092624664, 0.10767862945795059, -0.009914089925587177, -0.0992729663848877, -0.10197152197360992], [0.08920547366142273, 0.04747113958001137, -0.05796438083052635, -0.11456383764743805, -0.02827383764088154], [0.06727418303489685, -0.043750591576099396, -0.05411599949002266, -0.24898941814899445, -0.07999256998300552], [-0.06654475629329681, 0.09884637594223022, -0.018444404006004333, -0.1074630543589592, -0.06497839838266373]]], [[[-0.09009858220815659, 0.06927310675382614, 0.04750420153141022, 0.00326868356205523, 0.10661760717630386], [-0.18652448058128357, -0.008084401488304138, -0.028376972302794456, -0.06287766247987747, -0.057343896478414536], [-0.08679267764091492, -0.05324866995215416, 0.04250284656882286, 0.02325279265642166, -0.012312551960349083], [-0.07309750467538834, 0.032193705439567566, 0.13526897132396698, 0.24366669356822968, 0.12125839293003082], [-0.0692284107208252, 0.11966978758573532, 0.18034429848194122, 0.07272085547447205, -0.13106991350650787]], [[-0.11031854152679443, -0.032687313854694366, 0.021797068417072296, -0.13114722073078156, -0.08158733695745468], [-0.0036561107262969017, -0.04626966640353203, -0.046750180423259735, 0.11564391851425171, 0.024165146052837372], [0.09732314199209213, 0.07492414861917496, -0.004800129681825638, 0.08221056312322617, 0.012386690825223923], [-0.13820046186447144, -0.07474467903375626, -0.07653649896383286, -0.21585357189178467, -0.17742705345153809], [-0.20285949110984802, -0.19984550774097443, -0.15454238653182983, -0.007285376079380512, -0.07460752129554749]], [[-3.757490776479244e-05, 0.005340025760233402, 0.0009176062885671854, 0.02747010439634323, 0.05669139325618744], [0.09603490680456161, 0.10374613851308823, 0.09051652252674103, 0.0798603743314743, -0.018005328252911568], [-0.042145077139139175, 0.055069699883461, 0.0009423862211406231, -0.1371506154537201, -0.08321584761142731], [-0.0772581398487091, 0.006525202188640833, -0.05744752660393715, -0.03755282610654831, -0.11353925615549088], [-0.0872984379529953, -0.13234665989875793, -0.28906556963920593, -0.23908719420433044, 0.05622253194451332]], [[0.1262204796075821, -0.08086388558149338, 0.024554578587412834, 0.09935572743415833, 0.04696806147694588], [0.050103649497032166, 0.01899276301264763, 0.044749028980731964, 0.0389644093811512, 0.09007162600755692], [-0.11434972286224365, -0.058970045298337936, -0.02445445954799652, -0.04189189150929451, -0.12219174206256866], [-0.02537173591554165, -0.024751869961619377, -0.11319632083177567, -0.06680212169885635, 0.018289856612682343], [0.12815122306346893, 0.023077234625816345, -0.0741254910826683, 0.028514742851257324, 0.0929495170712471]], [[-0.11794818192720413, -0.10110630840063095, 0.06073557212948799, -0.019958876073360443, 0.07326387614011765], [-0.08242518454790115, 0.04743288829922676, 0.05121416971087456, 0.17938940227031708, 0.168366938829422], [0.00923982821404934, 0.03934820741415024, 0.08145882189273834, -0.017855921760201454, -0.04926067218184471], [-0.056053537875413895, -0.13150981068611145, -0.07082118093967438, -0.22895672917366028, -0.23715689778327942], [-0.0404951274394989, -0.18896205723285675, -0.22025546431541443, -0.05640524625778198, -0.040995728224515915]]], [[[-0.004808090161532164, -0.10739893466234207, -0.07777731865644455, 0.08722933381795883, -0.039084650576114655], [-0.006238983944058418, 0.05419217795133591, 0.17477303743362427, 0.10998940467834473, -0.08919328451156616], [-0.12022177875041962, 0.09048531204462051, 0.05422274395823479, -0.12450800091028214, 0.018228808417916298], [0.04549373313784599, 0.008471298962831497, -0.21998265385627747, -0.17190204560756683, -0.1466701477766037], [-0.15534968674182892, -0.09590279310941696, -0.30131208896636963, -0.3069623112678528, -0.20885901153087616]], [[-0.061944443732500076, -0.010477572679519653, -0.024485016241669655, -0.08941998332738876, -0.024534590542316437], [-0.03604557365179062, 0.08239079266786575, -0.032480210065841675, 0.08218871802091599, -0.002950791036710143], [-0.0035713212564587593, -0.09333111345767975, 0.1476982980966568, 0.03596146032214165, -0.07525467872619629], [-0.0847388282418251, 0.03100036270916462, 0.08531612157821655, 0.05362116917967796, -0.022993840277194977], [-0.11669523268938065, 0.05690255016088486, 0.005474063102155924, -0.04716167598962784, 0.07832914590835571]], [[0.03908639773726463, 0.07850410789251328, -0.0029689264483749866, -3.2254261896014214e-05, -0.047392718493938446], [0.03160230070352554, 0.019286392256617546, 0.049653444439172745, 0.03334970399737358, 0.047626838088035583], [0.03419050574302673, -0.0891999676823616, -0.04609692469239235, 0.1322820633649826, 0.05078250542283058], [-0.009404629468917847, -0.15890221297740936, 0.019853878766298294, 0.16414456069469452, 0.034330643713474274], [-0.09274956583976746, -0.13412262499332428, 0.15007682144641876, 0.1851382851600647, 0.014784839004278183]], [[0.06801982969045639, 0.03818650171160698, 0.0858154371380806, -0.024824345484375954, -0.04977324604988098], [0.13508903980255127, 0.001294462475925684, -0.013851216062903404, -0.05463210120797157, -0.12388572096824646], [-0.0815129205584526, -0.142833411693573, -0.34578174352645874, -0.22637225687503815, -0.22851026058197021], [-0.13288453221321106, -0.2783980667591095, -0.42279428243637085, -0.1571127027273178, 0.041932638734579086], [-0.19825635850429535, -0.16355536878108978, -0.3068612217903137, 0.055274151265621185, 0.393526166677475]], [[0.013328628614544868, -0.09222681075334549, -0.011608682572841644, -0.09718313068151474, 0.0979095995426178], [0.008515222929418087, 0.036948565393686295, -0.0780942291021347, 0.10741940140724182, 0.02979939803481102], [-0.050973184406757355, -0.11173468828201294, -0.057791996747255325, 0.024352319538593292, -0.0582781583070755], [-0.05882641673088074, -0.14199164509773254, -0.01874668337404728, 0.09538006782531738, -0.012394681572914124], [-0.16593077778816223, -0.2297598272562027, -0.01855090819299221, 0.1540399193763733, 0.09932484477758408]]], [[[-0.17512258887290955, -0.051690638065338135, 0.045032110065221786, -0.10775475949048996, -0.12273441255092621], [0.06214742362499237, 0.17037278413772583, -0.014233439229428768, -0.1050674095749855, -0.02553626149892807], [0.21763327717781067, 0.19030287861824036, -0.15079928934574127, -0.05339891090989113, 0.13475267589092255], [0.142558753490448, 0.003640774404630065, -0.1937553733587265, -0.038799040019512177, 0.013434461317956448], [0.04578903317451477, 0.04261363297700882, 0.13039541244506836, -0.016475964337587357, -0.1286897510290146]], [[0.027513939887285233, 0.04444729909300804, 0.11982540786266327, 0.013081341981887817, -0.10235285758972168], [-0.0382612906396389, 0.08612079918384552, 0.08070667833089828, 0.06313667446374893, -0.22366417944431305], [-0.12578724324703217, 0.041143059730529785, 0.16658106446266174, -0.10165223479270935, -0.06938371807336807], [-0.05451103299856186, 0.16717694699764252, 0.07657790184020996, -0.21424230933189392, -0.009132970124483109], [0.027317417785525322, 0.03520660102367401, -0.04626551270484924, -0.10692774504423141, -0.0015067384811118245]], [[-0.13661061227321625, -0.09156861901283264, -0.10986261814832687, 0.05838290974497795, 0.01730518974363804], [-0.13088612258434296, -0.11192777007818222, 0.10287854075431824, 0.15547595918178558, -0.017791643738746643], [-0.042451076209545135, -0.14202579855918884, 0.13580429553985596, 0.14903810620307922, -0.09998518973588943], [-0.016750551760196686, -0.09341806173324585, 0.12346003949642181, 0.06840649992227554, -0.12416107207536697], [0.055393632501363754, 0.11648789793252945, 0.18481633067131042, 0.042963385581970215, -0.05347513407468796]], [[0.07019156217575073, 0.027561621740460396, -0.07884614169597626, -0.013085264712572098, -0.06411510705947876], [0.028719618916511536, 0.020370574668049812, -0.05141230672597885, -0.07042238116264343, -0.08314678072929382], [-0.0025548336561769247, -0.15690059959888458, -0.1301237940788269, -0.1963781863451004, -0.11462271213531494], [0.014266199432313442, -0.16722112894058228, -0.15062211453914642, -0.2529483735561371, -0.12910433113574982], [-0.011877188459038734, -0.048555344343185425, -0.16670940816402435, 0.06216541677713394, 0.1669730395078659]], [[-0.03954291343688965, 0.04540742561221123, -0.0027785180136561394, 0.06575994938611984, -0.0816129744052887], [-0.04864094778895378, -0.02966396138072014, -0.01723441854119301, 0.13293369114398956, -0.11302752792835236], [-0.1638432890176773, -0.06272920966148376, 0.1184854730963707, 0.02086382359266281, -0.17743925750255585], [-0.030244577676057816, -0.06619666516780853, 0.11802677810192108, -0.04838188365101814, -0.08970775455236435], [-0.07324598729610443, 0.002103306818753481, 0.04351379722356796, -0.09264553338289261, -0.06226709857583046]]], [[[-0.05331629514694214, -0.031576383858919144, -0.0802903100848198, 0.08780407160520554, 0.02388680912554264], [-0.12406203895807266, 0.048250600695610046, 0.07814600318670273, 0.18208381533622742, 0.19787897169589996], [-0.030020656064152718, 0.11751816421747208, 0.12563587725162506, 0.167924165725708, -0.029064446687698364], [0.1725992113351822, 0.07263407111167908, 0.07036072015762329, -0.09251990169286728, -0.09661827236413956], [0.18488554656505585, -0.02514885552227497, -0.19902046024799347, -0.19248533248901367, -0.17351575195789337]], [[0.02076047658920288, 0.044742152094841, -0.03148355334997177, -0.04848821088671684, -0.051106955856084824], [-0.04817802086472511, 0.01664493978023529, -0.09887231141328812, -0.08079494535923004, -0.03578977286815643], [-0.14660079777240753, 0.01606415957212448, -0.07737156003713608, 0.006614683195948601, -0.012377247214317322], [-0.14249512553215027, -0.06095506623387337, 0.11143917590379715, 0.1511656492948532, -0.04435461759567261], [-0.057817842811346054, 0.1483217179775238, 0.06395114958286285, 0.05009402707219124, -0.046205561608076096]], [[0.033501315861940384, 0.08007027953863144, -0.049886349588632584, -0.060317736119031906, -0.10471755266189575], [-0.002377520315349102, 0.01698877476155758, 0.032393962144851685, 0.08336608111858368, -0.01785735972225666], [0.028326500207185745, -0.06505520641803741, -0.11650466918945312, -0.01106324139982462, -0.04773537069559097], [-0.03624342009425163, -0.14892438054084778, 0.11606370657682419, 0.15090914070606232, 0.07170665264129639], [-0.08482310175895691, -0.02305416204035282, 0.14367371797561646, 0.25459542870521545, 0.1331966519355774]], [[-0.10380241274833679, -0.2557311952114105, -0.28806015849113464, -0.05051736906170845, -0.06033886596560478], [-0.02806888334453106, -0.04331543296575546, -0.13899439573287964, 0.016251033172011375, 0.09686680138111115], [0.0669349804520607, 0.025484586134552956, -0.007258255034685135, -0.10648500919342041, -0.06291225552558899], [0.034211188554763794, 0.08308731764554977, -0.015372661873698235, -0.23435837030410767, -0.23566794395446777], [0.01854180358350277, -0.13129134476184845, -0.15005695819854736, -0.14972691237926483, 0.1280929148197174]], [[0.03087565302848816, -0.017458593472838402, 0.00798360537737608, -0.12518280744552612, -0.21477946639060974], [-0.04452606663107872, -0.21073317527770996, -0.0907507985830307, -0.08717171102762222, -0.06424678862094879], [-0.057332850992679596, -0.20708726346492767, -0.05351589620113373, 0.13346430659294128, 0.18911126255989075], [-0.12119755148887634, -0.140518456697464, 0.05065636336803436, 0.1206861212849617, -0.04652756080031395], [0.022712398320436478, -0.07264479249715805, -0.050196100026369095, 0.11671032756567001, 0.0017261435277760029]]]], "conv2.bias": [-0.00676081795245409, 0.022501859813928604, -0.04538998380303383, -0.08915860950946808, -0.10837948322296143, 0.05448490381240845, 0.01226753182709217, 0.08272966742515564, 0.0889824628829956, 0.09227713197469711], "fc1.weight": [[-0.022895965725183487, -0.05492991581559181, -0.012771536596119404, 0.06859050691127777, -0.03542677313089371, -0.06961002945899963, -0.13462449610233307, -0.0404827855527401, 0.009151509031653404, 0.05471202731132507, -0.06074943765997887, -0.08886536210775375, -0.13537271320819855, 0.009368352591991425, 0.14356398582458496, 0.12948717176914215, -0.015093411318957806, 0.06700737029314041, 0.07854066789150238, -0.07878860831260681, -0.02341780625283718, -0.155970960855484, -0.037705905735492706, -0.0682782381772995, -0.1421775221824646, -0.21122078597545624, -0.08973032981157303, -0.07577420771121979, 0.006289255805313587, 0.007252958603203297, 0.02799215540289879, 0.09793969243764877, 0.013258789665997028, -0.005828672554343939, -0.009475957602262497, -0.0029463854152709246, 0.07403911650180817, 0.02134198136627674, 0.06920228153467178, -0.09814362227916718, -0.033191125839948654, -0.056143052875995636, -0.09049081802368164, -0.0567227378487587, -0.09267693758010864, 0.002298669656738639, 0.08480536192655563, 0.092662014067173, 0.005374849773943424, -0.09084904193878174, 0.05469254404306412, 0.01487493421882391, -0.05237303674221039, -0.02780204266309738, 0.010911419056355953, 0.11409452557563782, -0.06458830833435059, 0.03422217443585396, -0.02943013235926628, -0.05890880525112152, 0.04181543365120888, 0.05798514559864998, -0.0022006905637681484, -0.03278958797454834, 0.10489798337221146, 0.008310536853969097, -0.030994124710559845, -0.03552037850022316, 0.011687284335494041, -0.04957101121544838, -0.007701861206442118, -0.09134776145219803, 0.021214619278907776, -0.038218237459659576, -0.030375104397535324, 0.010437095537781715, -0.08006004989147186, -0.022396499291062355, -0.09352466464042664, -0.017635850235819817, 0.15623755753040314, 0.08465965837240219, 0.02600499987602234, -0.09606794267892838, 0.03141342103481293, 0.12445058673620224, -0.05601978302001953, 0.041670672595500946, 0.06549406051635742, -0.04279818385839462, -0.010873643681406975, -0.06701745092868805, 0.04429352283477783, -0.08453405648469925, -0.04196112975478172, -0.08090388029813766, 0.06699904799461365, 0.1188993975520134, -0.0031763394363224506, 0.030293947085738182, 0.00028957039467059076, -0.07848657667636871, -0.07025358080863953, 0.0830586776137352, -0.13709445297718048, -0.050277188420295715, -0.06822562962770462, -0.03627603128552437, -0.12213438749313354, -0.05138830840587616, -0.09662657231092453, -0.0065098232589662075, 0.12582869827747345, 0.05245666578412056, -0.005712149199098349, 0.029003197327256203, 0.08280309289693832, -0.07365186512470245, -0.04850982129573822, 0.026007836684584618, -0.006204045843333006, -0.02272997982800007, -0.046972014009952545, -0.022495178505778313, 0.0036626961082220078, 0.1044146940112114, -0.06202151998877525, 0.002399526070803404, 0.06367483735084534, 0.06767323613166809, -0.08658553659915924, -0.0011922827688977122, 0.033198773860931396, 0.012524105608463287, 0.07633685320615768, 0.05617959424853325, 0.0027348429430276155, 0.04612763226032257, -0.0008373985765501857, 0.07212474942207336, 0.07182871550321579, -0.04327021911740303, -0.024286841973662376, -0.04839557036757469, 0.0721321851015091, 0.07396726310253143, -0.007908443920314312, -0.09054698795080185, 0.03044315241277218, -0.005338998977094889, -0.03911362588405609, 0.06407015770673752, 0.08020319044589996, 0.11517645418643951, 0.05477499961853027, -0.010803320445120335, 0.0811845064163208, 0.05079394578933716, 0.0006445021135732532, 0.07993316650390625], [0.04814348742365837, -0.036797989159822464, -0.04659367352724075, 0.04544834420084953, -0.013800588436424732, -0.022970842197537422, -0.09645791351795197, -0.041330691426992416, -0.0024556112475693226, -0.08589830249547958, -0.06283841282129288, -0.08465337753295898, 0.03740040585398674, 0.028632771223783493, 0.09321993589401245, 0.0363321378827095, -0.1180410385131836, 0.11626334488391876, 0.15954335033893585, 0.0949927270412445, -0.052263617515563965, -0.10625812411308289, 0.020383059978485107, 0.01164636667817831, -0.08956462144851685, -0.12672901153564453, -0.11673074215650558, -0.06064130738377571, 0.06651763617992401, -0.0463910847902298, 0.07335084676742554, 0.12308797985315323, 0.006084969732910395, 0.10507997870445251, 0.16595357656478882, -0.03568058833479881, -0.012897509150207043, 0.04657253995537758, 0.019007578492164612, 0.11645284295082092, 0.043023694306612015, -0.024405701085925102, -0.10610885173082352, -0.05680488795042038, 0.021418867632746696, 0.02285400778055191, 0.06857684254646301, -0.014025699347257614, -0.07328565418720245, -0.1949417144060135, 0.07567251473665237, 0.18658295273780823, -0.010431853123009205, 0.02341890148818493, 0.018734032288193703, 0.011895226314663887, -0.03832634165883064, -0.02114296890795231, -0.08014196902513504, -0.10448509454727173, 0.11317071318626404, 0.06627786159515381, -0.04536690562963486, 0.03585371747612953, 0.11942005902528763, 0.049729153513908386, 0.08625265955924988, -0.0964241549372673, -0.042126674205064774, 0.0493692047894001, -0.04539850726723671, -0.17035764455795288, -0.020654667168855667, 0.061839185655117035, 0.03529345989227295, -0.13842204213142395, -0.023256655782461166, 0.059475116431713104, -0.10260035842657089, 0.031085794791579247, 0.02705746330320835, 0.07114800810813904, -0.027530808001756668, 0.0361049622297287, 0.029460465535521507, 0.0993768498301506, 0.044863421469926834, 0.02864484116435051, -0.05167507752776146, -0.02037171646952629, 0.07352498918771744, 0.02076081372797489, -0.009535311721265316, 0.07071859389543533, 0.08438359200954437, 0.06574263423681259, 0.10344821214675903, 0.11313528567552567, 0.16776518523693085, 0.032512858510017395, 0.03539018705487251, 0.07133134454488754, 0.17292898893356323, -0.0924484133720398, 0.04124551638960838, 0.05097832903265953, -0.11252892762422562, -0.020356763154268265, -0.013367201201617718, -0.09773577749729156, -0.002689814893528819, 0.08830571919679642, -0.09657570719718933, -0.1308884173631668, 0.1395043432712555, 0.10074375569820404, 0.005885622929781675, -0.03963801637291908, 0.04359588399529457, 0.09813091158866882, 0.034672338515520096, 0.048342108726501465, 0.01158763188868761, -0.013045605272054672, -0.0042851874604821205, -0.060831401497125626, -0.0040695383213460445, -0.03625285252928734, -0.1169268861413002, -0.0753166675567627, 0.009602935053408146, 0.019146569073200226, 0.009455819614231586, 0.08851642161607742, 0.1853153258562088, 0.04877825081348419, -0.03160850331187248, -0.048097848892211914, 0.1386815905570984, 0.15354494750499725, -0.03157784789800644, 0.08032137155532837, 0.017025725916028023, -0.0527975969016552, -0.028844717890024185, 0.03601697459816933, 0.03889688104391098, -0.03907061368227005, 0.015148202888667583, 0.01480734534561634, 0.041998423635959625, 0.09259894490242004, -0.004713027738034725, -0.08126728236675262, 0.038866765797138214, 0.020647238940000534, 0.1520046591758728, 0.14947928488254547, 0.04632548987865448, -0.03962177410721779], [0.03909710794687271, 0.1087750792503357, 0.10545386373996735, 0.016885437071323395, 0.0025841211900115013, 0.004251022823154926, -0.09852369129657745, -0.0029926649294793606, 0.046096302568912506, 0.006159322801977396, -0.09494147449731827, -0.07280249893665314, -0.12050290405750275, -0.08464120328426361, -0.08811993896961212, -0.14048278331756592, -0.00034783739829435945, 0.058990463614463806, 0.10627170652151108, 0.05441862344741821, -0.0283257644623518, -0.15349389612674713, -0.060253504663705826, 0.06216974928975105, 0.005081522278487682, -0.07475180178880692, -0.018667876720428467, 0.03384489193558693, -0.15807953476905823, -0.06801149249076843, -0.027344001457095146, -0.047427814453840256, -0.0457434318959713, 0.07349034398794174, -0.02695455029606819, 0.04201667755842209, -0.03525109216570854, 0.01320276502519846, 0.05495763570070267, 0.030835429206490517, 0.029096150770783424, 0.08474981784820557, 0.041817132383584976, 0.04915531352162361, -0.11326169222593307, -0.004164958838373423, -0.0008168361382558942, 0.04386582598090172, 0.10536754876375198, 0.021045688539743423, -0.02504388801753521, -0.021726589649915695, -0.004384189378470182, -0.01402873732149601, 0.026586264371871948, 0.028336603194475174, -0.14744696021080017, 0.09451545029878616, -0.020595330744981766, -0.12392357736825943, -0.04817192628979683, 0.019050512462854385, 0.04024708271026611, -0.1305256336927414, 0.027669187635183334, 0.045351095497608185, 0.09152641892433167, 0.04667135328054428, 0.07862650603055954, 0.09591984748840332, 0.06806407868862152, 0.0225375946611166, 0.0841599851846695, -0.08104368299245834, -0.028978945687413216, 0.029479503631591797, -0.04478335753083229, -0.030136583372950554, 0.03393356874585152, -0.049416087567806244, -0.1316935420036316, -0.07969703525304794, 0.04616537317633629, 0.16941620409488678, -0.09321852773427963, 0.18454773724079132, -0.006969096139073372, 0.03335288166999817, 0.04173603653907776, 0.028637148439884186, -0.02753089740872383, -0.09109825640916824, 0.044051893055438995, 0.007346162106841803, 0.007676923647522926, 0.08410798758268356, 0.10732364654541016, 0.061224814504384995, -0.034636568278074265, 0.03850867971777916, 0.016840768977999687, 0.0439688041806221, 0.039596669375896454, 0.08466897904872894, -0.025327010080218315, -0.06960877031087875, -0.026466337963938713, 0.041292596608400345, -0.06874901801347733, 0.01590229570865631, -0.1015506237745285, -0.07521616667509079, -0.1479654163122177, -0.023167284205555916, 0.041527774184942245, 0.11783776432275772, -0.049886710941791534, 0.08117234706878662, 0.07369639724493027, 0.03585454076528549, 0.0642106682062149, -0.051127418875694275, 0.11905676126480103, -0.02695847861468792, -0.08628103882074356, 0.06542298197746277, 0.12679441273212433, 0.027354123070836067, -0.05824002996087074, 0.0014022605028003454, 0.10963305830955505, 0.047858916223049164, -0.052605558186769485, 0.050507985055446625, 0.09756863117218018, 0.041084419935941696, 0.01899007149040699, 0.03709709644317627, 0.05218162015080452, -0.011244600638747215, 0.16142815351486206, 0.1542247235774994, 0.03758414834737778, 0.024112986400723457, -0.17071941494941711, 0.018453096970915794, 0.00707028154283762, 0.0954233780503273, -0.054354455322027206, -0.04543711617588997, 0.0267183855175972, -0.005244961008429527, -0.0719730406999588, -0.019712375476956367, 0.13587257266044617, 0.06871411949396133, 0.007009826134890318, 0.054813943803310394, 0.1493416279554367, -0.006633139681071043], [-0.0046198684722185135, -0.009045467711985111, 0.008334945887327194, 0.07709040492773056, -0.0745130255818367, -0.03230228275060654, 0.08595488965511322, -0.07114473730325699, -0.08864805102348328, -0.04879333823919296, -0.07111119478940964, -0.06141810119152069, 0.0560852512717247, -0.026938827708363533, -0.021751677617430687, 0.051780346781015396, -0.011659975163638592, -0.01999475248157978, -0.0009821928106248379, -0.1122521460056305, 0.12302836775779724, 0.08025689423084259, -0.018885593861341476, -0.041573815047740936, 0.041364558041095734, 0.12057530879974365, -0.03987177461385727, -0.07572858035564423, 0.004568923730403185, 0.03281066566705704, -0.002795115113258362, -0.06576356291770935, -0.03185810148715973, -0.005150798242539167, -0.12861937284469604, -0.17068150639533997, -0.04057621583342552, 0.09564396739006042, 0.0032895493786782026, -0.1287621557712555, 0.07866141945123672, 0.09261433780193329, -0.04512808844447136, 0.05458732321858406, 0.026353873312473297, -0.0013805849011987448, -0.034070730209350586, -0.06991740316152573, -0.034680306911468506, -0.01271501649171114, 0.10358749330043793, 0.0904020220041275, -0.012661533430218697, -0.009624551981687546, 0.06488315761089325, 0.016820020973682404, -0.057740431278944016, 0.022738365456461906, -0.012640608474612236, 0.006240455899387598, 0.05717102438211441, -0.08518639951944351, 0.03212856873869896, 0.1625172197818756, 0.07463513314723969, 0.017941152676939964, -0.06620919704437256, -0.10821787267923355, -0.017506472766399384, -0.04841285198926926, -0.06729422509670258, -0.16544488072395325, 0.0560767687857151, 0.04074682295322418, 0.10378705710172653, -0.028463277965784073, -0.06141379475593567, -0.032150790095329285, 0.026546712964773178, -0.13844716548919678, -0.06037656590342522, -0.15515126287937164, -0.053201306611299515, 0.07862338423728943, 0.09049699455499649, -0.15001268684864044, -0.010819796472787857, 0.12919943034648895, 0.015822118148207664, 0.06275706738233566, 0.10507645457983017, 0.09519552439451218, -0.06679500639438629, -0.060496747493743896, -0.10761678218841553, 0.013643445447087288, 0.09039086848497391, -0.07493505626916885, -0.1110147163271904, -0.07831797003746033, 0.05506259575486183, -0.09089864045381546, -0.0966172143816948, -0.023488987237215042, 0.062275953590869904, 0.013001206330955029, -0.0045523918233811855, -0.04430544748902321, -0.15195190906524658, -0.02229294367134571, 0.06585309654474258, 0.020132338628172874, -0.004255183041095734, 0.051308151334524155, -0.0070160431787371635, -0.058903008699417114, -0.03404000401496887, 0.12300803512334824, -0.0816299095749855, -0.007633891887962818, -0.017407191917300224, 0.14165352284908295, 0.018532682210206985, -0.043131086975336075, 0.09627664089202881, -0.028310462832450867, -0.032618582248687744, 0.04988483339548111, 0.007580338977277279, 0.006014862097799778, 0.017327982932329178, 0.17012129724025726, -0.09025269001722336, -0.10932476073503494, 0.0752657875418663, -0.054511673748493195, -0.13500462472438812, -0.06515464931726456, 0.011566098779439926, -0.031811829656362534, 0.0185860525816679, -0.05493156239390373, -0.00941446889191866, 0.09341583400964737, 0.02405811846256256, 0.06345120072364807, -0.06403358280658722, -0.017183516174554825, -0.024751033633947372, 0.11891016364097595, -0.06350219249725342, -0.013401411473751068, 0.04139949753880501, -0.058280691504478455, -0.08877620846033096, 0.0002199587324867025, 0.04859362915158272, -0.030980169773101807, 0.04068491980433464, -0.058966781944036484], [-0.05565004050731659, -0.04819760099053383, -0.010858633555471897, 0.06769785284996033, 0.036948204040527344, -0.06607850641012192, -0.012372780591249466, -0.023523522540926933, -0.08266003429889679, -0.09095460921525955, -0.03310450166463852, 0.02783096581697464, 0.01715797558426857, -0.04180430620908737, -0.060771115124225616, -0.05888860672712326, 0.0022042833734303713, -0.038073062896728516, 0.039403002709150314, 0.033083874732255936, -0.07482027262449265, 0.012155318632721901, 0.021217545494437218, -0.07644966244697571, 0.021556373685598373, -0.04423138126730919, -0.04485083743929863, -0.07557322084903717, -0.104645736515522, -0.0750955119729042, -0.028004558756947517, 0.058376897126436234, -0.03820177912712097, -0.07737855613231659, 0.02509775198996067, 0.037740226835012436, 0.007558316458016634, -0.02296009100973606, 0.0540764257311821, -0.035477932542562485, 0.061285119503736496, -0.04788271710276604, -0.08091939240694046, -0.02733238786458969, -0.1143307015299797, -0.047964103519916534, 0.049265701323747635, 0.03824138268828392, 0.04968054220080376, -0.006868276745080948, 0.06838395446538925, -0.038506630808115005, 0.021794216707348824, -0.03496740758419037, -0.038273174315690994, -0.0793447196483612, 0.00041612869245000184, 0.028641359880566597, 0.019693836569786072, 0.031606320291757584, 0.03117063269019127, 0.00010911452409345657, 0.06977392733097076, 0.0340360626578331, 0.03655128553509712, -0.008606909774243832, 0.034025780856609344, 0.06006874889135361, 0.0021524527110159397, -0.0037249482702463865, 0.021720798686146736, -0.01547203492373228, 0.026068704202771187, -0.03390152379870415, -0.03743193298578262, -0.11420939862728119, 0.05346407741308212, -0.06845863908529282, -0.005981427151709795, -0.10327684879302979, 0.029772190377116203, -0.019593296572566032, -0.0009513379773125052, 0.04998194798827171, -0.04145655035972595, -0.07042637467384338, 0.05608857423067093, -0.07164187729358673, -0.0663142204284668, 0.054329629987478256, 0.011025425046682358, -0.056002356112003326, -0.08032888174057007, 0.021744607016444206, 0.09844400733709335, 0.056422289460897446, -0.04072744399309158, -0.010797922499477863, -0.034205228090286255, -0.05566783621907234, -0.00231946655549109, 0.001176881487481296, -0.049245405942201614, -0.01049711275845766, -0.03989115357398987, 0.04788319766521454, -0.06936141848564148, -0.02288542129099369, -0.016624528914690018, 0.00459637027233839, -0.04267480969429016, -0.07340268045663834, -0.057412248104810715, 0.047324515879154205, -0.02541542612016201, -0.014532194472849369, 0.0051062507554888725, 0.004882348235696554, -0.0850728303194046, -0.05736708641052246, -0.031636182218790054, 0.029991261661052704, -0.045891765505075455, 0.007559784222394228, -0.08459305763244629, 0.07678136974573135, 0.011018424294888973, 0.016987871378660202, -0.000612819567322731, -0.02155718393623829, -0.030836261808872223, -0.05709993839263916, -0.0868171975016594, -0.04842829704284668, -0.00019166222773492336, -0.04540899023413658, -0.08547748625278473, 0.04030555114150047, 0.08174511790275574, -0.02517622709274292, -0.04835743457078934, 0.003559987060725689, 0.13610267639160156, -0.09756253659725189, 0.014139982871711254, -0.0031873025000095367, 0.04240621626377106, -0.08817686140537262, 0.06127207726240158, 0.03229157254099846, -0.05427904054522514, 0.038041938096284866, -0.044265300035476685, 0.02151316963136196, -0.03259940817952156, -0.0023360264021903276, -0.04789326339960098, 0.045381780713796616, 0.03982831910252571, -0.055081095546483994], [0.002958354540169239, 0.014572023414075375, -0.03995988890528679, 0.03119604103267193, -0.12398748844861984, -0.09745785593986511, 0.02295377291738987, 0.1775551438331604, -0.16766157746315002, -0.06676621735095978, -0.008467008359730244, -0.18389160931110382, -0.09882312268018723, -0.057462871074676514, -0.10850045084953308, -0.08653010427951813, -0.14190037548542023, -0.06409657746553421, -0.1435808390378952, -0.019970780238509178, -0.005983312614262104, -0.038583122193813324, -0.007323071360588074, 0.025361474603414536, 0.11745971441268921, -0.01705794781446457, 0.012662519700825214, 0.04740232229232788, -0.08528348803520203, -0.12290699034929276, -0.026597125455737114, -0.0355059914290905, -0.06013694405555725, -0.05393574386835098, 0.05903804674744606, 0.01646062359213829, 0.02817193605005741, 0.003751280950382352, -0.015086866915225983, -0.05842132493853569, -0.016339385882019997, -0.013325901702046394, -0.05025799199938774, -0.06600533425807953, -0.06282816082239151, 0.056252073496580124, 0.06881354749202728, 0.08510448783636093, 0.007535903248935938, -0.019475219771265984, 0.0789734274148941, 0.025563402101397514, 0.08512545377016068, -0.06859148293733597, 0.057955481112003326, 0.08213141560554504, 0.10109252482652664, -0.04188983142375946, -0.06627382338047028, -0.08011824637651443, 0.06110350787639618, 0.00053312600357458, 0.018394090235233307, 0.042072635143995285, 0.055234670639038086, 0.03234747797250748, 0.0027356965001672506, -0.009000773541629314, -0.09280896931886673, 0.057067692279815674, -0.1201925277709961, -0.0630665272474289, -0.0808936357498169, 0.06805697083473206, 0.0317225307226181, -0.06747877597808838, 0.05585417523980141, 0.11185597628355026, -0.01183091290295124, 0.056120213121175766, -0.04370522126555443, 0.04237225279211998, 0.1089899092912674, 0.048043664544820786, -0.015906449407339096, -0.08657597750425339, 0.01801379956305027, -0.0066627929918468, -0.1362358182668686, -0.1313762366771698, 0.07451408356428146, 0.03042587637901306, -0.03486054018139839, 0.06653018295764923, 0.16069751977920532, -0.11803697794675827, -0.06213728338479996, 0.004381104838103056, -0.0032750212121754885, -0.020774386823177338, -0.14094363152980804, -0.01454795990139246, -0.1257551908493042, -0.08575094491243362, -0.016084618866443634, 0.02983047440648079, 0.018524769693613052, -0.02710513398051262, 0.09953778237104416, 0.05897090211510658, 0.03741927444934845, -0.047023117542266846, -0.025587143376469612, 0.09797438234090805, 0.021789858117699623, 0.0032732663676142693, 0.02748640812933445, -0.004254032392054796, 0.08402588963508606, -0.01431809738278389, -0.0686454102396965, -0.07431129366159439, 0.13657207787036896, 0.06692381203174591, -0.08161035180091858, 0.0564948134124279, 0.1574799120426178, 0.05694086477160454, 0.07049423456192017, -0.03174304962158203, -0.026090120896697044, -0.06121237576007843, 0.03270501643419266, -0.09457942098379135, -0.062345266342163086, -0.07063979655504227, 0.009797916747629642, 0.007285706233233213, 0.048064012080430984, -0.05799717456102371, -0.007829749956727028, 0.15911570191383362, 0.028191637247800827, 0.0033925368916243315, 0.07392099499702454, 0.07340223342180252, 0.020968539640307426, 0.05907132476568222, -0.024844815954566002, -0.06505102664232254, 0.0365682877600193, 0.07204601168632507, -0.05137275904417038, -0.06323053687810898, 0.03370494395494461, 0.03445793688297272, 0.040025513619184494, 0.0695735290646553, -0.0034762267023324966, 0.13071365654468536], [-0.05165030062198639, -0.03380846977233887, -0.08521633595228195, -0.0532301664352417, -0.07649198919534683, -0.11546061187982559, 0.04630071669816971, 0.007502073422074318, 0.016075974330306053, 0.0049876985140144825, 0.0139668183401227, 0.03743993863463402, 0.24496012926101685, 0.1639118641614914, 0.11159926652908325, 0.09890661388635635, 0.026184778660535812, 0.041191305965185165, -0.021221021190285683, -0.08016865700483322, -0.027400655671954155, -0.0028967156540602446, 0.0022922472562640905, -0.047931354492902756, 0.04935014620423317, 0.04456908628344536, -0.031014420092105865, 0.07328050583600998, 0.034813083708286285, 0.026057830080389977, 0.07901095598936081, 0.0865100622177124, 0.06925801932811737, 0.014284645207226276, 0.04739666357636452, 0.06484255194664001, 0.049693021923303604, 0.13700051605701447, 0.03606611490249634, -0.03765605762600899, -0.028006944805383682, 0.05503588914871216, 0.07566756010055542, 0.012703652493655682, -0.05264481529593468, -0.0006427646731026471, -0.00828706193715334, -0.0385117344558239, -0.0791679173707962, 0.05789150670170784, -0.09003984183073044, -0.04328039288520813, -0.05372084677219391, -0.059209857136011124, -0.06683973968029022, 0.06026976928114891, 0.035335272550582886, -0.048046693205833435, 0.10369976609945297, 0.1890503615140915, 0.07187016308307648, 0.024733934551477432, 0.05830952525138855, 0.09876298904418945, -0.02760465443134308, 0.08827914297580719, -0.024359792470932007, -0.019992275163531303, 0.05479203164577484, 0.011017872951924801, -0.01456994004547596, 0.012281202711164951, 0.05027776211500168, 0.10313882678747177, 0.03221571445465088, -0.05667014420032501, -0.030581705272197723, 0.07178244739770889, -0.033536382019519806, -0.07011836767196655, 0.032861918210983276, 0.03616057336330414, -0.015135535970330238, -0.012507647275924683, -0.0036901028361171484, -0.0331580825150013, -0.08699410408735275, 0.04057158902287483, 0.06559842079877853, -0.07417522370815277, -0.031363483518362045, -0.03274158388376236, -0.006403719075024128, -0.09050539135932922, -0.04148354381322861, -0.0023080692626535892, 0.0951678529381752, 0.08636239916086197, 0.0381314791738987, 0.09758743643760681, 0.08622770756483078, -0.03452039882540703, 0.06794729828834534, 0.03273625671863556, 0.14105385541915894, 0.14006836712360382, 0.003117445157840848, -0.030032753944396973, -0.00014078893582336605, 0.07618697732686996, 0.0581403411924839, 0.05475408211350441, -0.05680321902036667, 0.010854654014110565, 0.01321667991578579, -0.09484162926673889, -0.08446857333183289, 0.017124738544225693, -0.03434545919299126, -0.03754735365509987, -0.004220728296786547, -0.15499012172222137, 0.056915830820798874, -0.04962117224931717, -0.054745081812143326, -0.12414271384477615, -0.057519830763339996, -0.06485050171613693, -0.10602045804262161, 0.001013850443996489, 0.07789672166109085, 0.12377985566854477, -0.1978107988834381, 0.018915314227342606, -0.04078908637166023, 0.08884606510400772, -0.1456862837076187, -0.1250053346157074, -0.04465947672724724, 0.017162706702947617, -0.10347865521907806, -0.10264631360769272, 0.036952629685401917, 0.06353612244129181, -0.11289898306131363, 0.08646019548177719, -0.0658886581659317, -0.07382208108901978, 0.039368972182273865, -0.024325450882315636, 0.010383209213614464, -0.095425546169281, 0.10279712826013565, 0.029989751055836678, -0.021166548132896423, 0.014834706671535969, 0.08373089134693146, 0.05377497151494026, -0.011341172270476818, 0.02628147043287754], [0.05856090784072876, -0.018120570108294487, -0.025033345445990562, 0.08259116113185883, 0.13982494175434113, -0.011672420427203178, -0.05320469290018082, -0.07246951013803482, 0.12407611310482025, 0.019488537684082985, 0.07552307844161987, 0.023073986172676086, 0.09698744863271713, 0.11378493160009384, 0.05446837469935417, 0.05787334218621254, 0.12838174402713776, 0.056221481412649155, 0.021947436034679413, 0.01228814385831356, -0.05154220387339592, -0.10184270888566971, -0.06008477881550789, 0.03141405060887337, -0.010748881846666336, 0.11195047944784164, -0.02239249460399151, 0.1160593032836914, -0.11047234386205673, 0.06148214638233185, 0.055686917155981064, -0.02829296886920929, 0.19568967819213867, 0.06979302316904068, 0.11624637246131897, 0.032784603536129, 0.11923395842313766, 0.0812361091375351, 0.005275459494441748, -0.004527050070464611, -0.11864206194877625, -0.07902644574642181, -0.006554677151143551, 0.0802316963672638, -0.07327829301357269, -0.03737513720989227, -0.038970474153757095, -0.01673019491136074, -0.06903998553752899, 0.16982944309711456, 0.08204860985279083, 0.02482466772198677, -0.11398123949766159, -0.044035814702510834, -0.029972800984978676, 0.0812913253903389, -0.06590964645147324, -0.05455603450536728, -0.015719376504421234, 0.015020010061562061, 0.04072440415620804, 0.03119892068207264, 0.08495590090751648, -0.030660899356007576, 0.14529873430728912, 0.16409286856651306, 0.006682396866381168, 0.012270988896489143, 0.17077402770519257, 0.12398958206176758, -0.022682925686240196, -0.06765752285718918, 0.051307398825883865, 0.023541290313005447, 0.0697280541062355, -0.0019495519809424877, 0.09177997708320618, -0.03099737875163555, 0.059572506695985794, 0.016290543600916862, -0.0148622402921319, -0.1422051340341568, -0.034324996173381805, -0.03407423198223114, -0.03596014529466629, 0.000376752985175699, 0.05665052309632301, 0.007936027832329273, 0.11449173092842102, -0.03863345459103584, -0.015561799518764019, -0.07253037393093109, 0.06372873485088348, 0.06601918488740921, 0.10683775693178177, 0.059911374002695084, 0.349933385848999, 0.1447199434041977, -0.03749069198966026, 0.012192625552415848, 0.1494935005903244, 0.023999307304620743, 0.047090623527765274, -0.021870750933885574, -0.06190755218267441, -0.08237563818693161, -0.04895669221878052, 0.036713533103466034, 0.09163464605808258, 0.07832002639770508, -0.0017865118570625782, 0.12367474287748337, -0.20756015181541443, -0.12870055437088013, 0.0973181501030922, 0.03274624049663544, -0.022522691637277603, 0.08421336859464645, 0.005589973647147417, -0.04265594854950905, -0.022412018850445747, -0.0337444506585598, -0.041952721774578094, -0.036081183701753616, -0.07015290856361389, -0.057337723672389984, -0.014079066924750805, -0.02129306271672249, -0.19697915017604828, 0.022516094148159027, 0.030768616124987602, 0.1878916323184967, -0.1025606170296669, 0.11045718938112259, 0.07989863306283951, 0.06108682230114937, -0.028877608478069305, -0.07556955516338348, -0.09975637495517731, 0.037947289645671844, -0.010967633686959743, -0.044647637754678726, 0.047661636024713516, 0.034594353288412094, -0.21177685260772705, -0.06162296608090401, -0.011480914428830147, -0.11835310608148575, -0.01770445890724659, 0.10947372764348984, 0.0006088626105338335, -0.07465511560440063, 0.008102909661829472, 0.10699444264173508, 0.07382253557443619, 0.03777557611465454, 0.0543975755572319, 0.011129675433039665, 0.10198206454515457, -0.041603464633226395], [0.017694102600216866, 0.04972879961133003, 0.03030450828373432, -0.10077068954706192, 0.07533358782529831, 0.03876376152038574, 0.019953284412622452, -0.010972651652991772, 0.02860458381474018, 0.01057430263608694, -0.009970716200768948, -0.0193812046200037, -0.10564623028039932, 0.09200835227966309, 0.04952645301818848, -0.0842926949262619, -0.04735061526298523, -0.05918094143271446, 0.009320669807493687, 0.0880858451128006, -0.020049089565873146, -0.00803417805582285, 0.1424383670091629, 0.15321102738380432, -0.04938584938645363, 0.025469306856393814, -0.019637398421764374, -0.024504803121089935, 0.006369742564857006, 0.043853625655174255, -0.005604003090411425, -0.015252916142344475, -0.1349070817232132, 0.03727811947464943, 0.014876666478812695, 0.08584164828062057, 0.003940723370760679, -0.11586587876081467, 0.034417860209941864, 0.19821813702583313, -0.00259251962415874, -0.0015032413648441434, -0.0026546488516032696, -0.015824194997549057, 0.03131251782178879, 0.02418331243097782, -0.024956965819001198, -0.010261867195367813, 0.28173547983169556, 0.2576673626899719, 0.0023602116852998734, -0.1453549563884735, 0.18790298700332642, 0.14057357609272003, -0.24471279978752136, 0.022613011300563812, 0.14571109414100647, 0.051882293075323105, -0.005635509267449379, 0.0856192409992218, 0.0763140320777893, 0.07475979626178741, -0.00397766288369894, -0.150679349899292, -0.0350535623729229, -0.0990816280245781, -0.05451025068759918, -0.034334201365709305, -0.21532689034938812, -0.06895937025547028, 0.07071426510810852, 0.030199481174349785, 0.12320704758167267, 0.030130397528409958, -0.11752709001302719, 0.02573368325829506, -0.05512748286128044, 0.008726963773369789, -0.01972527615725994, 0.08336712419986725, -0.09621360152959824, 0.0751148909330368, 0.020434213802218437, -0.010919409804046154, 0.0521346740424633, 0.14121827483177185, 0.08411478996276855, -0.09517043083906174, 0.11072080582380295, 0.05130917951464653, -0.06295762956142426, 0.004639096558094025, 0.034504376351833344, -0.014879602938890457, -0.014199500903487206, 0.04407614469528198, -0.1101214736700058, -0.1659085601568222, -0.03206438571214676, 0.004883189685642719, -0.028894266113638878, 0.04568172246217728, 0.1017019972205162, 0.04522782564163208, -0.038969893008470535, 0.006925483699887991, -0.053807612508535385, -0.03439631313085556, 0.02978513203561306, 0.011299123987555504, -0.027512725442647934, 0.13604702055454254, 0.03083316795527935, 0.12610650062561035, -0.028419584035873413, 0.005072867963463068, 0.06465832889080048, 0.07503951340913773, 0.062195416539907455, 0.12169186025857925, 0.007845047861337662, 0.015734944492578506, -0.03791017457842827, 0.08464603871107101, 0.02995109371840954, 0.011556986719369888, -0.06322137266397476, -0.11238512396812439, 0.13723690807819366, 0.14999032020568848, 0.1499897539615631, 0.006482225842773914, 0.11573844403028488, 0.06962383538484573, -0.04129164665937424, -0.1035788282752037, 0.10881831496953964, 0.06124035641551018, -0.0406227745115757, -0.026372374966740608, 0.09011571854352951, -0.09315551072359085, -0.07093159109354019, 0.022842243313789368, 0.057475946843624115, 0.16125613451004028, 0.15136845409870148, 0.2254321575164795, 0.1810969114303589, 0.053386934101581573, 0.006153078284114599, -0.0801442563533783, -0.04011274501681328, 0.01649661362171173, 0.045658618211746216, -0.059607964009046555, -0.03732702136039734, -0.07859247177839279, 0.0054931361228227615, -0.04505748301744461], [-0.1035197526216507, -0.05083674192428589, -0.10864975303411484, -0.154340922832489, 0.007957429625093937, 0.12124846130609512, 0.045868970453739166, 0.12138735502958298, 0.03018483892083168, 0.0526556521654129, 0.03018040582537651, 0.10787053406238556, 0.0883198007941246, 0.10918247699737549, 0.0283806249499321, -0.03238893672823906, -0.1272788792848587, -0.20279014110565186, -0.11771812289953232, -0.017302708700299263, 0.057228993624448776, -0.03664756193757057, 0.07422970980405807, 0.11883455514907837, 0.06554796546697617, 0.0005745042581111193, 0.04482679441571236, 0.0354260616004467, 0.11535098403692245, 0.06286291778087616, 0.10953063517808914, -0.018239624798297882, -0.11257361620664597, -0.05619515851140022, -0.058328792452812195, 0.01732495054602623, 0.018540628254413605, 0.08530695736408234, 0.06745615601539612, 0.040345873683691025, -0.029868178069591522, 0.009130649268627167, 0.03144783154129982, -0.10730493068695068, -0.0026348906103521585, 0.029695460572838783, 0.06542431563138962, 0.018735535442829132, 0.1413644403219223, 0.21307341754436493, -0.026136593893170357, -0.15477541089057922, 0.019755655899643898, 0.08393896371126175, -0.1428637057542801, 0.027940120548009872, -0.021526191383600235, 0.020044121891260147, 0.10466568917036057, 0.03617601841688156, 0.07575339078903198, -0.05169648304581642, 0.03607486933469772, 0.0684373676776886, -0.046723250299692154, -0.04766957089304924, -0.10585685819387436, 0.0031771634239703417, -0.15514013171195984, 0.012441282160580158, -0.060644473880529404, 0.046796996146440506, 0.05058418959379196, 0.045309387147426605, 0.035598479211330414, -0.06027750298380852, 0.05994029715657234, -0.024547776207327843, -0.054847922176122665, 0.037877775728702545, -0.03972895070910454, -0.02252914011478424, -0.02682901918888092, 0.1438431739807129, -0.030940765514969826, -0.06510157138109207, -0.03358450159430504, -0.07669997960329056, 0.07488357275724411, -0.07557361572980881, 0.04235409200191498, -0.08949422091245651, 0.02243143320083618, -0.11253374814987183, 0.04915141686797142, -0.04755770415067673, -0.008851408027112484, -0.11149102449417114, -0.06795518845319748, 0.226944237947464, -0.05208370462059975, 0.040451716631650925, -0.05642884969711304, 0.13653112947940826, 0.05601791664958, 0.026510003954172134, 0.00040408901986666024, -0.045064929872751236, 0.050733745098114014, 0.00640509556978941, 0.1145961582660675, -0.009130205027759075, 0.030806759372353554, 0.12832921743392944, 0.017432812601327896, -0.032872796058654785, -0.027354646474123, 0.0760999470949173, 0.026557963341474533, 0.008090700954198837, -0.04042980074882507, 0.045852191746234894, 0.10055819898843765, -0.042717017233371735, -0.0007589076994918287, 0.05367707461118698, 0.05426532402634621, -0.03126979619264603, 0.10070361196994781, 0.18532653152942657, 0.2551453113555908, 0.15551798045635223, 0.012053444050252438, 0.07823038846254349, 0.0046286373399198055, -0.09787552803754807, -0.07297860085964203, 0.010610438883304596, -0.06069498881697655, -0.03434907644987106, -0.07048918306827545, -0.018650691956281662, -0.009260561317205429, -0.03918922692537308, -0.022837962955236435, 0.08607088029384613, 0.14685888588428497, 0.1358345001935959, 0.08881889283657074, 0.07801011204719543, -0.02917582541704178, -0.05152231454849243, -0.01857883669435978, 0.034878749400377274, -0.06148536503314972, -0.08730080723762512, 0.002258200664073229, -0.035855989903211594, -0.06742170453071594, 0.02322114072740078], [-0.035828281193971634, -0.025226693600416183, 0.03757013380527496, -0.07742692530155182, 0.048084527254104614, -0.038855817168951035, -0.06328368932008743, 0.025196753442287445, 0.029448440298438072, 0.05287550762295723, 0.07712451368570328, 0.13138702511787415, 0.12600500881671906, 0.056235600262880325, 0.05462685227394104, 0.11747296154499054, 0.03607536852359772, 0.042357392609119415, 0.03737284988164902, 0.0748448520898819, -0.00036954600363969803, -0.022476263344287872, 0.02597658522427082, -0.0005416072090156376, 0.021141789853572845, -0.0755084827542305, -0.06100902706384659, 0.025346975773572922, 0.051311589777469635, 0.09255843609571457, 0.004514577332884073, 0.033444274216890335, 0.019898058846592903, 0.11803841590881348, 0.0324195995926857, 0.08625523746013641, 0.042103491723537445, 0.019036484882235527, -0.014794041402637959, 0.14575542509555817, -0.005074233282357454, 0.013207816518843174, -0.03951280936598778, 0.052458006888628006, 0.08661848306655884, 0.07802432775497437, 0.07469634711742401, 0.05359146371483803, -0.0430792011320591, -0.007971611805260181, -0.016928013414144516, -0.15533649921417236, 0.0031316298991441727, 0.11417914181947708, 0.053633417934179306, -0.0033791970927268267, -0.017608076333999634, 0.001871660933829844, 0.16913774609565735, 0.03441382944583893, 0.10777806490659714, 0.0535518117249012, 0.06418721377849579, -0.011060821823775768, -0.07725482434034348, -0.050335582345724106, 0.043709807097911835, 0.06376644968986511, -0.10434868186712265, 0.05193671956658363, 0.08856275677680969, 0.08327674865722656, 0.04426224157214165, 0.022539937868714333, -0.0523783415555954, -0.015037274919450283, -0.009589597582817078, 0.039609357714653015, -0.04070781543850899, -0.11524898558855057, -0.136050283908844, 0.028219133615493774, 0.008974466472864151, -0.07481999695301056, 0.033181071281433105, 0.09614390879869461, -0.10933545976877213, -0.180216446518898, 0.04822229966521263, -0.04683986306190491, -0.035272017121315, -0.12033053487539291, -0.10333537310361862, -0.11315622925758362, -0.1025509238243103, -0.015384491533041, -0.12160118669271469, 0.010016914457082748, 0.10603781789541245, 0.06618901342153549, 0.024028070271015167, 0.02547326683998108, 0.07083114236593246, 0.027087947353720665, 0.1366790533065796, 0.08397754281759262, -0.07492616027593613, -0.00973455235362053, 0.005629132501780987, 0.010628931224346161, -0.05103204399347305, -0.03387406840920448, -0.0031578096095472574, 0.10480931401252747, 0.07489533722400665, -0.08975816518068314, -0.060876987874507904, 0.09619636088609695, 0.05425407364964485, -0.08145181089639664, -0.020801547914743423, -0.02076629176735878, -0.05580770969390869, -0.0719790831208229, -0.02321292646229267, -0.015291126444935799, -0.1071009710431099, -0.004646234679967165, 0.0281126257032156, 0.07125214487314224, -0.05344095826148987, -0.1399378627538681, 0.04581066220998764, 0.007468658499419689, -0.049075014889240265, -0.16489051282405853, -0.10594676434993744, 0.010494930669665337, 0.01149001531302929, 0.01045170146971941, -0.10835649818181992, -0.05995791032910347, -0.0672849640250206, 0.019695449620485306, 0.07115772366523743, 0.0854535773396492, 0.06013919413089752, -0.05161040648818016, -0.10729412734508514, -0.0202176570892334, -0.04922206699848175, -0.01987120881676674, -0.17936359345912933, -0.034260328859090805, 0.08339152485132217, 0.0723453089594841, 0.0011325911618769169, 0.053249236196279526, 0.0056798821315169334, -0.040244169533252716], [-0.08344873040914536, -0.09454381465911865, 0.049798257648944855, 0.004887273535132408, -0.05380697920918465, -0.09709766507148743, -0.1301724910736084, -0.11944837868213654, 0.07749252021312714, 0.03671936318278313, -0.11072306334972382, 0.037030816078186035, 0.19240832328796387, 0.20172065496444702, 0.12244369089603424, 0.04332133010029793, 0.04952751472592354, 0.06954262405633926, -0.1756339967250824, -0.17322947084903717, 0.07824920117855072, 0.10689736902713776, 0.03567790985107422, -0.15440919995307922, -0.03198687732219696, -0.07409732788801193, -0.06279997527599335, -0.08901530504226685, 0.020559659227728844, 0.08287014067173004, 0.1004055067896843, 0.13063038885593414, 0.032737623900175095, -0.07019660621881485, -0.04536393657326698, -0.023826170712709427, 0.07244682312011719, 0.1599167287349701, 0.017827754840254784, 0.07437843829393387, 0.006438911892473698, 0.10679374635219574, -0.0419175885617733, 0.06664427369832993, 0.07428248226642609, 0.03771713748574257, -0.0155537324026227, 0.0062904367223382, -0.00468103215098381, -0.04961531609296799, 0.06652059406042099, -0.012215959839522839, -0.07469205558300018, 0.0016896858578547835, 0.046026043593883514, 0.00864003412425518, -0.017104191705584526, -0.024330228567123413, 0.06005410850048065, -0.029985971748828888, 0.06416403502225876, 0.07259514927864075, 0.04625679552555084, -0.03800617903470993, -0.08808830380439758, 0.0034302009735256433, -0.059103623032569885, 0.05607764422893524, -0.023083925247192383, 0.017704913392663002, -0.02433188073337078, -0.16718600690364838, 0.05809778347611427, 0.15162181854248047, 0.14194142818450928, 0.010019869543612003, 0.022809026762843132, -0.0008684928761795163, -0.03915053606033325, 0.016788363456726074, -0.08269671350717545, 0.01847858726978302, 0.03954506292939186, 0.07970473915338516, -0.11656109243631363, -0.026005888357758522, -0.008710315451025963, 0.03745609521865845, -0.08831081539392471, 0.03879069164395332, 0.07375101000070572, -0.14334605634212494, 0.048267051577568054, 0.13931070268154144, -0.0620221346616745, -0.10556669533252716, -0.12001492828130722, -0.013041502796113491, -0.07874082773923874, 0.01670994609594345, 0.06625330448150635, 0.08284133672714233, 0.05814717337489128, 0.040541231632232666, 0.005672793369740248, 0.11108653992414474, -0.0174043420702219, -0.11233584582805634, 0.012764450162649155, -0.04144536703824997, 0.1238609254360199, 0.04969078674912453, 0.06183619424700737, 0.09081122279167175, 0.04825665056705475, 0.04764138534665108, -0.052667662501335144, 0.0031541925854980946, 0.10453030467033386, -0.0553743951022625, -0.07655137032270432, -0.019793035462498665, 0.042513925582170486, -0.004807738587260246, 0.07201066613197327, 0.03204215690493584, 0.031291961669921875, -0.050185032188892365, -0.1750902682542801, 0.06634194403886795, 0.12499862164258957, 0.06039929762482643, -0.06383636593818665, -0.03486645221710205, 0.05138658359646797, -0.0028508298564702272, -0.11959203332662582, -0.019376540556550026, 0.0029509214218705893, 0.005019215866923332, 0.08489374816417694, 0.10325922071933746, -0.07396220415830612, 0.042951710522174835, -0.03957685828208923, 0.00015933113172650337, 0.02336140163242817, 0.013364928774535656, -0.04152660816907883, -0.07098913937807083, 0.02086757682263851, -0.014711106196045876, -0.03737320378422737, -0.1240081638097763, 0.06188146024942398, -0.017660925164818764, 0.05265050008893013, -0.07052876800298691, 0.010112588293850422, 0.09690476953983307], [0.06050071120262146, 0.14542526006698608, -0.009635817259550095, 0.07904093712568283, 0.06276287138462067, 0.15330761671066284, 0.07860731333494186, -0.03389681875705719, 0.040358252823352814, 0.018515286967158318, -0.09967745840549469, 0.0814829170703888, -0.08241380006074905, 0.015369824133813381, -0.12354181706905365, -0.03809298947453499, 0.07809879630804062, 0.05489813908934593, -0.03949528560042381, -0.07019961625337601, 0.1372428685426712, 0.17915558815002441, 0.06263205409049988, -0.007908564992249012, 0.0521220900118351, 0.13860400021076202, 0.055644769221544266, 0.06840841472148895, -0.07414176315069199, -0.0747913047671318, 0.041871849447488785, -0.1041993498802185, 0.08890663087368011, 0.06382136046886444, -0.01109540369361639, -0.08807868510484695, 0.06371721625328064, 0.050819605588912964, 0.07349664717912674, -0.1634874790906906, 0.004070468246936798, 0.11103899776935577, 0.02790467068552971, -0.01893441192805767, 0.026691917330026627, -0.08922693133354187, 0.006601065397262573, -0.11380110681056976, 0.019329167902469635, 0.02449065074324608, 0.13302233815193176, 0.1734723597764969, 0.10898450016975403, 0.051569968461990356, -0.051909878849983215, -0.148811474442482, -0.02593877539038658, -0.0007343187462538481, -0.03667006269097328, -0.0033085993491113186, 0.05410425364971161, -0.004102351609617472, 0.1322978138923645, 0.06243623048067093, 0.03378662094473839, -0.026427386328577995, -0.08032821863889694, -0.10772180557250977, 0.02598072774708271, 0.005434345453977585, -0.00927669182419777, 0.03352684527635574, 0.1297442615032196, -0.08124472200870514, -0.00696919672191143, 0.2236993908882141, -0.02414150908589363, -0.10590450465679169, -0.055184297263622284, 0.021832430735230446, 0.013868482783436775, -0.004227086901664734, -0.13217321038246155, -0.0031481808982789516, 0.007905681617558002, 0.03552596643567085, -0.036911144852638245, 0.11600898951292038, 0.10000835359096527, 0.0016598382499068975, 0.03707320615649223, 0.04323483631014824, -0.06611979752779007, -0.04405184090137482, 0.04460930451750755, 0.03922375291585922, 0.02320970594882965, -0.04233437031507492, -0.07968002557754517, -0.11207380890846252, 0.1422305554151535, 0.049518782645463943, -0.010485023260116577, 0.05727130174636841, 0.10954900830984116, -0.06482776254415512, 0.11918570101261139, 0.12213947623968124, -0.034311916679143906, -0.1295604705810547, -0.09995857626199722, -0.02282194048166275, 0.011875609867274761, 0.012454601004719734, 0.06876809895038605, 0.018004106357693672, 0.01834884099662304, 0.03749402239918709, -0.03327232599258423, -0.07286813110113144, -0.052477672696113586, 0.04084314778447151, 0.10240815579891205, -0.026906371116638184, 0.0160074345767498, 0.10899294167757034, 0.10599034279584885, 0.06637447327375412, -0.050559405237436295, -0.06824619323015213, 0.10652436316013336, 0.1924552619457245, -0.003005057107657194, -0.08355140686035156, 0.07707412540912628, 0.04675270989537239, 0.05065709352493286, 0.009191380813717842, -0.08138354867696762, -0.09148821979761124, 0.07284358888864517, 0.11515456438064575, 0.1600876748561859, -0.059840139001607895, 0.07107162475585938, -0.09136668592691422, -0.02013486810028553, 0.03774317353963852, -0.02772580273449421, 0.0265657901763916, 0.09722720831632614, -0.06119122728705406, -0.036434270441532135, 0.08958257734775543, 0.0233745314180851, 0.039796289056539536, 0.04464630410075188, -0.047906745225191116, 0.003498273203149438, 0.0025743176229298115], [-0.08883313089609146, 0.05108030512928963, 0.01337619498372078, 0.07659061253070831, 0.00809026975184679, 0.04716311767697334, -0.07182379066944122, -0.11397936940193176, -0.08851264417171478, -0.030090751126408577, -0.07945334911346436, -0.05010366812348366, 0.08520815521478653, 0.035486940294504166, -0.1475421041250229, -0.12271969765424728, -0.0061979712918400764, -0.046438753604888916, 0.016985807567834854, 0.033657096326351166, -0.07669706642627716, -0.1328425407409668, -0.01159144937992096, 0.0226203054189682, 0.06686343997716904, -0.0053425198420882225, -0.06263129413127899, -0.043373897671699524, -0.12517796456813812, -0.07993603497743607, -0.0966702327132225, -0.0776268020272255, -0.011278764344751835, 0.0719171017408371, 0.10941281169652939, 0.007598081137984991, 0.01790114864706993, 0.0217665433883667, 0.06921888887882233, -0.018517976626753807, -0.04701313376426697, 0.06666393578052521, -0.0390758141875267, 0.011643791571259499, -0.07752613723278046, -0.019593805074691772, -0.051211897283792496, -0.027201848104596138, 0.03407948091626167, -0.03286319226026535, 0.09231995046138763, 0.04018629714846611, -0.023286599665880203, -0.045834317803382874, -0.029824478551745415, 0.010794938541948795, -0.06403692066669464, 0.0407644622027874, 0.011384868994355202, -0.027539147064089775, 0.07402431219816208, 0.08788804709911346, -0.04358100891113281, -0.11094429343938828, 0.02255655638873577, 0.06798409670591354, -0.056391824036836624, -0.052928704768419266, -0.10770571976900101, 0.012121631763875484, -0.04695715755224228, 0.03365058824419975, 0.049402616918087006, -0.017738817259669304, 0.020538263022899628, 0.018839893862605095, -0.060049403458833694, -0.006552995648235083, 0.005000777542591095, -0.07373511046171188, 0.038898076862096786, -0.030307557433843613, -0.08164749294519424, -0.0026829419657588005, 0.028373898938298225, -0.017173755913972855, 0.06309230625629425, 0.049838971346616745, 0.10675355046987534, 0.06944245845079422, 0.005012654699385166, -0.008014178834855556, 0.011964616365730762, 0.06488221883773804, 0.10376287251710892, -0.019648728892207146, 0.0023643376771360636, -0.003769495990127325, 0.08083128184080124, -0.010788475163280964, 0.026243504136800766, -0.007146189920604229, 0.026905423030257225, 0.03877878189086914, 0.08237598836421967, -0.0807492583990097, 0.10183577984571457, 0.024574125185608864, 0.002657070057466626, 0.033079005777835846, -0.061656225472688675, -0.04379948228597641, -0.0159072894603014, -0.03420636057853699, -0.0446389801800251, -0.02646450512111187, 0.018673084676265717, 0.03183017298579216, 0.04461777210235596, 0.06383229792118073, 0.0717758983373642, 0.12107695639133453, -0.044283147901296616, -0.016267554834485054, -0.004832006990909576, 0.06555869430303574, -0.07117468118667603, 0.015715789049863815, 0.005662975832819939, -0.011022116057574749, 0.06466656923294067, 0.14062897861003876, 0.024891488254070282, 0.06998147815465927, 0.006970494985580444, 0.08269128203392029, -0.01438674982637167, 0.1002911925315857, 0.051085714250802994, 0.0024086611811071634, 0.08739899098873138, 0.026962202042341232, -0.07224524766206741, -0.11596295982599258, -0.06808001548051834, 0.03178015723824501, -0.008872820064425468, 0.1280817985534668, 0.07321324199438095, 0.1342126429080963, 0.029935527592897415, -0.032039251178503036, -0.06204291805624962, 0.08398783206939697, 0.014952501282095909, 0.01923580840229988, -0.006761395372450352, 0.03364807367324829, -0.0466822013258934, 0.0015836824895814061], [-0.016437219455838203, -0.07203851640224457, 0.08506368845701218, 0.10016728192567825, -0.003617461072281003, -0.07509120553731918, 0.05298978090286255, -0.06633992493152618, -0.020453810691833496, -0.058049075305461884, -0.07205229997634888, -0.06621232628822327, 0.013007969595491886, 0.0020122388377785683, -0.07293584942817688, -0.04625346511602402, -0.13934682309627533, -0.04253888502717018, -0.013083756901323795, -0.009814215824007988, 0.037984009832143784, 0.010236166417598724, 0.0420723520219326, -0.09138805419206619, 0.10316067934036255, -0.041439540684223175, -0.06579440087080002, -0.11536804586648941, 0.113374724984169, 0.06646650284528732, -0.0951632559299469, -0.041240546852350235, 0.02938300557434559, -0.11408349871635437, -0.1203305646777153, -0.05282990634441376, -0.0849541500210762, -0.016689181327819824, -0.06494081765413284, 0.042843934148550034, -0.05459949001669884, 0.013620425015687943, -0.10214272886514664, -0.07441123574972153, -0.008766725659370422, 0.0847242921590805, -0.054331496357917786, -0.0005229497328400612, 0.05960289016366005, -0.2296200394630432, -0.05307760462164879, 0.08563761413097382, 0.05315355956554413, 0.051400892436504364, 0.08258689194917679, -0.005125220865011215, -0.026220649480819702, -0.05103127285838127, 0.08260665833950043, 0.07546718418598175, -0.04694985970854759, 0.042030300945043564, 0.06616934388875961, 0.026538290083408356, -0.07805915176868439, -0.033799849450588226, 0.11663694679737091, 0.1360887587070465, -0.05845152959227562, -0.02293839119374752, -0.10869097709655762, -0.11640849709510803, -0.11333619058132172, -0.07271629571914673, 0.02665693126618862, -0.05633479729294777, -0.06978954374790192, 0.06694812327623367, -0.04221901670098305, -0.10405929386615753, -0.009333864785730839, -0.0023676143027842045, 0.03821836784482002, -0.05362812802195549, 0.03191494941711426, -0.11258497089147568, 0.051111362874507904, 0.06110766530036926, -0.08355389535427094, -0.024198289960622787, -0.00816551223397255, 0.03347592428326607, -0.01625746116042137, 0.03889496996998787, 0.0025293652433902025, 0.015613281168043613, -0.16208447515964508, -0.12354141473770142, -0.02469867281615734, 0.037160005420446396, 0.01224843505769968, -0.07084622234106064, -0.0948040708899498, -0.07272089272737503, 0.05828799307346344, 0.05733359232544899, -0.024024488404393196, -0.0533326119184494, -0.022410795092582703, -0.01157298032194376, 0.02692176215350628, -0.07529516518115997, 0.09483557194471359, 0.17008939385414124, -0.04662996158003807, 0.010097367689013481, 0.04975968599319458, 0.048514701426029205, -0.05320131778717041, -0.03994393348693848, 0.07939042896032333, 0.03602420166134834, -0.016875045374035835, -0.0637604147195816, -0.00865415669977665, 0.023480141535401344, -0.007698105648159981, -0.00716630881652236, -0.052597030997276306, -0.0479881577193737, -0.07995028048753738, 0.011857631616294384, 0.05010675638914108, -0.06489691883325577, 0.03641971945762634, 0.04852788522839546, -0.03207794576883316, 0.1155315488576889, 0.1035836935043335, 0.0145794115960598, -0.006757810711860657, -0.02858048863708973, -0.0057195802219212055, -0.040579307824373245, -0.0027975270058959723, 0.05134761333465576, 0.025732044130563736, -0.06629133224487305, 0.07054789364337921, 0.0747012346982956, 0.07498504966497421, 0.051091402769088745, 0.09670177847146988, -0.1244770884513855, -0.047198276966810226, -0.015986770391464233, 0.042477305978536606, -0.055100373923778534, -0.022078121080994606, 0.0286225788295269], [-0.04840153455734253, 0.04497844725847244, -0.05169238522648811, -0.04262343794107437, -0.03559213504195213, -0.007447253447026014, -0.08045829832553864, -0.0450928695499897, -0.031906407326459885, -0.026852058246731758, -0.07226702570915222, -0.05060804262757301, 0.028755025938153267, 0.010655746795237064, 0.012214882299304008, -0.022141108289361, -0.012581177055835724, 0.04497604817152023, -0.08802571147680283, 0.05183970928192139, 0.008546787314116955, 0.005405075382441282, -0.00465844152495265, -0.03718462213873863, 0.05984087288379669, -0.0807872787117958, 0.0032150608021765947, -0.03265313059091568, -0.015414931811392307, -0.05788954719901085, -0.0458565428853035, 0.016293391585350037, -0.015569409355521202, -0.03551216796040535, 0.005917454604059458, 0.048617422580718994, 0.008014099672436714, -0.04660075530409813, 0.039097245782613754, 0.00729338126257062, 0.07961004227399826, 0.006471411325037479, -0.07887901365756989, -0.02992500551044941, 0.055446505546569824, -0.07216536998748779, -0.07167106121778488, 0.016114026308059692, -0.057796768844127655, -0.04226716235280037, -0.052871767431497574, 0.08194192498922348, -0.049412116408348083, 0.006573824677616358, 0.05220711603760719, -0.02893683686852455, 0.06437892466783524, -0.051306579262018204, -0.0685444101691246, 0.000766556360758841, -0.05766025930643082, -0.009301369078457355, -0.04035840556025505, -0.06065879762172699, -0.00892400462180376, 0.014845641329884529, 0.00628093583509326, 0.10036782920360565, -0.002146943472325802, 0.006873064208775759, -0.04149875417351723, -0.027257682755589485, 0.025469232350587845, 0.02685675397515297, -0.036194685846567154, 0.044779546558856964, 0.08354710042476654, -0.019642973318696022, -0.0632886216044426, -0.07164300978183746, -0.002576191909611225, -0.07991558313369751, -0.0552244670689106, 0.04107186570763588, -0.004111403599381447, 0.05935603380203247, -0.03845072537660599, -0.0024118605069816113, 0.01603054627776146, 0.10344997048377991, 0.06655678153038025, -0.05808589980006218, -0.05590846762061119, 0.08258858323097229, 0.012503324076533318, 0.08059598505496979, 0.07391528785228729, 0.004702642560005188, 0.08043830096721649, 0.008375244215130806, -0.08116701990365982, 0.039814215153455734, 0.05020235851407051, -0.047328270971775055, -0.033772069960832596, 0.045014508068561554, 0.009226077236235142, -0.06407357007265091, -0.07694801688194275, -0.060503147542476654, -0.021558256819844246, -0.013225399889051914, 0.04863811656832695, 0.0490872785449028, -0.0315777026116848, 0.03176550194621086, -0.025253023952245712, -0.03856863081455231, -0.02405960112810135, 0.018747223541140556, -0.02845383621752262, 0.06250540167093277, -0.04360242187976837, -0.014627523720264435, -0.029475055634975433, -0.03217087686061859, -0.014799575321376324, -0.028299778699874878, -0.026627983897924423, -0.02561189979314804, -0.02239389717578888, 0.061696454882621765, -0.05579661205410957, 0.0885041207075119, -0.015117187052965164, -0.028949761763215065, -0.0315922386944294, -0.04190860688686371, -0.005857754964381456, 0.013835912570357323, -0.07858934253454208, 0.006457094568759203, 0.10104598850011826, 0.03395136073231697, -0.0002400465600658208, 0.04163914918899536, -0.024179447442293167, -0.023644931614398956, -0.03265756741166115, -0.07982346415519714, 0.08337317407131195, -0.06703303754329681, 0.06913209706544876, 0.07835458219051361, 0.026027169078588486, -0.066306471824646, -0.057875603437423706, -0.04525057598948479, -0.059566158801317215, 0.023857245221734047], [0.04657299816608429, 0.005915824323892593, -0.05716681107878685, 0.04318443313241005, -0.048515625298023224, -0.008506025187671185, 0.06250173598527908, -0.008618922904133797, -0.06380103528499603, 0.055005669593811035, 0.05980847775936127, 0.031626902520656586, 0.06248326599597931, -0.08787587285041809, 0.04487281292676926, 0.06338503211736679, -0.023952828720211983, -0.04352057725191116, -0.0007414096617139876, 0.04576588422060013, -0.09153621643781662, -0.0592624805867672, -0.018420439213514328, 0.0420997180044651, -0.058376092463731766, -0.051804643124341965, 0.0009122990304604173, -0.05862705036997795, -0.02450510859489441, -0.07303401827812195, -0.0302918441593647, 0.04095807299017906, -0.08758290112018585, 0.032637592405080795, -0.028378987684845924, -0.052449651062488556, -0.08067415654659271, -0.051730602979660034, 0.043930571526288986, 0.04892982915043831, -0.07077114284038544, 0.0642656460404396, 0.05944204330444336, 0.031152300536632538, -0.06165323778986931, -0.07591108232736588, -0.025530673563480377, 0.0019511058926582336, 0.0007241398561745882, 0.05251551792025566, 0.06432150304317474, -0.07571640610694885, -0.07415305823087692, -0.05483313649892807, 0.0975765660405159, -0.019393891096115112, 0.05892421677708626, 0.07370267808437347, 0.04946985840797424, -0.05472215265035629, 0.062188778072595596, -0.07022282481193542, 0.014798496849834919, -0.06526105850934982, 0.032562464475631714, 0.042974647134542465, 0.05031543970108032, 0.024509022012352943, 0.07227422297000885, 0.044290199875831604, -0.015858540311455727, -0.016375329345464706, -0.05405505374073982, -0.049241576343774796, -0.0061729601584374905, 0.00936909019947052, -0.04269913583993912, -0.05876285955309868, -0.023624345660209656, -0.00981433130800724, 0.0811941921710968, -0.054801005870103836, 0.0018821777775883675, -0.04229274019598961, -0.07375992834568024, -0.0009127066005021334, -0.08536268770694733, -0.06134103611111641, -0.05221157521009445, -0.05309605598449707, -0.01610899344086647, 0.0710597112774849, 0.009964268654584885, -0.07194223999977112, 0.011981671676039696, 0.014307047240436077, 0.046946678310632706, -0.07538164407014847, -0.06312920898199081, -0.06276369094848633, 0.009672432206571102, -0.05349847674369812, 0.003847616259008646, 0.006737255025655031, -0.06029544025659561, 0.01965394988656044, 0.04607692360877991, 0.08142373710870743, -0.033347710967063904, 0.01728307455778122, -0.02418157085776329, -0.05624256655573845, -0.029702922329306602, -0.004714324604719877, 0.0017320795450359583, 0.04770595580339432, -0.012692878022789955, 0.01636618562042713, -0.045637860894203186, -0.07766801118850708, -0.04529402032494545, 0.012090343981981277, -0.0036816070787608624, -0.048586174845695496, 0.028484171256422997, -0.03230459615588188, -0.050948064774274826, 0.06180276721715927, -0.028586018830537796, 0.03388753533363342, -0.056311409920454025, -0.00943135004490614, 0.026480095461010933, 0.06548067182302475, -0.000303886627079919, 0.04094550013542175, -0.018915262073278427, 0.07184413820505142, -0.057358305901288986, -0.014156704768538475, -0.03663582354784012, 0.050559427589178085, -0.08094602078199387, -0.011226224713027477, 0.058207593858242035, -0.06244849041104317, 0.04392871633172035, -0.053038641810417175, 0.0075163040310144424, -0.08008461445569992, -0.041955478489398956, 0.04817293956875801, 0.03530186787247658, 0.012911169789731503, 0.003945063799619675, 0.028310148045420647, -0.025917017832398415, 0.003961999900639057, 0.02315303310751915, -0.0705198273062706], [0.06389167159795761, -0.001477135345339775, 0.03693266957998276, 0.006154851987957954, -0.11367320269346237, -0.06295140087604523, 0.01665814220905304, 0.19172275066375732, -0.13425453007221222, -0.13763266801834106, 0.0066812969744205475, -0.06724201887845993, 0.039402544498443604, 0.10233059525489807, 0.06751970946788788, -0.020153045654296875, 0.029598833993077278, 0.04425082728266716, 0.08994066715240479, 0.10344114899635315, -0.05241449922323227, -0.11896733939647675, -0.014879129827022552, 0.043427012860774994, -0.07580385357141495, -0.05768362060189247, -0.10253961384296417, -0.01936606876552105, 0.01939941756427288, 0.05506690591573715, 0.03470538184046745, 0.09086282551288605, 0.006725909188389778, -0.07834311574697495, 0.027928074821829796, 0.058489423245191574, -0.07795649021863937, -0.043445128947496414, 0.10551518201828003, -0.032112084329128265, -0.11074092984199524, 0.007423397619277239, 0.0026280954480171204, 0.04452662914991379, -0.02168245241045952, 0.018011875450611115, 0.021158214658498764, -0.021287214010953903, -0.04516066238284111, 0.01650778017938137, 0.0816781222820282, 0.04644407704472542, 0.03952542319893837, 0.009105706587433815, 0.15620604157447815, 0.06081176549196243, -0.04473575949668884, 0.08676944673061371, -0.014387506060302258, 0.03573360666632652, 0.025741826742887497, 0.12627924978733063, -0.08711279183626175, -0.06569121778011322, -0.02800656296312809, -0.03714238479733467, 0.0037289171013981104, 0.065542072057724, -0.010049673728644848, 0.024389084428548813, 0.09504403173923492, -0.0526781864464283, -0.041176918894052505, 0.06955241411924362, -0.04428016021847725, -0.14403267204761505, -0.1086779236793518, 0.031914301216602325, -0.004849838092923164, 0.055156346410512924, 0.09430419653654099, 0.16464188694953918, 0.12735475599765778, -0.06131147965788841, 0.017308738082647324, 0.048682522028684616, 0.03341345489025116, -0.13609491288661957, -0.0030899071134626865, -0.12474159896373749, -0.1290278285741806, -0.00170478830114007, 0.003988427110016346, -0.008251689374446869, 0.004040280357003212, 0.11931044608354568, -0.033698584884405136, 0.009825370274484158, 0.040996674448251724, 0.0479719340801239, 0.024672681465744972, 0.0171744953840971, -0.014631946571171284, -0.07999765872955322, -0.1039789691567421, 0.028080198913812637, -0.06347494572401047, -0.06688781082630157, -0.02946334145963192, 0.03999396786093712, -0.03553931042551994, 0.02508114092051983, 0.01192097831517458, -0.02675110287964344, -0.010430939495563507, 0.07945866137742996, 0.1145501360297203, 0.07922018319368362, -0.004863788839429617, 0.009868861176073551, -0.007102718576788902, -0.10489418357610703, 0.05321191996335983, 0.07360594719648361, 0.06508875638246536, 0.0274033360183239, 0.05043863505125046, 0.05571349337697029, 0.05235004425048828, 0.03930938243865967, -0.030201762914657593, -0.15463478863239288, 0.05201857537031174, 0.1455337405204773, 0.06328747421503067, -0.033388037234544754, -0.0013098641065880656, -0.04630666226148605, -0.004277275409549475, 0.058613523840904236, -0.09328430145978928, 0.016943780705332756, 0.029592977836728096, -0.09229893982410431, -0.04431528225541115, 0.07477977871894836, 0.055784922093153, -0.05789193883538246, -0.08320461958646774, -0.08588815480470657, 0.07924145460128784, 0.08697406202554703, -0.08723468333482742, -0.007101935800164938, 0.005704321898519993, 0.014272266067564487, -0.07387949526309967, 0.09781929105520248, 0.1219291239976883, 0.0018909089267253876], [-0.046262092888355255, 0.0004444385413080454, -0.01521484274417162, -0.03790656477212906, 0.08123843371868134, 0.08425624668598175, 0.04582221433520317, -0.06938643753528595, -0.01664063148200512, 0.1378026008605957, 0.022075846791267395, -0.0840815082192421, -0.04513348639011383, -0.043670348823070526, -0.11865552514791489, 0.0698605477809906, -0.06779631227254868, -0.04137283191084862, 0.023331057280302048, -0.008594577200710773, 0.07636319845914841, 0.13847073912620544, -0.06975121051073074, -0.13015049695968628, 0.06765089929103851, 0.01709180325269699, -0.06101725250482559, 0.07054482400417328, 0.05282677710056305, -0.10669595748186111, 0.0156507957726717, -0.06734668463468552, -0.02762153558433056, -0.110247403383255, -0.04985268414020538, 0.07659105211496353, 0.07901667058467865, -0.017300251871347427, 0.033703189343214035, -0.007314933929592371, -0.03184595704078674, 0.05436196178197861, -0.06443966180086136, 0.05161500349640846, -0.05170465260744095, -0.03521060198545456, -0.04276636987924576, 0.05601029843091965, -0.06037551537156105, -0.0863620713353157, 0.045670200139284134, -0.016874032095074654, -0.10892532765865326, -0.016798166558146477, 0.08475805819034576, -0.0940549448132515, -0.013557851314544678, -0.0723273754119873, -0.015678301453590393, -0.11690764129161835, 0.09912234544754028, 0.043426867574453354, -0.07055673748254776, -0.035836029797792435, -0.07878764718770981, -0.11210209131240845, 0.020854638889431953, -0.004836202133446932, 0.03567551448941231, -0.004652780015021563, 0.028864288702607155, -0.03217609226703644, 0.05161834508180618, -0.012665444985032082, 0.10826296359300613, 0.10802716016769409, 0.03139930218458176, -0.09230245649814606, 0.028637170791625977, 0.0750008076429367, -0.05678318068385124, -0.026158908382058144, -0.03153329715132713, -0.10320774465799332, 0.01091348472982645, -0.17241670191287994, -0.06212279945611954, 0.005671559367328882, -0.0917227566242218, -0.03721142187714577, 0.08421357721090317, 0.07514262199401855, -0.008560908026993275, -0.0295720137655735, 0.07647985965013504, -0.06528901308774948, -0.10140938311815262, -0.1321873813867569, 0.10895071923732758, -0.06126788631081581, -0.0457511767745018, -0.08002743124961853, -0.12953440845012665, -0.058288298547267914, -0.0013855623546987772, 0.021678676828742027, 0.09771950542926788, 0.03253801539540291, -0.05801757425069809, -0.038903556764125824, 0.06647289544343948, -0.057808779180049896, 0.10675249993801117, 0.1058972030878067, -0.14700014889240265, 0.04120589420199394, 0.0878860354423523, -0.008594857528805733, -0.06488543748855591, -0.06704752892255783, -0.077445849776268, -0.060506369918584824, 0.07519379258155823, -0.045459214597940445, 0.05832506716251373, 0.10552648454904556, 0.0803825631737709, 0.02358509972691536, 0.029554041102528572, -0.008301288820803165, 0.017686638981103897, 0.12843981385231018, -0.10219386219978333, -0.058956705033779144, -0.07331773638725281, 0.0579916387796402, -0.028627777472138405, -0.05619649961590767, 0.07615216821432114, 0.016051581129431725, -0.045588042587041855, 0.036106325685977936, 0.11251462250947952, 0.04187894985079765, 0.16694986820220947, 0.02560495212674141, -0.004985221195966005, -0.07443415373563766, 0.025440361350774765, -0.13686993718147278, -0.10585218667984009, 0.1289387345314026, -0.019688675180077553, -0.0207463800907135, 0.10005253553390503, -0.03910103812813759, -0.050855062901973724, -0.027770118787884712, 0.07584664225578308, -0.005260182078927755], [0.017161495983600616, 0.070321224629879, -0.03715602308511734, 0.02013532817363739, -0.025525253266096115, 0.04016735777258873, 0.05747632309794426, 0.09336069226264954, -0.04263071343302727, -0.018261181190609932, 0.04243294894695282, -0.027462953701615334, -0.0009731423342600465, 0.022468330338597298, -0.08202963322401047, -0.07684367150068283, -0.06440708041191101, -0.07364526391029358, -0.04309835657477379, -0.06474341452121735, 0.06247211620211601, 0.11183386296033859, -0.07640180736780167, 0.0320633202791214, -0.050825897604227066, 0.002949927467852831, -0.017142359167337418, -0.044756822288036346, -0.16437475383281708, -0.10657373070716858, -0.059037577360868454, 0.00581291364505887, -0.04263865947723389, -0.09459424018859863, -0.02818410098552704, -0.011906687170267105, 0.07504859566688538, 0.06635046005249023, 0.08500099927186966, 0.02088417112827301, 0.09187428653240204, 0.056297630071640015, 0.05821206420660019, 0.04939732700586319, -0.08917991816997528, -0.020831434056162834, -0.052512865513563156, 0.036431971937417984, 0.059726327657699585, 0.006837095599621534, 0.007688879035413265, -0.020329279825091362, -0.077204130589962, 0.008970762602984905, 0.04089026525616646, -0.05663427338004112, 0.03995552286505699, -0.05241188034415245, 0.031251970678567886, -0.026273170486092567, 0.021909691393375397, 0.03194567933678627, 0.09178116172552109, -0.002977963536977768, 0.00609934376552701, -0.08607317507266998, 0.04165792465209961, 0.07771353423595428, -0.0015689352294430137, 0.021934667602181435, -0.026975484564900398, 0.053846489638090134, 0.045004360377788544, 0.09328259527683258, 0.07785311341285706, 0.06377028673887253, 0.0496162511408329, 0.02538883499801159, -0.0617498978972435, 0.07042105495929718, 0.050348300486803055, 0.0037546795792877674, 0.03414469212293625, 0.0007730131037533283, -0.035843487828969955, -0.1029970645904541, -0.008913923986256123, -0.065870501101017, -0.029237451031804085, 0.06769832223653793, 0.0019868132658302784, 0.01622025854885578, 0.09084386378526688, 0.07090740650892258, 0.054036568850278854, -0.08246814459562302, -0.11565349251031876, -0.011500372551381588, -0.034947749227285385, -0.09731780737638474, -0.04028211161494255, 0.13095872104167938, 0.049319326877593994, -0.037261880934238434, -0.06244496628642082, 0.021198837086558342, 0.08072001487016678, 0.1260395050048828, -0.02961609698832035, 0.019417887553572655, -0.07630337029695511, -0.10720184445381165, 0.03774775564670563, -0.04489327222108841, 0.01994376815855503, -0.04133445769548416, 0.031366460025310516, -0.04274901747703552, 0.02237461507320404, -0.03744768351316452, -0.063285693526268, -0.11198873072862625, 0.04563624784350395, 0.04342387989163399, -0.014183389954268932, 0.060485996305942535, 0.022567903622984886, 0.023727435618638992, 0.020519385114312172, -0.003198235062882304, -0.021601475775241852, -0.046859726309776306, -0.09084164351224899, 