{"conv1.weight": [[[[0.04805533215403557, 0.22452862560749054, 0.18595753610134125, 0.1230785921216011, 0.2268039733171463], [0.020032988861203194, 0.26660484075546265, 0.0936909168958664, 0.26802897453308105, -0.04026754945516586], [-0.37056243419647217, -0.04892152547836304, 0.05915309861302376, 0.18759584426879883, 0.2294577956199646], [-0.344251424074173, -0.251107394695282, -0.37335556745529175, 0.023059315979480743, 0.18067823350429535], [-0.25918883085250854, -0.24504269659519196, -0.1944480538368225, -0.28499963879585266, -0.0024079368449747562]]], [[[0.04527808353304863, 0.1055939570069313, -0.19021281599998474, -0.0906086191534996, -0.16212697327136993], [-0.2149612456560135, -0.2839931845664978, -0.30650755763053894, -0.2807157635688782, -0.046275120228528976], [-0.0764852985739708, -0.2168339639902115, -0.04362102970480919, 0.19256591796875, 0.1269262135028839], [0.32321086525917053, -0.006533161737024784, 0.21197395026683807, 0.2691662311553955, 0.2499573677778244], [0.25231456756591797, 0.15507805347442627, 0.24298913776874542, -0.009313979186117649, -0.10899712890386581]]], [[[0.04569059982895851, 0.04074827581644058, -0.28480690717697144, -0.12093695253133774, 0.12418889254331589], [-0.3399708569049835, -0.20840123295783997, -0.2732505798339844, 0.0640932247042656, -0.01754949241876602], [-0.201438769698143, -0.097633957862854, -0.12341688573360443, -0.09248483926057816, 0.33823490142822266], [-0.17071248590946198, -0.16855360567569733, 0.03343978151679039, 0.06483230739831924, 0.254710853099823], [0.04452907294034958, -0.03494115546345711, 0.004046027548611164, 0.08510150015354156, 0.1732388138771057]]], [[[0.07834983617067337, 0.07908874750137329, 0.04790608212351799, 0.12373039871454239, 0.007871313951909542], [-0.24041269719600677, 0.12939098477363586, 0.2192087173461914, 0.11472953110933304, -0.10742500424385071], [-0.13309459388256073, -0.1592486947774887, -0.05329275503754616, 0.18235255777835846, 0.0012912724632769823], [0.06450873613357544, -0.052519671618938446, 0.0528843030333519, 0.3769817352294922, 0.180446058511734], [-0.13407693803310394, 0.05559450760483742, 0.22822196781635284, 0.37207338213920593, 0.10763926059007645]]], [[[0.15381957590579987, 0.26498034596443176, 0.13080468773841858, 0.22270677983760834, 0.08693796396255493], [-0.09028292447328568, -0.27346071600914, -0.1619134247303009, 0.05056487396359444, -0.04305782541632652], [-0.21437814831733704, -0.363455593585968, -0.43696656823158264, -0.23593322932720184, -0.2485126554965973], [0.3276582956314087, -0.053484465926885605, -0.1740770936012268, -0.21384470164775848, -0.14277847111225128], [0.2951633334159851, 0.4074106514453888, 0.22659417986869812, 0.26600348949432373, 0.02825567126274109]]]], "conv1.bias": [0.03350686654448509, -0.011999127455055714, -0.013013064861297607, -0.007222864776849747, 0.07812013477087021], "conv2.weight": [[[[-0.05334237590432167, 0.09384211152791977, -0.15133735537528992, -0.23419800400733948, -0.22356466948986053], [-0.07974889129400253, -0.20729269087314606, -0.10521604865789413, -0.18825757503509521, -0.11643751710653305], [-0.17634087800979614, -0.22873200476169586, -0.105845145881176, -0.09256528317928314, -0.03388720005750656], [-0.0029929131269454956, -0.13392718136310577, -0.13010326027870178, -0.06069500371813774, 0.04552073776721954], [0.1492335945367813, 0.19740737974643707, 0.07570282369852066, -0.2226223200559616, -0.07107776403427124]], [[0.07128410041332245, -0.10897129029035568, -0.029679832980036736, -0.019799141213297844, 0.04332491755485535], [0.07010425627231598, 0.04487217962741852, 0.013348283246159554, 0.08388500660657883, 0.1019805371761322], [0.09871549904346466, -0.09625881910324097, 0.03915265575051308, 0.1063828393816948, 0.014058421365916729], [-0.10436354577541351, 0.07428810000419617, 0.16734889149665833, 0.1733005791902542, -0.028868209570646286], [-0.159918412566185, 0.015913890674710274, -0.10540542006492615, 0.035027869045734406, -0.0329972468316555]], [[0.09983231872320175, 0.1754317432641983, -0.0951620563864708, 0.024456458166241646, 0.0543060265481472], [0.11275774240493774, 0.06476423889398575, 0.03477582708001137, 0.025782378390431404, 0.032021522521972656], [-0.09824758023023605, -0.14207246899604797, 0.028918826952576637, 0.06157984212040901, 0.0606500543653965], [-0.12369853258132935, -0.05711517855525017, 0.13300065696239471, 0.06729554384946823, 0.03891539201140404], [-0.06014309078454971, -0.07331891357898712, 0.008026640862226486, -0.028160573914647102, -0.1526665985584259]], [[-0.0766809731721878, 0.060718320310115814, -0.008947362191975117, -0.17034731805324554, -0.11141422390937805], [-0.09869718551635742, -0.09651321917772293, -0.11809858679771423, -0.11033298075199127, 0.06405682861804962], [-0.05814063921570778, -0.1047263890504837, -0.18749594688415527, 0.010408561676740646, -0.04503051936626434], [0.019277308136224747, 0.05991464480757713, -0.05787909775972366, 0.07233603298664093, -0.11152496933937073], [-0.10943133383989334, 0.16880153119564056, 0.16434234380722046, 0.08704468607902527, 0.014485024847090244]], [[-0.12625432014465332, -0.097254678606987, -0.0376269593834877, -0.009453506208956242, 0.023423807695508003], [0.06285708397626877, -0.07892008125782013, -0.1527266800403595, -0.0874800905585289, 0.04275593161582947], [0.14334040880203247, 0.1868458092212677, 0.12208736687898636, 0.037496767938137054, -0.03279342129826546], [-0.07675488293170929, 0.13606557250022888, 0.1073436513543129, -0.03643879294395447, 0.11868702620267868], [-0.08018636703491211, -0.03759806230664253, -0.13522744178771973, -0.050805699080228806, 0.01229122281074524]]], [[[-0.08570973575115204, -0.033361438661813736, 0.0377771258354187, 0.045170463621616364, 0.05187566205859184], [-0.06342765688896179, 0.13131776452064514, 0.11479361355304718, 0.09672091901302338, 0.07796911150217056], [-0.11071933805942535, 0.052044373005628586, 0.1521812528371811, 0.16117878258228302, 0.15165796875953674], [-0.09569131582975388, -0.16915114223957062, -0.019788015633821487, 0.015773558989167213, -0.12468953430652618], [-0.06914978474378586, -0.029881443828344345, -0.0548534020781517, -0.006214901804924011, -0.02342071942985058]], [[-0.0945482850074768, -0.030096134170889854, 0.15098316967487335, 0.14956410229206085, 0.06690852344036102], [-0.14400731027126312, -0.2152741402387619, -0.1214437186717987, 0.01731053553521633, -0.024893900379538536], [-0.1621440351009369, -0.20283228158950806, -0.16846027970314026, -0.10956158488988876, -0.14053860306739807], [0.11509479582309723, 0.19663454592227936, 0.16137561202049255, 0.06210685148835182, 0.12849612534046173], [0.1782158464193344, 0.1603768765926361, 0.1536303460597992, 0.2190452367067337, 0.06965704262256622]], [[0.026878612115979195, 0.11646592617034912, 0.006786119192838669, 0.08383743464946747, 0.025500884279608727], [-0.007715173996984959, -0.06163843721151352, -0.002211028942838311, -0.045838646590709686, -0.037276819348335266], [-0.0542495995759964, -0.05320080369710922, -0.11677590012550354, -0.19708387553691864, -0.07890889048576355], [0.06158551573753357, 0.0057866573333740234, -0.017202172428369522, 0.0880739614367485, -0.00713576003909111], [0.15916267037391663, 0.05539590120315552, 0.09187600761651993, -0.048055894672870636, 0.03175635635852814]], [[-0.10502573102712631, 0.026303039863705635, 0.02946421131491661, 0.035585980862379074, -0.032576099038124084], [-0.18676775693893433, -0.2259351909160614, -0.07543733716011047, -0.07470555603504181, 0.0464942641556263], [-0.35755547881126404, -0.31042957305908203, -0.2224169671535492, -0.1939982771873474, -0.13565266132354736], [-0.07755405455827713, -0.02901536412537098, -0.09572035074234009, -0.060317326337099075, 0.07048922032117844], [0.05529249459505081, 0.10187117755413055, 0.07295166701078415, 0.09575315564870834, -0.0007557743228971958]], [[-0.10482841730117798, -0.18427035212516785, -0.0631222054362297, -0.01712566241621971, 0.09082602709531784], [-0.20714646577835083, -0.14695972204208374, 0.08711947500705719, -0.03286609426140785, -0.02829606831073761], [-0.022992732003331184, 0.17607349157333374, 0.10101983696222305, 0.10947777330875397, 0.017381839454174042], [0.0628461018204689, 0.1096237376332283, 0.19239428639411926, 0.10127788037061691, 0.048053763806819916], [-0.060141123831272125, -0.11558300256729126, -0.04185670241713524, -0.004428963176906109, 0.06691890954971313]]], [[[-0.05199376121163368, -0.022530755028128624, -0.0962250828742981, -0.04980332404375076, -0.18400055170059204], [0.08587606251239777, -0.12074783444404602, -0.10033916682004929, 0.01089191623032093, -0.14551115036010742], [0.005864156410098076, -0.25282442569732666, 0.011010933667421341, -0.04427960142493248, -0.2553030550479889], [-0.034844446927309036, -0.005607465747743845, -0.06419945508241653, -0.057800356298685074, -0.06424644589424133], [0.04429785907268524, 0.024752149358391762, 0.02014175057411194, 0.005030945874750614, -0.0940835177898407]], [[-0.0022787759080529213, 0.011763901449739933, -0.09414618462324142, 0.042047709226608276, 0.07849948108196259], [0.062020137906074524, -0.06750236451625824, -0.11759724467992783, -0.0482623390853405, -0.14172492921352386], [0.021591348573565483, -0.017825640738010406, 0.07093165814876556, 0.08582639694213867, -0.12013740837574005], [0.012415502220392227, 0.1122434064745903, 0.11505325883626938, -0.15260468423366547, -0.3097376823425293], [-0.07896409183740616, 0.12235447019338608, -0.05161141976714134, -0.11647717654705048, -0.03942098468542099]], [[0.04875094071030617, -0.0845227912068367, -0.0013269329210743308, 0.06692388653755188, -0.09975246340036392], [-0.07705853879451752, -0.09374916553497314, 0.04224182665348053, 0.16190871596336365, 0.04028623178601265], [-0.07093308866024017, -0.12464584410190582, 0.1430661529302597, 0.21963810920715332, -0.07025699317455292], [0.03110244870185852, 0.09264708310365677, 0.14217549562454224, 0.10857144743204117, -0.13614875078201294], [-0.01980506256222725, 0.06709884107112885, 0.08989246934652328, 0.15562774240970612, -0.12618397176265717]], [[0.07707485556602478, -0.06856749206781387, -0.07085887342691422, 0.16915617883205414, 0.14604726433753967], [0.11170851439237595, -0.09663114696741104, -0.0781259834766388, 0.2146664708852768, 0.11797646433115005], [-0.006253365892916918, 0.03051883541047573, 0.06862048804759979, 0.17282146215438843, -0.07516184449195862], [0.04722373187541962, 0.0035042776726186275, 0.10692743957042694, 0.04102195426821709, -0.08673738688230515], [-0.11099345237016678, 0.06063614785671234, -0.026911303400993347, 0.05434270203113556, -0.07987689226865768]], [[-0.055922091007232666, -0.0408652164041996, -0.008443033322691917, -0.0906258076429367, -0.06448166817426682], [-0.04353109374642372, 0.14907105267047882, 0.009114050306379795, -0.1801467388868332, -0.040661752223968506], [0.02859494835138321, 0.08973813056945801, -0.06134943664073944, -0.1800074726343155, 0.0029718175064772367], [0.020366458222270012, 0.02701377123594284, -0.1878690868616104, -0.2576097548007965, 0.09758227318525314], [0.08717773109674454, 0.02727642096579075, -0.10184839367866516, 0.0038964468985795975, 0.06214335560798645]]], [[[-0.20128048956394196, -0.05589563772082329, 0.09716115891933441, 0.10662832111120224, 0.08915871381759644], [0.10482243448495865, -0.2159963697195053, -0.030324194580316544, 0.0731092169880867, 0.14403687417507172], [0.20890268683433533, 0.12002620100975037, -0.088747538626194, -0.16220159828662872, 0.017900044098496437], [-0.03944723308086395, 0.1337369829416275, -0.06543245911598206, -0.06663261353969574, -0.016531039029359818], [-0.07776916772127151, -0.05139440298080444, 0.09796986728906631, -0.06299712508916855, -0.008550301194190979]], [[0.008694391697645187, -0.039007700979709625, -0.0961102545261383, -0.09519737958908081, 0.04175318777561188], [-0.07089495658874512, 0.021091170608997345, 0.0985865369439125, 0.039300695061683655, -0.1001480296254158], [-0.11219514906406403, -0.02571272663772106, 0.10661307722330093, 0.029104910790920258, 0.03571191057562828], [-0.03283001109957695, -0.07233964651823044, -0.168148010969162, 0.010173752903938293, 0.01506568118929863], [0.187641441822052, 0.03010188788175583, -0.10757564008235931, -0.1466505080461502, 0.05053061246871948]], [[-0.09890181571245193, -0.17058998346328735, -0.09183339029550552, -0.04535356163978577, 0.0697198286652565], [-0.14824743568897247, -0.15875548124313354, -0.025989769026637077, 0.008533173240721226, 0.02677021734416485], [0.010496440343558788, -0.2511802315711975, -0.11085084080696106, 0.012833189219236374, 0.019124243408441544], [-0.043676912784576416, -0.025648467242717743, -0.15951164066791534, -0.08529332280158997, -0.021242383867502213], [0.02587149105966091, 0.04661599174141884, 0.030092258006334305, -0.07652200013399124, -0.015041721984744072]], [[-0.10703784227371216, -0.2393539547920227, -0.24488580226898193, -0.056208379566669464, -0.09411366283893585], [0.08995992690324783, -0.011161250993609428, -0.1750243604183197, -0.10349426418542862, 0.0020642918534576893], [0.17424292862415314, 0.1096196398139, -0.003707445692270994, -0.1578489989042282, -0.1490294486284256], [0.02072550728917122, 0.2529858946800232, 0.010658679530024529, -0.09914460778236389, -0.04206781089305878], [0.0458838976919651, 0.09303533285856247, 0.08269321173429489, 0.014233583584427834, 0.04138647019863129]], [[0.11417371779680252, 0.20758068561553955, 0.06403875350952148, -0.006271913181990385, -0.0030864952132105827], [0.09949879348278046, 0.3644513785839081, 0.2956700026988983, 0.028762277215719223, -0.03474202752113342], [-0.05077908933162689, -0.16319714486598969, 0.13171152770519257, 0.0071863699704408646, 0.005619477480649948], [-0.13225270807743073, -0.07967326790094376, -0.1758800595998764, -0.03900638222694397, -0.09986519068479538], [-0.12398454546928406, -0.22564466297626495, -0.054896894842386246, -0.02220321074128151, -0.006635864730924368]]], [[[0.020534949377179146, -0.1318296194076538, -0.06485626846551895, -0.1308223009109497, -0.10000702738761902], [-0.01737850345671177, -0.0301650520414114, -0.040879812091588974, -0.11169563978910446, -0.026673709973692894], [-0.002141254022717476, 0.15012550354003906, 0.06994190067052841, 0.16429181396961212, 0.15193863213062286], [-0.06341386586427689, 0.03276898339390755, 0.23983801901340485, 0.12172376364469528, 0.12197136878967285], [-0.0950416550040245, -0.08245071023702621, -0.04829708859324455, -0.1364932507276535, -0.2544069290161133]], [[0.03146630898118019, -0.02268996275961399, -0.013848990201950073, 0.07323719561100006, 0.017156144604086876], [0.028024235740303993, -0.022431937977671623, 0.08997663110494614, 0.1880451738834381, 0.13713493943214417], [0.0427231639623642, -0.05100131034851074, 0.09089209139347076, 0.19011634588241577, 0.057108074426651], [-0.060383718460798264, -0.042347732931375504, 0.0873018130660057, 0.14824049174785614, 0.17171737551689148], [-0.17754921317100525, -0.10559093207120895, 0.09101265668869019, 0.012612753547728062, 0.18714292347431183]], [[0.037371616810560226, -0.0176825150847435, -0.029941309243440628, 0.013561569154262543, 0.05398470535874367], [0.03785359114408493, -0.1527940332889557, 0.023215238004922867, 0.09989987313747406, -0.038272276520729065], [-0.0366116501390934, 0.021936830133199692, 0.019396794959902763, -0.022624405100941658, -0.1220439150929451], [-0.10764829814434052, -0.026257557794451714, -0.24337118864059448, -0.14118355512619019, -0.09101918339729309], [-0.11858203262090683, -0.13915780186653137, -0.12478701770305634, 0.018898526206612587, 0.07473040372133255]], [[0.022596172988414764, -0.0537659153342247, -0.061173465102910995, -0.042376112192869186, 0.09803573787212372], [0.05941023305058479, 0.013716289773583412, 0.08778462558984756, 0.12073511630296707, 0.07474946230649948], [-0.0783010870218277, 0.041680317372083664, -0.04617627337574959, -0.020967962220311165, 0.03163955360651016], [-0.13278484344482422, -0.025444848462939262, -0.21569594740867615, -0.14885251224040985, -0.2066723108291626], [-0.039569295942783356, -0.12684327363967896, -0.11645002663135529, -0.05822771042585373, -0.11246858537197113]], [[-0.005546430125832558, -0.06596339493989944, -0.07443460822105408, -0.027286335825920105, 0.13670046627521515], [-0.04955029860138893, 0.09138956665992737, 0.25014618039131165, 0.13790862262248993, 0.06578058004379272], [0.007728147320449352, -0.06662341952323914, 0.12914450466632843, 0.018457449972629547, 0.08531884849071503], [0.025390353053808212, 0.07580053061246872, 0.1442856341600418, 0.28242942690849304, 0.17746016383171082], [-0.08195924013853073, 0.05208171531558037, 0.056988637894392014, 0.027724742889404297, -0.08849895000457764]]], [[[-0.13483569025993347, -0.065262071788311, -0.062487516552209854, -0.1272210329771042, -0.08843975514173508], [-0.11664112657308578, -0.11997555196285248, -0.20221297442913055, -0.016951169818639755, 0.017330652102828026], [0.043317340314388275, 0.06299024075269699, -0.13043473660945892, -0.09855985641479492, -0.08092005550861359], [0.08291377127170563, 0.061894740909338, 0.15368695557117462, 0.11074400693178177, -0.04440607503056526], [-0.03669919818639755, 0.1597042679786682, 0.26551249623298645, 0.2507031559944153, 0.06496898829936981]], [[-0.06487063318490982, -0.034288350492715836, -0.039505161345005035, -0.0569332130253315, 0.0007762163877487183], [0.028298577293753624, -0.0682363510131836, -0.06414864212274551, -0.05772862583398819, -0.0024613458663225174], [-0.12929122149944305, -0.08461552858352661, -0.006013721227645874, 0.10962642729282379, 0.005857803858816624], [-0.10140398889780045, -0.03731638193130493, 0.05702536553144455, 0.2083617001771927, 0.19256791472434998], [-0.06474444270133972, -0.08780166506767273, -0.13210459053516388, -0.09630890935659409, -0.11243978142738342]], [[-0.00035917828790843487, 0.02464963123202324, 0.04913082718849182, 0.05746413394808769, 0.016634464263916016], [0.10406090319156647, 0.10777156800031662, -0.037633445113897324, -0.07567767053842545, -0.06709585338830948], [0.1513821929693222, 0.06599193811416626, -0.047992028295993805, -0.05681319534778595, -0.06755779683589935], [-0.0016364343464374542, -0.0837947353720665, -0.16840022802352905, -0.017636742442846298, -0.07810356467962265], [-0.13864749670028687, -0.22562921047210693, -0.11005540192127228, -0.08384082466363907, -0.23310542106628418]], [[-0.0686766505241394, 0.10222341120243073, -0.07259156554937363, -0.054148267954587936, 0.05662119761109352], [0.008407284505665302, 0.03233771771192551, -0.12187056243419647, -0.03393641114234924, 0.02481127716600895], [-0.03848294913768768, 0.12961706519126892, 0.03608271852135658, 0.02437564730644226, -0.007792601361870766], [-0.07282699644565582, 0.1143103614449501, -0.003949791193008423, 0.15256622433662415, 0.11979696154594421], [-0.11174453049898148, -0.1853591501712799, -0.12644736468791962, -0.19888199865818024, -0.2398393750190735]], [[-0.03722692281007767, -0.17228442430496216, -0.1689387708902359, 0.01026383601129055, -0.057110972702503204], [-0.10042423009872437, -0.14493848383426666, -0.11145983636379242, 0.08549833297729492, -0.05855342745780945], [-0.013292844407260418, 0.04120394214987755, 0.12123709172010422, 0.16686700284481049, 0.04281361401081085], [-0.1593407392501831, -0.04922293499112129, 0.012112321332097054, 0.11158815771341324, 0.15867429971694946], [-0.14646749198436737, -0.012936875224113464, -0.008255558088421822, -0.04517674073576927, 0.07798529416322708]]], [[[-0.08998282998800278, -0.05806005001068115, -0.22507287561893463, -0.05360691249370575, -0.005590212531387806], [0.08170688152313232, -0.11612920463085175, -0.26096901297569275, 0.008260045200586319, -0.0019422608893364668], [0.13817386329174042, 0.02729511633515358, -0.08300864696502686, -0.008239967748522758, -0.12160754948854446], [0.09803584218025208, 0.03191353753209114, -0.027633825317025185, -0.06266360729932785, 0.06226765736937523], [0.1331421434879303, 0.046988122165203094, 0.04359918087720871, 0.05888637900352478, 0.03748072311282158]], [[-0.09812432527542114, 0.06825722008943558, 0.020023176446557045, 0.05855748802423477, 0.09529424458742142], [-0.21329280734062195, -0.10011719167232513, 0.0015953986439853907, -0.015751078724861145, 0.08389537781476974], [-0.2302262932062149, -0.10856983065605164, 0.08923377096652985, 0.1788378357887268, -0.052548956125974655], [-0.2694624960422516, -0.17439855635166168, 0.08889073878526688, 0.12697367370128632, -0.0455479770898819], [-0.3190377354621887, -0.1251066029071808, 0.10800094902515411, 0.054873544722795486, 0.005737232975661755]], [[0.15645985305309296, 0.172829732298851, -0.04481546953320503, -0.012595543637871742, 0.0908462181687355], [0.22184498608112335, 0.05953305959701538, -0.10483424365520477, 0.07364525645971298, -0.06637641787528992], [0.08199114352464676, -0.08944880217313766, -0.07883257418870926, 0.05224982649087906, -0.07755713164806366], [0.0756823867559433, -0.11622457951307297, -0.05392239987850189, -0.00517243891954422, -0.03257798030972481], [-0.040722910314798355, -0.14507853984832764, -0.13539882004261017, -0.05146966129541397, -0.043293505907058716]], [[0.01038920134305954, 0.14823201298713684, -0.20103608071804047, -0.057305578142404556, -0.07227758318185806], [0.032004546374082565, -0.009022485464811325, -0.2154189497232437, -0.08348645269870758, -0.072206512093544], [0.14266431331634521, 0.07749621570110321, 0.0371677502989769, 0.030603796243667603, 0.0467904694378376], [0.10358396917581558, 0.08074013888835907, -0.08222732692956924, 0.018265251070261, -0.1253785490989685], [-0.009250313974916935, 0.031554412096738815, -0.0661550909280777, -0.08921179175376892, -0.02820812165737152]], [[-0.3512212336063385, -0.15158608555793762, -0.10127691924571991, 0.03962559625506401, 0.06881902366876602], [-0.27130427956581116, -0.0677461177110672, 0.20124785602092743, 0.027755968272686005, -0.07754958420991898], [-0.38890188932418823, -0.05551009997725487, 0.2621961832046509, 0.039575815200805664, 0.006160254590213299], [-0.27216893434524536, 0.05356413125991821, 0.16237704455852509, 0.09328798204660416, -0.005559529177844524], [-0.24267210066318512, -0.03400471806526184, -0.013478146865963936, 0.04314086213707924, 0.02481098100543022]]], [[[0.051772281527519226, -0.10912897437810898, 0.0640932098031044, -0.013605556450784206, -0.04298268258571625], [-0.1096174418926239, -0.0919593945145607, 0.049697697162628174, 0.09467022120952606, -0.00255446694791317], [-0.07323841750621796, -0.016793889924883842, -0.1261756718158722, -0.018732815980911255, -0.17267532646656036], [0.11491259932518005, 0.08098584413528442, 0.0720086395740509, -0.015591339208185673, 0.07264523208141327], [0.05403441563248634, 0.01307755894958973, 0.04980786517262459, 0.0955682098865509, 0.04731520637869835]], [[0.017499471083283424, 0.0422733798623085, -0.019527608528733253, 0.040188033133745193, 0.037313248962163925], [0.02622416988015175, 0.057194970548152924, -0.04256565496325493, -0.0037552290596067905, 0.015916407108306885], [0.031040815636515617, 0.16735143959522247, 0.16875916719436646, 0.15848125517368317, 0.11548670381307602], [0.0021651810966432095, 0.002434860449284315, -0.002864961279556155, -0.04812518507242203, -0.039280377328395844], [-0.21407820284366608, 0.0030198399908840656, -0.01641945354640484, -0.013134535402059555, -0.09800335764884949]], [[-0.06455014646053314, 0.04719913750886917, 0.045384470373392105, -0.16222532093524933, -0.09942785650491714], [-0.012955522164702415, -0.03829406946897507, 0.007925120182335377, -0.19336941838264465, -0.05423935502767563], [0.009634432382881641, -0.05190395936369896, -0.07262373715639114, -0.056609515100717545, -0.10977301001548767], [0.025300243869423866, -0.16004231572151184, -0.05063982307910919, -0.0679776519536972, -0.10571976751089096], [-0.08339937031269073, -0.04130011051893234, -0.11785437166690826, -0.002853189129382372, -0.007295210845768452]], [[-0.07920975238084793, 0.03210467845201492, -0.0676523968577385, -0.014485924504697323, -0.14661449193954468], [0.028017979115247726, 0.07496210187673569, -0.025026759132742882, 0.09425027668476105, -0.03645707666873932], [0.006620379164814949, 0.12069778144359589, 0.14501953125, 0.13601166009902954, -0.048998381942510605], [-0.10328692197799683, -0.07211237400770187, -0.04389025270938873, 0.01142154261469841, 0.07587326318025589], [-0.05473718047142029, 0.02866266667842865, -0.04577336087822914, -0.11309251934289932, -0.09806860983371735]], [[-0.023604674264788628, -0.010351666249334812, -0.1065787598490715, 0.044753607362508774, 0.05724712833762169], [0.0369810052216053, 0.0125970970839262, -0.0024493609089404345, 0.09859778732061386, 0.0593135692179203], [-0.07004955410957336, 0.015919944271445274, 0.01716451346874237, -0.13201536238193512, -0.010985760018229485], [-0.04046895354986191, -0.03350471705198288, -0.02526293694972992, -0.03082338534295559, -0.10871563106775284], [-0.10020939260721207, 0.06475327163934708, 0.042546503245830536, 0.044604819267988205, -0.03567748889327049]]], [[[0.04155924916267395, 0.08358883112668991, 0.04370782524347305, 0.13152015209197998, 0.10296089947223663], [0.06149152293801308, 0.011237857863307, -0.0979122519493103, 0.006795522291213274, 0.1498122215270996], [0.07077036052942276, -0.06748087704181671, -0.1694571077823639, -0.05982212722301483, 0.16576357185840607], [0.03503118082880974, -0.1039562076330185, -0.156550332903862, 0.04198572412133217, 0.11451426893472672], [-0.04357435181736946, 0.06689050793647766, -0.01982015371322632, 0.050656333565711975, -0.10248270630836487]], [[-0.11530852317810059, -0.02596060000360012, 0.09374939650297165, -0.021655801683664322, -0.098507359623909], [-0.06305168569087982, -0.06024327129125595, -0.15336310863494873, -0.07025529444217682, -0.019515158608555794], [0.06393023580312729, -0.11275021731853485, -0.08362960070371628, -0.07201787829399109, -0.11727526038885117], [0.008202675729990005, -0.015871882438659668, 0.001785994740203023, 0.020577747374773026, -0.11747260391712189], [0.040686074644327164, 0.13155193626880646, 0.15572665631771088, 0.12238887697458267, -0.20161835849285126]], [[-0.002534668194130063, -0.0015280856750905514, -0.007244337350130081, -0.0413694866001606, 0.00648481585085392], [-0.10533745586872101, -0.14973752200603485, -0.08718609064817429, -0.014242631383240223, 0.039415352046489716], [0.027357880026102066, -0.19371910393238068, -0.09570290148258209, 0.11183895170688629, 0.11234360188245773], [0.059675637632608414, -0.07256848365068436, -0.014127254486083984, 0.13735365867614746, 0.04487862065434456], [0.12108355760574341, -0.08272290974855423, -0.024714922532439232, 0.14253246784210205, 0.02927466109395027]], [[-0.10586260259151459, -0.06386756896972656, -0.14962507784366608, -0.09858055412769318, 0.0069386619143188], [-0.14593902230262756, -0.11031463742256165, -0.13483411073684692, -0.09067238867282867, 0.1462632119655609], [-0.03898726403713226, -0.11008495092391968, -0.17898401618003845, -0.06076161935925484, 0.040881942957639694], [-0.0668620616197586, -0.0940723866224289, -0.12364549189805984, 0.057394422590732574, 0.03476167842745781], [0.04714549705386162, -0.013348683714866638, -0.038870323449373245, -0.023564662784337997, 0.05341260880231857]], [[0.17880308628082275, 0.08027365803718567, 0.0911598801612854, -0.10316202044487, -0.07032355666160583], [0.17047108709812164, 0.029204044491052628, 0.03139548376202583, 0.015530476346611977, -0.08266617357730865], [0.0789809376001358, -0.10625667870044708, -0.1547529399394989, -0.09284546971321106, -0.2834342420101166], [-0.006289001554250717, 0.11491774022579193, 0.07862934470176697, -0.12205708026885986, -0.13567128777503967], [0.0022002041805535555, 0.10343630611896515, 0.16126284003257751, -0.059506408870220184, -0.05252358317375183]]], [[[-0.06327083706855774, -0.05629149079322815, -0.134011909365654, -0.07842879742383957, 0.023527199402451515], [-0.010736960917711258, -0.0743999183177948, -0.07773880660533905, -0.014582989737391472, -0.04265424236655235], [-0.009678510949015617, 0.03032555989921093, -0.004544602707028389, 0.07314737886190414, -0.12187966704368591], [-0.060700539499521255, -0.13760824501514435, -0.13702450692653656, -0.06980913877487183, -0.059383574873209], [-0.049586858600378036, -0.04897093027830124, -0.19470296800136566, -0.08524652570486069, -0.047732263803482056]], [[0.09536688029766083, 0.056395407766103745, -0.02919054962694645, -0.08288377523422241, -0.09880731999874115], [0.07163039594888687, -0.041105832904577255, 0.06879530847072601, 0.13719607889652252, 0.1399378925561905], [0.02427714131772518, -0.1086268350481987, 0.09695190191268921, 0.06495638191699982, 0.2247396558523178], [-0.07377085834741592, 0.0449327751994133, 0.17368929088115692, 0.06752121448516846, -0.10551221668720245], [0.10776735097169876, 0.20720957219600677, -0.11320925503969193, -0.1524321585893631, -0.021869298070669174]], [[-0.008457645773887634, 0.040122997015714645, -0.05227094888687134, -0.11792401969432831, -0.11659789830446243], [0.05866893753409386, 0.07622518390417099, 0.0058764200657606125, -0.14134269952774048, 0.06090984493494034], [-0.03323625028133392, -0.04872380942106247, -0.05125420168042183, 0.017230728641152382, 0.0035145666915923357], [-0.09760688990354538, -0.054903801530599594, 0.017269615083932877, -0.07580360770225525, -0.08431661874055862], [0.045938633382320404, 0.12203555554151535, 0.056796275079250336, -0.03711395710706711, -0.030032696202397346]], [[-0.038060616701841354, -0.05465121939778328, -0.05738263949751854, -0.05931777134537697, -0.04261808097362518], [0.023732639849185944, -0.07653672993183136, -0.08238358795642853, 0.0860416442155838, 0.09028889983892441], [0.021010922268033028, -0.008882862515747547, 0.11023660004138947, 0.11221615970134735, 0.10134954750537872], [-0.007941724732518196, 0.1090492308139801, 0.15009917318820953, -0.016748949885368347, -0.004164653364568949], [0.14250177145004272, 0.19349335134029388, 0.0037595564499497414, 0.06134876608848572, -0.0998549535870552]], [[-0.021484775468707085, 0.02895319275557995, 0.10526245087385178, 0.10849838703870773, 0.036778055131435394], [0.0979817733168602, -0.05025104060769081, -0.030616115778684616, 0.12234912067651749, 0.15956740081310272], [-0.06470368802547455, -0.049509864300489426, 0.0862235352396965, 0.003036533948034048, -0.06605204939842224], [0.023269787430763245, -0.046271324157714844, -0.20415180921554565, -0.2555255889892578, -0.14795488119125366], [-0.05259646102786064, -0.22719718515872955, -0.3349199593067169, -0.091571144759655, 0.060457274317741394]]]], "conv2.bias": [0.03697926923632622, -0.09276009351015091, 0.014093792997300625, -0.07308916747570038, -0.04887767881155014, -0.07897226512432098, 0.02800155244767666, -0.09833748638629913, 0.022523323073983192, 0.03141475468873978], "fc1.weight": [[-0.136357843875885, -0.046560876071453094, -0.007160528097301722, 0.005891126114875078, -0.028966734185814857, -0.049129001796245575, 0.07511554658412933, 0.17076405882835388, 0.059180572628974915, -0.11494530737400055, -0.07768964767456055, 0.1374003142118454, -0.04268062859773636, 0.11567644029855728, 0.021886223927140236, -0.09986463934183121, 0.11555943638086319, 0.08832505345344543, 0.08048436790704727, -0.08085480332374573, 0.16502635180950165, 0.028462938964366913, -0.05308903008699417, -0.035993605852127075, 0.010631921701133251, -0.020322782918810844, 0.006084163207560778, 0.033906202763319016, 0.03969955071806908, 0.03525109216570854, 0.17266348004341125, 0.007656923960894346, -0.021683748811483383, -0.05550258606672287, -0.014801410026848316, 0.011699441820383072, -0.1438852846622467, 0.09929068386554718, 0.0698419064283371, 0.09784800559282303, -0.00852606538683176, -0.08696521073579788, -0.1030416265130043, -0.12159748375415802, -0.10701491683721542, -0.012141305021941662, 0.1012616902589798, 0.007038380019366741, -0.0119271045550704, 0.1176874190568924, 0.03687809780240059, 0.07530321180820465, -0.12952148914337158, -0.016946841031312943, 0.010551425628364086, -0.0598357729613781, -0.04640617221593857, -0.10637770593166351, 0.07415654510259628, 0.19183118641376495, 0.011469832621514797, -0.05923045799136162, 0.05646981671452522, 0.04427218809723854, 0.09109587222337723, -0.06667117774486542, -0.01859356462955475, -0.03923562169075012, 0.06218339502811432, -0.02757256105542183, 0.05853382870554924, 0.18223997950553894, 0.02208571694791317, 0.070621058344841, -0.008213705383241177, -0.0007430809200741351, -0.00513675669208169, -0.051241543143987656, 0.021619586274027824, -0.10704432427883148, -0.014286578632891178, -0.0878838449716568, -0.041268281638622284, -0.11633618175983429, 0.03281934931874275, 0.079134501516819, 0.11782466620206833, 0.12396848201751709, 0.0005935907829552889, -0.002025679685175419, 0.040708139538764954, -0.04341163858771324, 0.13364115357398987, -0.0004562768153846264, 0.026222949847579002, -0.21588149666786194, 0.05194266885519028, -0.04638824239373207, -0.012456624768674374, 0.05990495905280113, -0.022278638556599617, -0.13234007358551025, -0.022725917398929596, 0.052042633295059204, -0.07154786586761475, -0.18405233323574066, 0.032840315252542496, -0.015108130872249603, -0.00031773559749126434, 0.003753162920475006, -0.09767935425043106, -0.11854938417673111, 0.02630283683538437, -0.08480717986822128, -0.040995996445417404, 0.0025384684558957815, -0.03796588256955147, -0.07312235236167908, 0.033617351204156876, 0.022208230569958687, -0.07704382389783859, -0.0225816760212183, -0.025453966110944748, 0.08743424713611603, 0.00593832042068243, -0.051128119230270386, 0.024878328666090965, -0.07148683816194534, -0.03063333034515381, 0.13389696180820465, 0.025402802973985672, 0.009679319337010384, 0.06883189082145691, -0.027053430676460266, -0.04338629171252251, -0.12488370388746262, 0.051192741841077805, -0.11568494141101837, -0.13626356422901154, -0.11181890219449997, 0.05446866154670715, -0.08307146281003952, 0.02655360847711563, -0.023771945387125015, -0.041453566402196884, -0.1450040638446808, 0.03674818575382233, 0.02563549391925335, -0.10655608773231506, 0.07829786837100983, 0.1592324674129486, -0.0038344969507306814, 0.13613928854465485, -0.04792412742972374, 0.03507019951939583, 0.16292324662208557, -0.09674075245857239, 0.04680424928665161, 0.1762702465057373, 0.09058666974306107], [0.1139969453215599, 0.05827472358942032, -0.007849601097404957, 0.021813249215483665, -0.02104964479804039, 0.018361596390604973, 0.055124975740909576, 0.05261307209730148, -0.07011459767818451, -0.07928082346916199, 0.03483385220170021, -0.04572824388742447, -0.06273996084928513, -0.03223084285855293, -0.108460433781147, -0.10004150867462158, -0.10176975280046463, 0.013106662780046463, 0.03372129797935486, 0.05039356276392937, -0.020381702110171318, 0.0440111979842186, -0.11522345244884491, -0.029069799929857254, 0.011356523260474205, -0.01521826907992363, -0.05782727524638176, 0.026751870289444923, -0.1974753886461258, -0.05505363643169403, 0.0043283486738801, -0.1265118271112442, 0.0037534479051828384, 0.03777194023132324, 0.008181985467672348, 0.05487727001309395, 0.022442452609539032, -0.000975786941125989, -8.083274587988853e-05, 0.12943243980407715, 0.09936682134866714, 0.08502578735351562, -0.15934652090072632, -0.004709349945187569, 0.05500365421175957, 0.002678078366443515, -0.07981529831886292, -0.017416270449757576, 0.04978623241186142, -0.028452185913920403, 0.01043543592095375, -0.02251056581735611, 0.045741695910692215, 0.13173991441726685, 0.1449366807937622, -0.08762694150209427, -0.13614512979984283, 0.007362239994108677, 0.09790947288274765, 0.02752811834216118, -0.11304672807455063, -0.06922511756420135, -0.012656339444220066, 0.15101036429405212, -0.05539568141102791, -0.07234970480203629, -0.08584655076265335, 0.06610728800296783, -0.029026087373495102, -0.05394657328724861, 0.059930574148893356, 0.07595937699079514, -0.17849843204021454, 0.019767386838793755, 0.10571858286857605, -0.010705769062042236, -0.058032989501953125, 0.004279578570276499, -0.046943727880716324, 0.02919076569378376, 0.009751690551638603, 0.003312446642667055, -0.043068137019872665, -0.02003398910164833, 0.010668917559087276, 0.10974302142858505, 0.04816140979528427, 0.0588076151907444, -0.03546621650457382, -0.058623794466257095, -0.02752794325351715, -0.057041287422180176, 0.09327268600463867, 0.11157394200563431, 0.06010584533214569, -0.12639164924621582, -0.09859839826822281, 0.07110122591257095, 0.0672435313463211, -0.1067727729678154, 0.021004002541303635, 0.05807727575302124, 0.04154377803206444, 0.033660147339105606, -0.06023799255490303, 0.0315503366291523, -0.03672250732779503, -0.040066253393888474, 0.026269391179084778, 0.13172604143619537, -0.01414741575717926, -0.06922925263643265, -0.010508827865123749, -0.04781435802578926, -0.11471764743328094, -0.060661014169454575, 0.0637805387377739, 0.01265511941164732, 0.005358893424272537, 0.01651039347052574, -0.07506723701953888, -0.0002859835512936115, 0.023101791739463806, -0.036780279129743576, -0.11226542294025421, 0.0837547555565834, 0.09971155226230621, -0.0942564308643341, 0.03940734267234802, -0.08602560311555862, -0.10598678886890411, -0.07303889095783234, 0.12245717644691467, -0.06326117366552353, -0.10845920443534851, -0.12370383739471436, 0.03286417946219444, -0.09226293116807938, -0.007769825868308544, -0.10746505856513977, 0.08204270899295807, -0.09724584966897964, -0.12465587258338928, 0.01467510312795639, -0.03154231607913971, -0.05749031528830528, 0.10610541701316833, 0.12832504510879517, 0.01424000971019268, 0.1247580349445343, 0.03006921522319317, -0.05115613341331482, -0.014762471430003643, -0.06854762136936188, -0.1559448093175888, 0.015655308961868286, -0.08884520828723907, -0.04888380691409111, -0.11535843461751938, 0.04609580710530281], [0.0375506766140461, 0.06060844659805298, -0.019019005820155144, 0.04746406152844429, -0.029520045965909958, -0.07283013314008713, 0.003536775941029191, -0.04189814254641533, 0.018746424466371536, 0.011298936791718006, 0.042727142572402954, 0.025011563673615456, -0.022305110469460487, -0.047972843050956726, -0.07203074544668198, -0.024424400180578232, -0.008818872272968292, -0.037089284509420395, 0.018737079575657845, 0.02196503058075905, -0.02665512077510357, 0.01822548732161522, 0.02297881245613098, -0.06408897042274475, 0.047031112015247345, -0.018780145794153214, 0.037766486406326294, 0.012591172009706497, 0.058256845921278, -0.05774611979722977, -0.04147617518901825, -0.08126545697450638, -0.051701776683330536, -0.07359423488378525, 0.02989954501390457, -0.030638929456472397, -0.06801328808069229, 0.04895372316241264, 0.019473407417535782, 0.05849350243806839, 0.0034108629915863276, -0.04131924360990524, -0.011669071391224861, -0.048067983239889145, -0.07314572483301163, 0.03915614262223244, 0.03625686466693878, 0.030501162633299828, -0.03759719803929329, 0.02151353843510151, -0.0144398408010602, 0.02679688297212124, -0.0016874292632564902, -0.014421887695789337, -0.06738254427909851, 0.05773976445198059, -0.04305605590343475, -0.08155645430088043, -0.05844905599951744, -0.03250727429986, 0.04365614801645279, -0.08290299773216248, -0.009356378577649593, 0.06906527280807495, -0.001131706521846354, -0.024670971557497978, -0.07559347152709961, -0.020568696781992912, -0.004500290844589472, 0.04891998693346977, -0.061781760305166245, 0.041011471301317215, -0.0007646463345736265, -0.02498113550245762, -0.0816664844751358, -0.0007986489799804986, -0.025327308103442192, -0.0050874920561909676, 0.05250256881117821, 0.01505393534898758, -0.013329176232218742, -0.062036581337451935, -0.08530296385288239, -0.028639160096645355, -0.040625251829624176, 0.0234048031270504, 0.0574190653860569, 0.010735074989497662, 0.003992937505245209, -0.024803508073091507, 0.0183107890188694, 0.014147154986858368, -0.004974744748324156, 0.014160127379000187, 0.010408672504127026, -0.05055806413292885, -0.02076372690498829, -0.017631053924560547, 0.039248544722795486, -0.04336909204721451, 0.010800069198012352, -0.06043386831879616, -0.022012634202837944, -0.07027093321084976, -0.010396147146821022, -0.0642036646604538, 0.025459405034780502, -0.08050301671028137, -0.016812022775411606, 0.014425248838961124, -0.08868642896413803, -0.07524021714925766, -0.013766287826001644, 0.04381248354911804, 0.00018562821787782013, -0.04474274814128876, -0.03149754926562309, -0.08921073377132416, -0.033584024757146835, -0.06545674800872803, 0.0567302368581295, 0.05168164521455765, -0.02209636941552162, 0.010377335362136364, 0.02350255288183689, 0.011056986637413502, -0.02890290692448616, -0.04243328794836998, -0.04922565072774887, 0.03216131776571274, 0.05780361592769623, -0.019516218453645706, -0.007790655829012394, -0.05313373729586601, -0.012477057985961437, -0.0748615711927414, -0.07860971987247467, -0.06603176146745682, -0.025167185813188553, -0.007870937697589397, 0.05733070522546768, 0.058200567960739136, 0.042405396699905396, -0.0556473545730114, -0.025315674021840096, 0.03416205570101738, -0.09053537994623184, -0.07682490348815918, -0.015845756977796555, 0.003533044131472707, -0.012850480154156685, 0.00012632062134798616, -0.06934767961502075, -0.018321845680475235, -0.011376961134374142, 0.00470914039760828, -0.0783023089170456, 0.05005505308508873, -0.06312672048807144, -0.0447932668030262], [-0.06370999664068222, -0.006588017102330923, 0.032599493861198425, -0.06544910371303558, -0.031802013516426086, -0.014974163845181465, 0.049237631261348724, 0.15392309427261353, 0.07221505045890808, -0.07775959372520447, 0.0835583359003067, 0.09436763823032379, 0.03999781981110573, 0.08716204017400742, -0.045695073902606964, -0.06487610936164856, 0.04078454524278641, -0.010478915646672249, -0.03326177969574928, -0.05161100998520851, -0.03501465916633606, -0.05370846763253212, -0.0742557942867279, -0.012319669127464294, 0.16842111945152283, 0.13128718733787537, 0.009109081700444221, 0.03975334390997887, 0.10018626600503922, 0.06335034966468811, -0.0005375027540139854, -0.08310529589653015, -0.0583946630358696, 0.07792192697525024, 0.051780663430690765, 0.01883254572749138, -0.11726181954145432, 0.04645681753754616, -0.02453235164284706, -0.16254399716854095, -0.04129451885819435, -0.0617559440433979, -0.08814048767089844, -0.04352224990725517, -0.10242414474487305, 0.059814292937517166, 0.16457396745681763, 0.08719449490308762, -0.08377242088317871, -0.037698160856962204, -0.003923235926777124, 0.00010577496141195297, -0.10798193514347076, -0.09543341398239136, -0.12249073386192322, 0.09184307605028152, 0.1514672487974167, -0.06557218730449677, 0.12615729868412018, 0.18742616474628448, -0.021050961688160896, 0.03996685519814491, 0.07771385461091995, 0.04156125336885452, 0.0673314556479454, 0.023503340780735016, -0.07468602806329727, -0.05602236092090607, -0.018756123259663582, 0.010184056125581264, 0.017874717712402344, 0.08940126746892929, 0.0853034034371376, -0.00694657489657402, -0.09186181426048279, -0.19399437308311462, -0.050346169620752335, -0.021358268335461617, -0.013591878116130829, -0.14749595522880554, -0.048131734132766724, -0.12806487083435059, -0.07826919108629227, -0.04321428760886192, -0.11122730374336243, -0.03983929753303528, 0.07661162316799164, -0.03620718792080879, 0.03747821971774101, 0.0034834202378988266, -0.006339955609291792, -0.10876607149839401, 0.043458979576826096, 0.05677039176225662, -0.15096415579319, -0.19133013486862183, -0.030532313510775566, -0.0956316813826561, -0.09509702771902084, -0.14741814136505127, -0.1413167417049408, -0.011372152715921402, 0.012589135207235813, -0.11837310343980789, -0.02943132072687149, 0.0959479808807373, 0.04681342467665672, -0.0035633821971714497, -0.0053258719854056835, -0.031234363093972206, -0.16131722927093506, -0.09732384234666824, 0.013964341022074223, 0.005593110341578722, -0.018266327679157257, -0.06441108882427216, -0.12186490744352341, 0.07639665901660919, 0.0436072051525116, -0.010348820127546787, -0.017725380137562752, 0.02985159121453762, -0.08728154003620148, -0.0980430394411087, 0.12823399901390076, -0.004186674021184444, 0.028242651373147964, -0.111713707447052, -0.03220178186893463, 0.048290226608514786, -0.08735030889511108, 0.05694219470024109, 0.028373735025525093, -0.11731978505849838, -0.10814043879508972, -0.0694345086812973, 0.06831518560647964, -0.050050921738147736, -0.06095552071928978, -0.04942849650979042, 0.03552969545125961, 0.07460153847932816, -0.005750781390815973, -0.15125338733196259, -0.08810752630233765, 0.08964499831199646, 0.1191684827208519, 0.08016963303089142, -0.1394004076719284, 0.02241428568959236, 0.0722220242023468, -0.001972755417227745, -0.07558736950159073, -0.016894526779651642, 0.04461168497800827, 0.051812734454870224, -0.05607668310403824, 0.13379579782485962, 0.06955157965421677, -0.0408167839050293], [-0.1635705679655075, 0.06503190845251083, 0.09653396904468536, 0.001008496037684381, -0.05508203059434891, -0.0328722782433033, -0.06369174271821976, -0.0002410321612842381, 0.023730773478746414, -0.0535239614546299, -0.11304942518472672, 0.0009990796679630876, -0.03163183853030205, 0.0472421795129776, -0.023449497297406197, -0.010701525956392288, -0.13295814394950867, -0.01894029602408409, 0.033944398164749146, -0.06290832906961441, -0.009169945493340492, -0.0025563454255461693, -0.05354178696870804, -0.04584477096796036, 0.13304433226585388, 0.019254254177212715, 0.08984064310789108, -0.027051931247115135, 0.021742522716522217, -0.03518558666110039, -0.05093422904610634, -0.028353746980428696, -0.06228630244731903, 0.13239969313144684, -0.04325422644615173, -0.02370091900229454, -0.1181316152215004, 0.06071879714727402, 0.03303011506795883, -0.09668323397636414, 0.05963747203350067, -0.03617068752646446, -0.056756824254989624, -0.10727797448635101, 0.010990230366587639, -0.010004300624132156, -0.028326302766799927, -0.008268218487501144, -0.013822492212057114, 0.02309751883149147, 0.017183318734169006, -0.09115182608366013, 0.03623512387275696, 0.07778697460889816, 0.016841458156704903, -0.054435230791568756, 0.00487406924366951, -0.05874324589967728, 0.03279836103320122, 0.0435078963637352, 0.050644244998693466, -0.0029349960386753082, 0.08025247603654861, 0.02371741458773613, -0.026954811066389084, -0.09187249094247818, 0.02543742023408413, 0.18750888109207153, -0.060564443469047546, -0.032539915293455124, 0.05140725523233414, 0.1695004105567932, -0.08326336741447449, -0.09533961862325668, -0.17972981929779053, -0.15202824771404266, 0.11880481988191605, 0.039334844797849655, -0.0398685596883297, -0.011547506786882877, 0.037302177399396896, -0.025186143815517426, 0.020075233653187752, 0.02042146772146225, 0.018077082931995392, -0.0419745109975338, -0.006270638667047024, -0.00213706586509943, 0.07041635364294052, -0.047180745750665665, -0.05658664181828499, 0.027330320328474045, 0.03285767883062363, 0.04457588121294975, 0.04787189140915871, -0.021944517269730568, 0.019972393289208412, -0.015202965587377548, 0.1631949245929718, 0.043056368827819824, 0.019810577854514122, 0.041840240359306335, 0.08131640404462814, -0.05012858659029007, -0.0587938092648983, -0.16105486452579498, 0.1442604511976242, 0.03119671531021595, 0.08706589043140411, -0.017868012189865112, -0.025205131620168686, 0.003439550753682852, -0.07876775413751602, -0.05770497769117355, 0.03516414389014244, 0.03488944470882416, -0.015894971787929535, -0.0924765020608902, -1.71951214724686e-05, -0.07174962759017944, -0.04397490993142128, 0.02395293302834034, 0.007698597852140665, -0.07794462889432907, 0.03163446485996246, 0.10743750631809235, 0.06800419092178345, -0.08588849008083344, -0.024963747709989548, 0.10059055685997009, 0.010520164854824543, -0.022666659206151962, 0.09336457401514053, -0.05510991811752319, -0.16079092025756836, 0.04681497439742088, 0.031245054677128792, -0.04942714422941208, -0.0044102743268013, 0.09213075041770935, -0.04751042276620865, 0.03132730349898338, 0.01667047291994095, -0.015152855776250362, -0.05199180170893669, 0.009140782058238983, 0.1054614707827568, -0.05013060197234154, -0.06409228593111038, -0.0693826675415039, -0.09007015079259872, -0.04121360555291176, 0.1232292577624321, -0.13186867535114288, -0.13106784224510193, -0.0250825397670269, 0.08135552704334259, 0.005579741671681404, 0.0025498252362012863, -0.05220923572778702], [0.04603072628378868, 0.016672302037477493, 0.020803747698664665, 0.02691662684082985, -0.017662929370999336, -0.029038814827799797, -0.0052104853093624115, -0.014052538201212883, 0.05891859158873558, -0.04195544123649597, -0.010776350274682045, -0.059319134801626205, 0.007981480099260807, 0.007930735126137733, 0.04855182394385338, -0.05264503136277199, -0.029209930449724197, -0.06785937398672104, -0.0003143447684124112, 0.05039555951952934, -0.0498584546148777, -0.03500181436538696, -0.04550815746188164, 0.05136868357658386, 0.058918796479701996, -0.08118267357349396, -0.03056189976632595, -0.03172877058386803, 0.03518935292959213, -0.010579382069408894, -0.08137304335832596, -0.0719464123249054, -0.03675912320613861, 0.01675085350871086, -0.04442751780152321, 0.014002330601215363, -0.02376449666917324, 0.061715640127658844, -0.02696433663368225, -0.03100903332233429, -0.04173590987920761, -0.04754703491926193, 0.051119521260261536, 0.055606432259082794, -0.08456350117921829, -0.04261302575469017, -0.05565517023205757, 0.04629555717110634, 0.032417356967926025, -0.08200133591890335, 0.0402582548558712, -0.07872402667999268, 0.03371246159076691, -0.05066736415028572, 0.06062982231378555, -0.08825342357158661, 0.0400078259408474, 0.0728570893406868, -0.05017096549272537, 0.02147810347378254, 0.05381156876683235, 0.033190540969371796, -0.01569328084588051, -0.07993883639574051, -0.03660004958510399, -0.01802435889840126, -0.058481812477111816, -0.0548880472779274, 0.020652074366807938, 0.03274399787187576, 0.044428497552871704, 0.03846834599971771, 0.06649776548147202, -0.03360968083143234, -0.08140892535448074, -0.04623377323150635, -0.032960012555122375, 0.0008215387933887541, 0.0027312322054058313, -0.016467738896608353, 0.055824462324380875, -0.03856979310512543, -0.009162206202745438, -0.0331142283976078, -0.006491825915873051, 0.05105206370353699, 0.04977641627192497, -0.0767773911356926, 0.02512187510728836, 0.05013660714030266, -0.05142242833971977, 0.04023889824748039, -0.041975755244493484, 0.0206184983253479, -0.08192233741283417, -0.023331841453909874, -0.05764765292406082, 0.04148045927286148, -0.03741392865777016, -0.010342366993427277, -0.046555835753679276, -0.07123145461082458, -0.07399115711450577, -0.08383259177207947, -0.08049925416707993, -0.08602813631296158, 0.04693468287587166, -0.014292259700596333, -0.00041523552499711514, 0.006074121687561274, -0.08439463376998901, -0.031527329236269, 0.0025287738535553217, 0.006779525429010391, -0.07620435953140259, 0.0230714064091444, -0.07367899268865585, 0.05532781407237053, -0.06801018863916397, -0.017507199198007584, 0.05752835050225258, -0.03865927457809448, 0.002955665113404393, -0.06266893446445465, -0.02981547825038433, 0.03022657334804535, -0.00728713208809495, 0.033623937517404556, 0.044826749712228775, 0.053725581616163254, -0.041584111750125885, 0.052054084837436676, -0.015932701528072357, 0.054376114159822464, 0.0031546165701001883, -0.023025138303637505, -0.016843175515532494, 0.005331008695065975, 0.030592018738389015, 0.007398993242532015, -0.07035322487354279, 0.06531135737895966, 0.02250848338007927, 0.06532403081655502, -0.004328761715441942, 0.025921126827597618, -0.033563032746315, 0.0331297367811203, -0.09143755584955215, -0.041074760258197784, -0.09250624477863312, -0.06215803325176239, -0.07745363563299179, -0.08047784864902496, -0.003902939148247242, 0.0577063113451004, 0.0005368620622903109, 0.012727557681500912, -0.01533063780516386, -0.0004675093514379114], [-0.01662098988890648, -0.015469424426555634, -0.07135035842657089, -0.07640490680932999, -0.05570973455905914, -0.03783075511455536, 0.017444806173443794, 0.007541879545897245, -0.060461707413196564, -0.0484006367623806, 0.022819045931100845, -0.04850242659449577, -0.06103485822677612, 0.05112423747777939, 0.0629524439573288, -0.06543870270252228, -0.06883802264928818, 0.012079857289791107, -0.0681600570678711, -0.03421874716877937, -0.040043432265520096, -0.05523272603750229, 0.04824354499578476, 0.05182787775993347, -0.08118472993373871, -0.0651397630572319, 0.016306575387716293, -0.0539490208029747, 0.03063000924885273, 0.008769648149609566, 0.0257953442633152, -0.07639355957508087, -0.07828470319509506, 0.012812274508178234, -0.0720030665397644, -0.04515251889824867, 0.06179695203900337, 0.01881900429725647, -0.07374948263168335, -0.047657717019319534, -0.033301547169685364, 0.0015093316324055195, 0.0636209174990654, -0.009061907418072224, -0.035623129457235336, 0.053889334201812744, 0.02001013606786728, -0.03854577988386154, -0.04883645102381706, -0.0005375372711569071, 0.030070975422859192, -0.04058212414383888, 0.035215478390455246, 0.021124618127942085, 0.03489518538117409, -0.04093828424811363, -0.06152857095003128, -0.004101574420928955, -0.08378379791975021, -0.030865320935845375, -0.06314092874526978, -0.014696058817207813, -0.04857518523931503, -0.05934868007898331, -0.024341020733118057, -0.05818548798561096, -0.001743429689668119, 0.03300071880221367, -0.03602346032857895, 0.006036157254129648, 0.03139122575521469, -0.031144922599196434, -0.03672366961836815, -0.005495523568242788, -7.272242510225624e-05, -0.04533896595239639, -0.02893405593931675, -0.02886093780398369, 0.020506054162979126, 0.04541532322764397, -0.012055497616529465, -0.0629129484295845, 0.05737295374274254, -0.05276256427168846, 0.0230411384254694, -0.005923896562308073, -0.0773860365152359, 0.05693713203072548, -0.047222789376974106, -0.013305777683854103, -0.005061363335698843, -0.045605871826410294, -0.07254920899868011, -0.007278798148036003, -0.04989971965551376, 0.03485278785228729, 0.03629688173532486, -0.006676938850432634, -0.02744971215724945, -0.04903775453567505, -0.04920570179820061, -0.020183945074677467, -0.08692365884780884, -0.04057884216308594, -0.009531032294034958, -0.05825887992978096, -0.034213837236166, -0.08605936169624329, 0.06439245492219925, -0.06599674373865128, 0.020783280953764915, -0.08112657070159912, -0.06321612745523453, 0.04516860470175743, 0.0085948146879673, 0.003992303740233183, -0.027828166261315346, 0.018619894981384277, 0.03452097624540329, -0.013982236385345459, 0.05508045479655266, -0.0005221812170930207, 0.044232096523046494, 0.027170345187187195, -0.05903627350926399, 0.05502667650580406, -0.08178917318582535, 0.002836143132299185, 0.018298614770174026, 0.06299103051424026, -0.04102283716201782, -0.02118542790412903, 0.0016411590622738004, 0.058258336037397385, 0.03292838856577873, 0.055203627794981, -0.020805319771170616, -0.025793002918362617, 0.0010865209624171257, -0.08297473192214966, 0.055232077836990356, 0.035488154739141464, 0.03240805119276047, -0.03412798047065735, 0.001978409243747592, -0.04412774741649628, -0.03221290558576584, 0.010593329556286335, 0.031866177916526794, 0.04117502644658089, 0.0530843660235405, -0.07852133363485336, 0.05213706195354462, 0.04959641769528389, 0.012030977755784988, 0.06512079387903214, -0.04889592528343201, 0.03321351110935211, 0.05888938158750534, -0.006031909491866827], [0.03130904957652092, -0.08516625314950943, 0.06178620457649231, -0.005447773728519678, 0.060716692358255386, -0.061306972056627274, 0.11095927655696869, -0.061255183070898056, 0.007596954237669706, 0.13434840738773346, 0.10815902054309845, -0.057983048260211945, 0.04612831771373749, -0.005318057723343372, 0.037132736295461655, 0.05568482354283333, 0.1082632839679718, -0.023077312856912613, 0.01188210304826498, 0.05305644869804382, 0.09353724122047424, 0.04073606804013252, 0.032149285078048706, 0.06441491097211838, 0.0018029205966740847, 0.00505202217027545, -0.14805936813354492, -0.06848764419555664, -0.04789482429623604, -0.1838681995868683, -0.13506075739860535, 0.054646577686071396, 0.007960629649460316, 0.02412814274430275, -0.009345924481749535, 0.08388136327266693, 0.03751629218459129, -0.1459910124540329, 0.10454811155796051, 0.15840674936771393, -0.05616317689418793, 0.09245294332504272, 0.13132165372371674, 0.030099982395768166, 0.03226188197731972, 0.048410601913928986, 0.013657549396157265, -0.0359220914542675, 0.11616087704896927, 0.08003402501344681, -0.03849733993411064, 0.030805815011262894, 0.004080626647919416, -0.0023201005533337593, -0.052292048931121826, -0.07577931135892868, -0.00931505300104618, -0.04518183693289757, 0.00034708171733655035, -0.06591816246509552, 0.025527112185955048, -0.01724456250667572, -0.12477602809667587, 0.04202078655362129, 0.03086325153708458, -0.008777249604463577, 0.05600598827004433, -0.11270143836736679, 0.04024546220898628, 0.05613398179411888, 0.05631362646818161, 0.01428589504212141, -0.010896684601902962, -0.012170448899269104, 0.07525788992643356, 0.18317310512065887, 0.0252413060516119, -0.08029498159885406, -0.08465367555618286, 0.0813353881239891, 0.08953897655010223, 0.10900349915027618, -0.00014466026914305985, -0.07981143146753311, -0.08859525620937347, -0.00782325305044651, 0.03209817409515381, 0.034305181354284286, 0.007544862572103739, 0.019188130274415016, 0.0006617606850340962, 0.039963655173778534, -0.1501609832048416, -0.07797756046056747, 0.08021032810211182, 0.17411626875400543, -0.027172066271305084, 0.019672833383083344, -0.04582437127828598, -0.020369382575154305, -0.054220087826251984, -0.018177060410380363, 0.07965415716171265, 0.10336180776357651, 0.024166792631149292, 0.022544099017977715, -0.09992936998605728, -0.007625064346939325, -0.05331665277481079, -0.08152460306882858, 0.07729107141494751, 0.1428011655807495, 0.028111139312386513, 0.044696513563394547, 0.016614550724625587, -0.03985738754272461, -0.009437689557671547, 0.04354254901409149, 0.051326408982276917, 0.04733278602361679, 0.029755666851997375, -0.018467431887984276, 0.1099579706788063, 0.08017310500144958, -0.08919751644134521, -0.05379530042409897, -0.03424820303916931, -0.03612906485795975, -0.02182624489068985, 0.02149110473692417, 0.05360611528158188, -0.055344242602586746, -0.07783708721399307, 0.022371891885995865, 0.13253560662269592, -0.10488370805978775, -0.047735895961523056, 0.11910702288150787, 0.07075563073158264, -0.13768601417541504, -0.022681547328829765, 0.05013895407319069, -0.12940703332424164, -0.0025131742004305124, 0.020722946152091026, -0.03268374875187874, -0.016582483425736427, -0.022794289514422417, -0.03030361607670784, -0.007814549840986729, 0.033217430114746094, 0.09154099225997925, 0.04805625230073929, 0.11333564668893814, -0.04420142248272896, -0.0970304012298584, 0.02542741969227791, -0.0716511681675911, -0.18159568309783936, -0.013259240426123142], [0.05193956196308136, 0.00421125628054142, -0.030598508194088936, 0.05628370866179466, -0.06674891710281372, -0.029009927064180374, -0.08745572715997696, 0.09696033596992493, 0.005871334578841925, -0.017972370609641075, -0.02714502066373825, 0.02744300849735737, 0.05854438990354538, 0.03962855413556099, -0.10585998743772507, -0.03438231348991394, 0.03596437722444534, 0.07710810005664825, -0.04231846332550049, 0.09018142521381378, -0.025209086015820503, 0.015417796559631824, -0.027929915115237236, 0.04337199404835701, 0.03797738999128342, -0.11342354863882065, 0.09442547708749771, -0.06490281969308853, -0.12028058618307114, -0.12603498995304108, -0.06999120861291885, -0.017668120563030243, -0.016687553375959396, 0.062299467623233795, 0.06214970350265503, 0.21435028314590454, 0.11966396123170853, 0.02942792885005474, -0.008416559547185898, 0.059999413788318634, 0.0949026569724083, 0.07990715652704239, 0.09899675101041794, -0.046131063252687454, 0.134246826171875, 0.019457977265119553, 0.04290689527988434, 0.04163762181997299, 0.0507960207760334, 0.17888805270195007, -0.03569759428501129, 0.0015716180205345154, 0.02051905170083046, 0.14383430778980255, -0.04750853776931763, -0.08882849663496017, -0.06392120569944382, 0.04246429726481438, -0.02537805400788784, 0.021297356113791466, 0.04672901704907417, -0.020587420091032982, 0.00023154355585575104, 0.05767688527703285, 0.0025105138774961233, 0.010448995977640152, 0.021460648626089096, 0.010414631105959415, 0.026691976934671402, 0.018423207104206085, 0.016620339825749397, 0.017750615254044533, 0.021138407289981842, -0.14504140615463257, 0.0034833215177059174, 0.24972407519817352, -0.14935435354709625, -0.1556132584810257, -0.003918057307600975, 0.10924392938613892, 0.01889776438474655, 0.0568111352622509, 0.007751151453703642, 0.047687828540802, 0.0052412706427276134, -0.14084480702877045, -0.02607906609773636, 0.08669452369213104, -0.14465132355690002, -0.09133012592792511, 0.11705485731363297, 0.026813190430402756, 0.003576712217181921, -0.03832365199923515, 0.07460536807775497, -0.04394606500864029, 0.07657960802316666, 0.1330588310956955, 0.14681828022003174, -0.03001262992620468, 0.045244310051202774, -0.058952249586582184, -0.041191257536411285, 0.06131315231323242, 0.0020421259105205536, -0.013353873044252396, 0.10009501874446869, 0.05713239312171936, -0.05900159478187561, 0.014815985225141048, 0.1395214945077896, 0.05483419820666313, 0.08107897639274597, 0.11903106421232224, 0.07316552102565765, 0.15614332258701324, 0.070746511220932, -0.19261740148067474, -0.22776475548744202, -0.06570672988891602, 0.05254491791129112, -0.06568653881549835, 0.006017287261784077, 0.11858047544956207, 0.03413427993655205, 0.028928043320775032, -0.04451000317931175, -0.0097510926425457, 0.08445931226015091, 0.0906505212187767, 0.11761895567178726, -0.006792185362428427, -0.04646102339029312, 0.19325628876686096, 0.07978712022304535, 0.09055978804826736, 0.0515618734061718, 0.015904374420642853, -0.0277969092130661, 0.07471111416816711, 0.03832882270216942, 0.027585400268435478, -0.02487054467201233, 0.06848020851612091, 0.03226060792803764, -0.024920441210269928, 0.03306976333260536, 0.03323906287550926, 0.07401616871356964, -0.11250631511211395, 0.02169550582766533, -0.07131931930780411, 0.14008554816246033, -0.007529429625719786, -0.09390861541032791, 0.010864753276109695, -0.06667125970125198, 0.03173350170254707, -0.037115421146154404, 0.007669531740248203], [0.01513303816318512, -0.0821942687034607, -0.032322876155376434, -0.06018790602684021, -0.004609465599060059, 0.012129368260502815, -0.08517694473266602, -0.053099825978279114, -0.02863997034728527, 0.023707902058959007, 0.008738723583519459, -0.011760331690311432, 0.020381323993206024, 0.02787206508219242, 0.009795257821679115, 0.04334381967782974, 0.11571472138166428, 0.090439572930336, -0.029681533575057983, -0.1597183793783188, -0.010982847772538662, -0.02254784293472767, 0.06674142181873322, -0.08428481966257095, 0.04597308859229088, 0.06081636622548103, -0.005477245897054672, 0.019573818892240524, -0.025173036381602287, 0.014378361403942108, 0.04565063491463661, -0.03497513756155968, -0.03761601820588112, -0.10401371121406555, 0.1081840768456459, 0.07223129272460938, -0.04973934218287468, -0.037769485265016556, 0.1915779858827591, 0.13087593019008636, 0.03706975653767586, -0.12547683715820312, -0.017524490132927895, 0.09784843772649765, -0.02202332206070423, 0.014565039426088333, 0.05019708722829819, 0.05482594668865204, 0.04084540903568268, -0.0381254181265831, 0.025833189487457275, 0.19191090762615204, 0.013171527534723282, 0.06624503433704376, -0.06467630714178085, -0.091303251683712, 0.03115798719227314, -0.047236185520887375, 0.05462569743394852, 0.02002229355275631, 0.06590546667575836, -0.027748750522732735, 0.05984149128198624, -0.023316824808716774, 0.016639716923236847, 0.06773869693279266, -0.07436392456293106, -0.1579643189907074, 0.0740460455417633, 0.010383195243775845, -0.09453938156366348, -0.010204104706645012, 0.056392207741737366, 0.06226364150643349, -0.0023346340749412775, 0.049824222922325134, -0.018285013735294342, 0.07875397801399231, 0.009394122287631035, -0.02549510821700096, -0.038118887692689896, 0.04940537363290787, -0.09932118654251099, -0.0664970651268959, -0.08408750593662262, -0.049002062529325485, -0.046954862773418427, -0.06002127006649971, 0.0913611575961113, -0.033815350383520126, -0.0619114525616169, 0.03819316253066063, 0.05095507204532623, -0.0026692007668316364, -0.05674736201763153, -0.08021344244480133, -0.03449244052171707, -0.1599256545305252, -0.05741436034440994, 0.07408798485994339, -0.06503167748451233, -0.036766309291124344, -0.036611951887607574, 0.0822744071483612, 0.013591502793133259, 0.03524042293429375, -0.047996439039707184, 0.017496192827820778, 0.11119366437196732, 0.051037199795246124, -0.009936177171766758, -0.0071219708770513535, 0.03241083770990372, 0.0007356447749771178, -0.060446444898843765, -0.05683400109410286, 0.07487490028142929, 0.02248602733016014, -0.08007559925317764, -0.1370035707950592, 0.10048537701368332, 0.012130089104175568, -0.0746990367770195, -0.028648747131228447, 0.11236715316772461, 0.09240132570266724, 0.04628651216626167, -0.016353679820895195, 0.07971202582120895, -0.025603292509913445, 0.08487550914287567, -0.10839426517486572, 0.03841809555888176, -0.13058732450008392, 0.09151792526245117, -0.040608130395412445, 0.05926761403679848, -0.018424738198518753, 0.03695962205529213, 0.05061119794845581, 0.020826688036322594, -0.05630214139819145, 0.02546505816280842, -0.019417261704802513, 0.02338247373700142, -0.062177956104278564, 0.05923782289028168, 0.02019643411040306, 0.09678234159946442, 0.07170791923999786, -0.00891067460179329, 0.053447771817445755, -0.006789627484977245, -0.03876044601202011, 0.0786217600107193, -0.11728920042514801, 0.060630038380622864, -0.00870261900126934, 0.05893440172076225, -0.07831650227308273], [0.026638716459274292, -0.07170293480157852, -0.03407778590917587, -0.050264596939086914, 0.021346641704440117, 0.1336568295955658, 0.029193300753831863, -0.06207234784960747, 0.0005655252607539296, 0.03757508099079132, 0.010492594912648201, -0.01563056744635105, 0.053227175027132034, -0.07962742447853088, 0.02017473243176937, -0.06177903711795807, -0.07021407037973404, 0.0008271962287835777, -0.0036930590867996216, -0.11219991743564606, 0.006816977635025978, -0.016787901520729065, 0.07881047576665878, -0.04699244722723961, 0.01912505365908146, -0.04949794337153435, -0.051781896501779556, -0.0815737396478653, -0.06706661731004715, -0.09558417648077011, 0.04001343995332718, -0.04786570742726326, 0.07270877063274384, -0.0396919772028923, 0.1547769010066986, 0.021094072610139847, -0.01921815425157547, 0.03566071018576622, 0.07652506232261658, 0.1699431985616684, -0.034233808517456055, 0.050458893179893494, 0.013099120929837227, -0.051043856889009476, 0.06332839280366898, -0.04968447983264923, -0.0718807578086853, 0.030649855732917786, 0.16138382256031036, 0.10976667702198029, -0.008774823509156704, -0.03944023698568344, -0.07779129594564438, 0.10058977454900742, 0.04183217138051987, -0.007266093976795673, 0.08536659926176071, 0.12796273827552795, 0.017818374559283257, 0.061630722135305405, 0.05160818621516228, -0.08387666940689087, 0.012766380794346333, 0.10353133082389832, -0.19794903695583344, -0.15744496881961823, -0.15283343195915222, 0.0028790838550776243, 0.0531315915286541, -0.03234899416565895, -0.022117692977190018, -0.030192388221621513, 0.18047642707824707, 0.058594197034835815, 0.09260638803243637, 0.11777982115745544, -0.07307002693414688, -0.22548994421958923, -0.1563560962677002, -0.013987557031214237, 0.06782539188861847, 0.03600039705634117, -0.024373812600970268, -0.014921145513653755, 0.03556711599230766, 0.1331583708524704, 0.07375930994749069, 0.12869806587696075, -0.010134083218872547, -0.017977915704250336, 0.050637468695640564, -0.03691618889570236, -0.1416778266429901, -0.016420897096395493, 0.012257716618478298, 0.06061321869492531, -0.012941010296344757, 0.018440058454871178, 0.046174224466085434, 0.1395624577999115, 0.0040587931871414185, 0.06753065437078476, 0.07661665230989456, 0.16770943999290466, 0.040542587637901306, -0.058863427489995956, 0.05502695217728615, 0.0888742133975029, -0.10780216008424759, -0.012258613482117653, 0.13306300342082977, 0.033008020371198654, -0.11117947101593018, -0.03662387654185295, -0.09065715223550797, 0.0060468390583992004, 0.09028636664152145, 0.06712880730628967, 0.025488946586847305, 0.034951988607645035, 0.11724086105823517, -0.009579821489751339, 0.014393544755876064, 0.020429249852895737, -0.062144480645656586, -0.149213507771492, -0.10291986912488937, 0.00793462060391903, 0.029775459319353104, 0.0800454393029213, 0.20447078347206116, 0.03764668107032776, 0.07164031267166138, 0.06716567277908325, -0.021824777126312256, -0.12045358121395111, 0.019879937171936035, -0.024073069915175438, 0.04092976450920105, 0.03292940929532051, 0.06926630437374115, 0.05311431363224983, -0.03584647178649902, 0.0910286158323288, 0.03622449189424515, -0.052434343844652176, 0.08094683289527893, 0.07446255534887314, 0.01877467893064022, -0.01378287561237812, 0.04049162194132805, -0.01363618578761816, 0.08525165170431137, 0.0638694167137146, -0.10807214677333832, -0.05431900545954704, -0.05263925716280937, -0.05284261703491211, 0.004593546502292156, 0.09400021284818649], [-0.07688579708337784, -0.000391147070331499, 0.08011775463819504, -0.022644445300102234, 0.11277318000793457, -0.04301963001489639, -0.16169428825378418, 0.04492931440472603, 0.025687703862786293, -0.05388953164219856, 0.009533445350825787, 0.0487077459692955, 0.007376584690064192, 0.15704457461833954, -0.013376805000007153, 0.05369941517710686, 0.08432905375957489, 0.12294008582830429, 0.06333273649215698, -0.08935554325580597, 0.17277415096759796, 0.054288849234580994, -0.07699467241764069, 0.023728009313344955, 0.05359058454632759, -0.032260745763778687, -0.011767254211008549, 0.08853987604379654, 0.09205082803964615, 0.10881432890892029, 0.14700359106063843, 0.07700977474451065, 0.01774255931377411, -0.011868934147059917, -0.00979194138199091, 0.07653343677520752, -0.005572636611759663, 0.01661762408912182, -0.051536113023757935, 0.045917998999357224, 0.06682188808917999, -0.005428439471870661, -0.02778463438153267, -0.10454605519771576, -0.06585192680358887, -0.047275982797145844, 0.06915047019720078, 0.1541413813829422, -0.10045386850833893, 0.04035409539937973, 0.11755706369876862, 0.08287659287452698, 0.039918508380651474, 0.09549795836210251, 0.03169678896665573, -0.020536795258522034, 0.06380824744701385, 0.00018370570614933968, 0.06498520821332932, 0.06183229386806488, 0.10002445429563522, -0.027817783877253532, 0.16645145416259766, -0.06577351689338684, 0.03920583799481392, 0.10028223693370819, 0.046191029250621796, 0.035415127873420715, 0.027844220399856567, -0.047973841428756714, 0.09761849045753479, 0.0977267473936081, 0.01356066670268774, -0.1384950876235962, 0.04872801527380943, 0.02468407154083252, 0.04278305172920227, -0.026743780821561813, 0.01848313957452774, -0.03321400657296181, 0.010042350739240646, 0.0008360825595445931, 0.03438793122768402, -0.027666890993714333, -0.028126461431384087, -0.017919477075338364, -0.06918736547231674, 0.06157250702381134, -0.10732708871364594, -0.10186221450567245, -0.045294202864170074, 0.02818376198410988, 0.0970102921128273, 0.08944588154554367, 0.02119380794465542, -0.04137132689356804, 0.08715461939573288, 0.04041063040494919, 0.03903878852725029, 0.0815090760588646, -0.06297064572572708, -0.07028540968894958, -0.008354589343070984, 0.05269757658243179, -0.019791102036833763, -0.03247769922018051, -0.028393762186169624, -0.019170310348272324, 0.09259425848722458, 0.06280602514743805, -0.042887259274721146, -0.05484718456864357, 0.12364976853132248, 0.05714426934719086, 0.05266102775931358, 0.10491860657930374, 0.02638327330350876, -0.004372503608465195, -0.020458197221159935, -0.10434893518686295, -0.08051572740077972, 0.014409452676773071, 0.010876060463488102, -0.1132781058549881, 0.10879305005073547, 0.033808425068855286, 0.05382055789232254, -0.1117783859372139, -0.04779860004782677, 0.012645632959902287, 0.08423888683319092, 0.07774685323238373, 0.11256620287895203, 0.00521736778318882, 0.002975686453282833, -0.03574870899319649, 0.0672544613480568, -0.16192461550235748, -0.0009892851812765002, 0.0749272033572197, -0.005522510968148708, -0.044759027659893036, 0.07855077087879181, 0.1118534728884697, 0.03290843218564987, 0.002568882890045643, -0.03564709052443504, 0.007252340670675039, -0.033818501979112625, -0.04057041555643082, -0.05226368457078934, -0.05099038407206535, 0.13432879745960236, 0.01195540465414524, -0.006497180555015802, -0.023771731182932854, -1.2113116099499166e-05, 0.16591855883598328, 0.18169032037258148, 0.09808710217475891], [0.019015099853277206, 0.002215134911239147, -0.02949605882167816, 0.1289883553981781, -0.014365273527801037, 0.02350398525595665, -0.026325929909944534, -0.06724905967712402, -0.02586059644818306, 0.1286327838897705, 0.012892107479274273, -0.03242447227239609, -0.06427187472581863, 0.01410379633307457, -0.04410230368375778, -0.010396876372396946, -0.1731591820716858, -0.03452294319868088, 0.024063730612397194, 0.029126478359103203, -0.024449007585644722, -0.12030328810214996, 0.09424927830696106, 0.034729886800050735, 0.03543836623430252, 0.005276329815387726, -0.1041945219039917, -0.06161317601799965, 0.021642137318849564, -0.034379541873931885, -0.01339926291257143, -0.09191111475229263, 0.08755353838205338, 0.010972010903060436, 0.24280774593353271, 0.2616805136203766, 0.24106594920158386, 0.07309462130069733, -0.07747315615415573, -0.03644299507141113, 0.10539839416742325, 0.014142319560050964, 0.024108728393912315, -0.01910744234919548, -0.0304266344755888, 0.09052169322967529, 0.004392155911773443, -0.049029890447854996, 0.1612587422132492, 0.1528293937444687, -0.09976378828287125, -0.22393622994422913, -0.04981106519699097, 0.1536031812429428, 0.01545721385627985, -0.015493031591176987, -0.09703018516302109, 0.05657913163304329, 0.0703810378909111, 0.061573319137096405, -0.037233300507068634, 0.06346896290779114, 0.1021273285150528, 0.0033642337657511234, -0.21503368020057678, -0.15761826932430267, 0.057433292269706726, 0.2565040588378906, -0.007446434814482927, 0.046960942447185516, 0.01637568324804306, 0.1256675273180008, 0.08266087621450424, -0.13651834428310394, 0.050625625997781754, 0.02155301347374916, 0.0006866680341772735, -0.05913466215133667, -0.060199569910764694, -0.015937019139528275, 0.056498438119888306, -0.05462956428527832, 0.02759217843413353, 0.036204636096954346, 0.10854748636484146, 0.08429192006587982, -0.02483496256172657, 0.007150388788431883, -0.05151985213160515, -0.0390760600566864, -0.016014883294701576, -0.051590029150247574, 0.05389891192317009, 0.018472865223884583, -0.020464081317186356, -0.02938515692949295, 0.05674968659877777, 0.09811235964298248, 0.05476410314440727, 0.10083694010972977, 0.03995826095342636, 0.12315594404935837, 0.0668165311217308, -0.012239320203661919, -0.05764805153012276, 0.07680691033601761, 0.07990754395723343, 0.02621821127831936, 0.029734255746006966, -0.10005702823400497, 0.1600113958120346, -0.025432854890823364, -0.051851555705070496, -0.18805274367332458, 0.04672570899128914, 0.03478638455271721, 0.00546762952581048, -0.06523199379444122, -0.011620258912444115, 0.047555163502693176, -0.028428955003619194, 0.03315632417798042, 0.0869326964020729, 0.00826903898268938, -0.008824178017675877, 0.024387121200561523, 0.002542599570006132, -0.1033908799290657, 0.14424660801887512, 0.043556660413742065, 0.03809018433094025, 0.05344563350081444, 0.13769520819187164, 0.03749343752861023, -0.03081499971449375, 0.1368316113948822, -0.05482001602649689, 0.00021535204723477364, 0.09136916697025299, 0.10192852467298508, -0.003725531045347452, 0.08235148340463638, 0.02431749366223812, 0.045007362961769104, 0.05842949450016022, 0.0747486799955368, 0.013040202669799328, -0.04349394515156746, 0.05321016162633896, -0.03352775797247887, -0.025706743821501732, 0.06824428588151932, -0.022974960505962372, 0.037909071892499924, -0.07228965312242508, -0.04956367239356041, -0.043283168226480484, 0.030724141746759415, -0.002511235186830163, 0.06825903803110123], [-0.05577534809708595, 0.0790276974439621, 0.039332762360572815, 0.07250433415174484, 0.11124132573604584, 0.02755117416381836, -0.0171642005443573, -0.17952847480773926, 0.01024677511304617, 0.040200795978307724, 0.060073357075452805, -0.03161754086613655, 0.001974782207980752, -0.02272559143602848, 0.012108460068702698, 0.00885218009352684, -0.011124217882752419, -0.024780837818980217, -0.019978754222393036, -0.20621110498905182, -0.11156141012907028, 0.01601921021938324, 0.04126391559839249, -0.07615483552217484, 0.012977487407624722, -0.03982798755168915, 0.03618515282869339, -0.08888307958841324, -0.0025154866743832827, 0.022329432889819145, 0.014332101680338383, -0.07790879160165787, -0.007420993410050869, 0.09252150356769562, 0.18322618305683136, 0.1667635142803192, 0.026044024154543877, 0.07155616581439972, 0.017634378746151924, 0.017005721107125282, 0.042098600417375565, -0.022773873060941696, 0.1005554348230362, -0.055665962398052216, 0.137076273560524, 0.00773259811103344, -0.0808619037270546, -0.07068419456481934, 0.03246086463332176, 0.07445065677165985, -0.017568260431289673, -0.06405583769083023, 0.019398879259824753, 0.05495369806885719, -0.06999949365854263, 0.0059372177347540855, 0.009884235449135303, 0.0458182767033577, -0.08833441883325577, -0.08423465490341187, -0.05729525163769722, 0.04147522523999214, -0.018812622874975204, -0.12158029526472092, -0.11334577202796936, -0.13968095183372498, -0.09634939581155777, 0.11944673955440521, 0.022868534550070763, -0.056969042867422104, 0.048928361386060715, 0.06948452442884445, 0.10434278100728989, 0.04482441395521164, 0.08905456960201263, -0.023016082122921944, 0.05460134521126747, -0.008841154165565968, -0.05205248296260834, -0.014305920340120792, -0.08504468947649002, -0.07598844170570374, -0.03781254217028618, 0.053546011447906494, 0.03993266820907593, 0.026507915928959846, -0.08158420771360397, 0.09706378728151321, 0.04775480926036835, 0.026708059012889862, -0.023728368803858757, 0.047175660729408264, 0.04136684536933899, -0.07663598656654358, -0.07841704785823822, 0.02656969614326954, -0.08732816576957703, -0.029864713549613953, 0.04605474695563316, 0.04118124023079872, -0.04714541882276535, -0.0575840063393116, -0.019543375819921494, 0.10875644534826279, -0.02213495597243309, 0.08897724002599716, 0.06854646652936935, 0.053725529462099075, 0.034564241766929626, 0.037698566913604736, 0.07756999135017395, 0.0441804863512516, -0.11720588803291321, -0.13521723449230194, -0.08215469866991043, -0.04873809963464737, 0.03025718592107296, -0.06140615791082382, -0.016837915405631065, 0.008781910873949528, 0.1053379476070404, 0.05833609402179718, -0.044532809406518936, 0.0717596709728241, 0.0002622003958094865, -0.05465685576200485, -0.06619393825531006, -0.027758367359638214, 0.07532509416341782, -0.004080429673194885, 0.13195215165615082, 0.034979499876499176, 0.045705780386924744, -0.04157278686761856, 0.13316020369529724, -0.0068042222410440445, 0.08482635766267776, -0.08561420440673828, 0.04770689085125923, 0.05140373110771179, 0.08254653960466385, -0.049417346715927124, 0.0998840257525444, 0.05578215792775154, 0.0795891135931015, 0.045314859598875046, 0.09780465811491013, 0.0020240629091858864, 0.10353861004114151, -0.09019171446561813, -0.07344242930412292, -0.051083728671073914, 0.04574451968073845, 0.059540823101997375, -0.0946229100227356, -0.11086607724428177, 0.012228017672896385, -0.03488462418317795, -0.04290809854865074, -0.051227979362010956], [-0.10917320102453232, -0.002897244645282626, 0.1453004777431488, 0.12296309322118759, -0.0424661859869957, 0.09781628847122192, 0.10668755322694778, 0.14167344570159912, 0.08073336631059647, 0.05953206494450569, 0.059397295117378235, -0.07260823249816895, -0.08612522482872009, -0.005354330874979496, -0.09611885249614716, -0.11078354716300964, -0.03290935233235359, 0.010193168185651302, 0.12174542993307114, 0.13134390115737915, -0.061755962669849396, -0.08287110179662704, -0.04954439774155617, 0.0003315168432891369, -0.02972799725830555, 0.046616315841674805, 0.027744082733988762, 0.092958003282547, 0.03818964958190918, -0.0709562823176384, -0.0030427705496549606, -0.03992433473467827, -0.005883129313588142, 0.010577237233519554, 0.11913371831178665, 0.2636045217514038, 0.003586758626624942, 0.02960578165948391, 0.06786352396011353, 0.0057827262207865715, -0.06226497143507004, -0.06506627798080444, 0.10451065003871918, 0.013736577704548836, 0.027054039761424065, -0.0959671288728714, 0.035807158797979355, -0.04465971887111664, 0.04218078404664993, -0.0591789148747921, -0.1284644901752472, -0.1862049698829651, 0.024694060906767845, -0.006774167064577341, -0.0942528247833252, 0.0678744986653328, 0.01080568041652441, -0.0007509556016884744, -0.021964535117149353, 0.03796226531267166, 0.02577422559261322, 0.07808154821395874, 0.06171143800020218, -0.11169467866420746, -0.03548816964030266, -0.08370279520750046, -0.06914668530225754, 0.05689065903425217, -0.0027557883877307177, -0.05127273127436638, 0.1452612727880478, -0.008135112933814526, -0.007381509989500046, 0.0028332937508821487, -0.06385728716850281, 0.059002410620450974, -0.04345284774899483, -0.009372779168188572, 0.01935238391160965, 0.005769784562289715, 0.005002686288207769, 0.0922941341996193, 0.009117265231907368, 0.04912561923265457, 0.024295657873153687, 0.03742320463061333, 0.04554779455065727, 0.07337863743305206, -0.041029445827007294, -0.020226024091243744, -0.023842275142669678, -0.07590652257204056, -0.05758332088589668, -0.027185549959540367, 0.05438936874270439, -0.0866428092122078, 0.07596663385629654, 0.18416014313697815, 0.06609087437391281, 0.012451587244868279, 0.09918609261512756, 0.07080856710672379, 0.012399212457239628, -0.10363542288541794, -0.04183699190616608, -0.010789467953145504, 0.11213008314371109, -0.10860832035541534, -0.08468525111675262, 0.12445272505283356, 0.05990246683359146, 0.022696929052472115, -0.09267152845859528, -0.07522042095661163, -0.017564214766025543, 0.004143408965319395, 0.0738891214132309, -0.04558185860514641, 0.11633402109146118, 0.043532758951187134, -0.04579664766788483, 0.043899618089199066, -0.014705206267535686, 0.007397545035928488, -0.059037934988737106, -0.010874451138079166, 0.038693029433488846, -0.07808229327201843, 0.026817288249731064, 0.07227398455142975, 0.13930121064186096, 0.022575095295906067, -0.05625183507800102, 0.0642743855714798, 0.0034043355844914913, -0.01140892505645752, 0.004412708804011345, 0.06065230071544647, 0.16960130631923676, 0.028616512194275856, 0.026109488680958748, -0.01791810430586338, -0.008667861111462116, -0.12088510394096375, -0.1871466487646103, -0.09107984602451324, 0.0856148973107338, 0.03436088562011719, -0.051297374069690704, 0.08940475434064865, 0.06279122829437256, 0.14138616621494293, -0.008591574616730213, 0.08169709891080856, 0.0575128048658371, -0.02325259894132614, 0.0047481469810009, -0.044334471225738525, -0.037741560488939285, -0.03128621354699135], [0.0872214138507843, 0.1836264282464981, -0.04410054162144661, -0.009576866403222084, 0.0187543798238039, 0.12131021916866302, 0.08592826873064041, -0.11639007180929184, -0.07480118423700333, 0.05624757334589958, 0.04750451818108559, -0.17096491158008575, -0.027060095220804214, -0.07223249226808548, -0.03869893401861191, -0.07119206339120865, -0.11558987200260162, -0.07833278179168701, 0.005613674409687519, 0.17578116059303284, -0.23612236976623535, -0.18972337245941162, 0.07910161465406418, 0.1663106232881546, -0.12312635779380798, 0.05912341549992561, 0.035830866545438766, -0.05512019246816635, 0.03733421862125397, -0.025996267795562744, -0.06250295042991638, -0.05050069838762283, -0.056749437004327774, 0.1583797186613083, -0.017145860940217972, -0.04199891909956932, 0.08486662060022354, 0.13155651092529297, -0.00944172590970993, -0.030220218002796173, 0.1270403265953064, 0.0696796327829361, -0.04302017018198967, 0.04845920205116272, -0.033401086926460266, 0.026535965502262115, -0.10468724370002747, 0.05211059749126434, -0.005660562310367823, -0.1937371790409088, 0.016457848250865936, -0.01727273501455784, 0.016403840854763985, -0.050396110862493515, 0.03536663576960564, 0.11317579448223114, 0.10552792251110077, -0.033378228545188904, -0.028262674808502197, -0.06228670850396156, 0.026316778734326363, 0.07542956620454788, -0.09397264569997787, -0.2214004099369049, -0.10352344810962677, -0.011868072673678398, -0.021598026156425476, 0.027009805664420128, -0.07392016053199768, -0.05524886026978493, -0.07617419958114624, -0.06166737899184227, -0.07159779220819473, 0.06250207871198654, -0.09839687496423721, -0.09993183612823486, 0.002977171214297414, 0.021229449659585953, 0.06711280345916748, 0.01861945353448391, -0.19899198412895203, -0.11643439531326294, -0.13579678535461426, 0.028444835916161537, -0.08796820044517517, -0.0007081220974214375, 0.12542453408241272, -0.02396041341125965, 0.035247161984443665, 0.0557059682905674, -0.05286024138331413, -0.10069543868303299, -0.05186791718006134, -0.0743311271071434, -0.083236463367939, 0.07872866094112396, -0.01787574030458927, -0.03840731829404831, -0.07094549387693405, 0.012160105630755424, -0.049538504332304, 0.04770547151565552, 0.04572143033146858, -0.057009391486644745, 0.19489513337612152, 0.15174032747745514, -0.014533968642354012, 0.07984951883554459, -0.026468805968761444, 0.0075148711912333965, 0.03943847492337227, 0.06494155526161194, -0.17624326050281525, -0.04844547435641289, 0.0031492391135543585, -0.06787493824958801, -0.15919414162635803, -0.02016126550734043, -0.0364660918712616, -0.02997867949306965, 0.025984179228544235, 0.11915075033903122, 0.0013805970083922148, -0.08379770070314407, -0.03164532780647278, -0.0594959631562233, -0.10254985839128494, -0.08920612186193466, 0.011406405828893185, 0.036563675850629807, 0.016127608716487885, 0.0212913379073143, -0.009786234237253666, -0.010170661844313145, 0.09922734647989273, 0.05263072997331619, 0.019679922610521317, 0.04795680195093155, 0.03950559347867966, 0.09771724045276642, 0.0010740060824900866, -0.05886833369731903, 0.042559683322906494, 0.04605785757303238, -0.012576775625348091, 0.05960879102349281, 0.10279867053031921, -0.05944456905126572, 0.09074383974075317, -0.01348451804369688, 0.037873104214668274, -0.055547259747982025, -0.12915806472301483, 0.08412246406078339, 0.08606477826833725, -0.12787272036075592, 0.021839328110218048, 0.01646582968533039, -0.15006153285503387, -0.09474964439868927], [0.2006227821111679, 0.09054827690124512, 0.023923665285110474, -0.06656535714864731, 0.03706886246800423, -0.049501340836286545, -0.04599110782146454, -0.17164167761802673, -0.04870326444506645, -0.027246253564953804, 0.07025329768657684, -0.13235346972942352, 0.0077474056743085384, -0.08449405431747437, 0.04025701805949211, 0.030807005241513252, -0.12465289980173111, 0.0316694900393486, -0.11003300547599792, -0.09850236773490906, 0.06385722011327744, 0.12184230238199234, -0.08141769468784332, 0.04938960447907448, 0.012236716225743294, 0.026843931525945663, -0.04672209173440933, -0.1084556058049202, -0.1681659072637558, -0.09098244458436966, -0.0662630945444107, 0.01847172901034355, 0.1480880230665207, -0.017656825482845306, -0.10147228837013245, -0.1402684450149536, 0.03653430566191673, -0.10649693757295609, 0.014448772184550762, 0.09098858386278152, -0.019096598029136658, -0.0031058078166097403, 0.027711883187294006, -0.0007113049505278468, 0.07325916737318039, 0.03196074441075325, 0.03677938133478165, 0.10127203911542892, -0.04742482304573059, 0.0021792303305119276, 0.06948326528072357, 0.06829289346933365, 0.1409042477607727, 0.24077968299388885, 0.13857820630073547, -0.04583384469151497, -0.0512140728533268, 0.13735070824623108, -0.003907225094735622, -0.07784687727689743, -0.020704442635178566, 0.0275981817394495, -0.01998712308704853, 0.02804969996213913, -0.020810281857848167, 0.022592689841985703, 0.08865915983915329, 0.13194938004016876, 0.05112048238515854, 0.05119563639163971, -0.021934740245342255, 0.020481720566749573, -0.05036705732345581, 0.021956291049718857, 0.07027579843997955, -0.027954349294304848, -0.10318376123905182, -0.08633681386709213, -0.12661127746105194, -0.049455609172582626, -0.0025387201458215714, 0.0033418440725654364, -0.05892282351851463, -0.018608130514621735, 0.12940672039985657, 0.18298467993736267, -0.02259649708867073, -0.10052836686372757, 0.09938836842775345, 0.011757048778235912, -0.06695995479822159, 0.012774818576872349, 8.428258297499269e-05, 0.015575747936964035, -0.015448616817593575, -0.02548200823366642, -0.07367929071187973, 0.04154340922832489, -0.06216683238744736, -0.01548911165446043, 0.21933062374591827, 0.15191936492919922, -0.04716240614652634, 0.04174729436635971, 0.12798207998275757, 0.08831214159727097, -0.06103800609707832, 0.022067543119192123, 0.06464214622974396, 0.06839387118816376, 0.02353006601333618, -0.014847731217741966, 0.009346222504973412, -0.0013789462391287088, 0.008064594119787216, 0.045143064111471176, 0.12012096494436264, 0.04912508651614189, 0.024323713034391403, -0.07582114636898041, 0.00893030408769846, 0.040939826518297195, -0.0036171649117022753, -0.010528596118092537, -0.07565899193286896, -0.007691102102398872, 0.008193863555788994, -0.012667409144341946, -0.03931760415434837, -0.15868501365184784, -0.036931756883859634, -0.11892282217741013, -0.0015700939111411572, -0.10814425349235535, 0.19288411736488342, -0.08166052401065826, 0.07025446742773056, 0.09425434470176697, 0.08142653107643127, -0.09688980877399445, 0.04109037667512894, -0.06688177585601807, 0.0738486498594284, 0.10628148913383484, 0.11057649552822113, -0.010210491716861725, -0.042459987103939056, 0.07867087423801422, -0.05805531144142151, 0.026697993278503418, -0.0009054293623194098, 0.08560645580291748, 0.06403588503599167, -0.08869579434394836, -0.11274395883083344, -0.07489877939224243, 0.030852969735860825, 0.034827619791030884, -0.026010869070887566, 0.012825299054384232], [-0.054623402655124664, -0.03145410120487213, 0.019155964255332947, 0.03710426762700081, 0.00789928063750267, -0.11805212497711182, 0.006628956645727158, 0.04006575420498848, 0.05328122153878212, -0.04095983877778053, 0.0772198736667633, -0.0032371163833886385, -0.014370146207511425, 0.04234689846634865, -0.02509327419102192, -0.06995105743408203, -0.10272923856973648, -0.014169908128678799, 0.04952431097626686, -0.008582759648561478, -0.04675481095910072, -0.1252996176481247, -0.055769313126802444, 0.008902407251298428, 0.12606975436210632, 0.03580203652381897, -0.041345857083797455, 0.09942387789487839, 0.015012843534350395, 0.12181218713521957, 0.11485666781663895, 0.1024659052491188, 0.005466996226459742, 0.01505101565271616, -0.08608028292655945, 0.05016488581895828, -0.019972192123532295, 0.008304198272526264, -0.23038069903850555, -0.20958104729652405, -0.06587886810302734, -0.1109657809138298, -0.00159981450997293, -0.06848501414060593, -0.030702129006385803, -0.02579503133893013, 0.040912676602602005, 0.08226164430379868, -0.04303084313869476, -0.03181743994355202, -0.009278429672122002, -0.14316754043102264, -0.112586610019207, 0.005602516699582338, -0.00019305710156913847, 0.03258027881383896, 0.047624386847019196, -0.05099644884467125, 0.0008645212510600686, 0.05797664076089859, -0.028210444375872612, 0.08667140454053879, 0.0094900606200099, -0.09042620658874512, -0.09641648828983307, -0.07340269535779953, 0.09058552235364914, 0.20588836073875427, 0.0769834816455841, 0.03810421749949455, 0.054205723106861115, 0.0852358415722847, 0.06478802114725113, -0.0405287928879261, -0.027088282629847527, -0.06415346264839172, 0.08513334393501282, -0.024588802829384804, -0.05316707491874695, -0.012844524346292019, -0.10160364210605621, 0.054279718548059464, 0.018086154013872147, 0.04289712384343147, 0.051142655313014984, -0.08352982252836227, -0.09540487080812454, -0.06834981590509415, 0.0810110867023468, 0.03021925874054432, -0.05965890735387802, -0.09427768737077713, 0.0744931697845459, -0.05459613725543022, -0.01216613408178091, -0.13151142001152039, -0.07321284711360931, 0.13474401831626892, -0.02179412916302681, -0.058712054044008255, 0.09225235134363174, 0.03862287104129791, 0.0444243960082531, -0.08294758200645447, 0.01575486734509468, -0.0228437427431345, 0.053658466786146164, -0.05605966970324516, 0.02254081889986992, -0.04051310569047928, -0.0631665512919426, -0.06066730245947838, -0.025077421218156815, -0.01564626209437847, 0.11046086251735687, 0.05367580056190491, 0.10299935936927795, 0.00195594085380435, -0.03938800469040871, 0.008318759500980377, 0.06440406292676926, 0.00751814991235733, -0.10905374586582184, -0.06076335161924362, -0.03113008849322796, 0.019389940425753593, -0.048296887427568436, -0.010915176011621952, -0.04845079779624939, 0.026498347520828247, -0.10051138699054718, -0.02258182503283024, 0.03206649050116539, 0.022436581552028656, -0.009796067140996456, 0.21274268627166748, -0.011697075329720974, -0.056624945253133774, 0.0916258916258812, 0.2121991515159607, -0.08118163049221039, 0.04201003909111023, 0.04075295478105545, -0.046044591814279556, -0.015750782564282417, -0.027408886700868607, -0.159209206700325, -0.06869114190340042, -0.07460671663284302, -0.14239272475242615, -0.167624831199646, -0.11524001508951187, -0.07024845480918884, 0.00041659202543087304, -0.033582959324121475, 0.0388212688267231, 0.007510412018746138, 0.08803680539131165, 0.15478546917438507, -0.07514742761850357], [0.06299494206905365, -0.07858409732580185, -0.006689020898193121, -0.0032689981162548065, -0.13625314831733704, -0.05401688814163208, -0.0019519360503181815, 0.09651161730289459, 0.04928078502416611, 0.08590315282344818, 0.06474296748638153, 0.008041420951485634, 0.08157509565353394, 0.010436481796205044, -0.017004987224936485, 0.08812588453292847, -0.051990363746881485, 0.05781790614128113, -0.0072124674916267395, 0.038038622587919235, 0.06720773875713348, 0.008809222839772701, 0.007041297387331724, 0.01309802196919918, 0.1516725718975067, 0.06916847825050354, -0.004002836532890797, -0.06636570394039154, 0.1102115586400032, 0.08808882534503937, 0.02962539531290531, 0.11659137159585953, 0.006062558852136135, -0.050794344395399094, -0.06232186034321785, 1.9036378944292665e-05, -0.11435691267251968, -0.0030812944751232862, -0.09815862774848938, -0.06400297582149506, -0.0947771966457367, -0.06813020259141922, 0.045242663472890854, -0.06727409362792969, -0.06758996844291687, -0.00960974209010601, 0.009738866239786148, -0.02579493820667267, -0.09908398240804672, 0.04700811207294464, 0.14292283356189728, 0.016388360410928726, -0.05013572797179222, -0.035618856549263, 0.11216136068105698, -0.015584532171487808, 0.07531075924634933, -0.021381279453635216, -0.04453391954302788, 0.004589359275996685, 0.014391005970537663, -0.055577125400304794, -0.040926799178123474, -0.13325874507427216, 0.11322878301143646, 0.054409850388765335, 0.004971841350197792, -0.05189521983265877, -0.01608334109187126, -0.03923420235514641, -0.01832997426390648, -0.044253066182136536, 0.0688067153096199, 0.08943815529346466, -0.03841490298509598, -0.06863261759281158, 0.017975939437747, 0.0054190680384635925, -0.04234740883111954, -0.05192464962601662, 0.09825646877288818, 0.09247471392154694, 0.02411767654120922, -0.005473153665661812, -0.01899540051817894, -0.0037565436214208603, -0.052452076226472855, -0.053702354431152344, -0.08943752199411392, 0.07707758247852325, -0.005935183726251125, -0.048623066395521164, 0.045817065984010696, -0.09938282519578934, -0.005396230146288872, 0.044217392802238464, -0.006877027451992035, 0.08565473556518555, 0.016990534961223602, -0.10054966807365417, 0.035934168845415115, 0.03225842863321304, 0.11001607775688171, -0.040505945682525635, -0.12584751844406128, 0.00035734171979129314, 0.01288616843521595, 0.028561003506183624, -0.0044858395121991634, -0.13081780076026917, -0.10670648515224457, -0.006060419604182243, 0.10677439719438553, 0.058394648134708405, 0.07780613005161285, -0.0832466408610344, -0.08835738152265549, 0.045033250004053116, -0.013064064085483551, 0.051539573818445206, 0.04087553918361664, 0.0008286578813567758, 0.056897275149822235, -0.02360038459300995, 0.06324274837970734, 0.04520412161946297, 0.03763303905725479, -0.024772992357611656, 0.03227979689836502, -0.1546364426612854, -0.058227863162755966, 0.06764180958271027, -0.054973065853118896, 0.10316283255815506, -0.014812386594712734, 0.066494420170784, 0.025583401322364807, 0.04191223904490471, 0.010622306726872921, 0.08682665228843689, -0.13355861604213715, -0.008553599007427692, -0.011317737400531769, -0.0044165728613734245, 0.062097273766994476, -0.008951394818723202, -0.051510896533727646, 0.04613203555345535, -0.12614302337169647, -0.017480868846178055, -0.06893646717071533, -0.02768893353641033, -0.0889035314321518, -0.13824377954006195, 0.05795537307858467, 0.11505813151597977, 0.06281855702400208, 0.04215031489729881, 0.09299514442682266, 0.05088208243250847], [0.026195060461759567, -0.02389519475400448, 0.10661480575799942, 0.05144338309764862, -0.04665956273674965, 0.0632033422589302, -0.12518428266048431, 0.029456954449415207, -0.060933418571949005, -0.021752288565039635, 0.02670549415051937, -0.08479447662830353, 0.025738248601555824, 0.07076706737279892, -0.003331644693389535, -0.10342790931463242, 0.020349346101284027, 0.1862066239118576, 0.03067966178059578, 0.09289342164993286, -0.06941139698028564, -0.07280918210744858, 0.07111284136772156, 0.061764195561409, -0.16994673013687134, 0.063985176384449, -0.00990290381014347, 0.06919536739587784, 0.11554250866174698, 0.10244602710008621, 0.047879062592983246, -0.03582575544714928, 0.03295249119400978, -0.10231543332338333, -0.09565877169370651, -0.031107883900403976, -0.02117048017680645, -0.03187858313322067, -0.030753711238503456, -0.05633462965488434, 0.08194103837013245, 0.029247436672449112, 0.06538538634777069, 0.11710455268621445, -0.04185374453663826, 0.0429973267018795, 0.08219786733388901, 0.0066418275237083435, 0.08633144199848175, 0.02801251783967018, 0.04973377659916878, 0.0341666042804718, 0.06736712902784348, -0.0061608897522091866, -0.011564640328288078, -0.013833904638886452, -0.027105791494250298, 0.030271990224719048, -0.1100861132144928, -0.07587677240371704, 0.09379968792200089, -0.05622424930334091, 0.021040786057710648, -0.12965120375156403, 0.04253482446074486, 0.07261144369840622, 0.1422521471977234, 0.02815684676170349, -0.04085073247551918, 0.04596235975623131, -0.040285445749759674, -0.07567290216684341, -0.04241672158241272, 0.0005361777730286121, 0.023679381236433983, 0.09378479421138763, -0.019210578873753548, -0.08299465477466583, 0.04174764081835747, 0.013349984772503376, 0.08175705373287201, 0.07314939796924591, 0.026619218289852142, 0.11146538704633713, 0.06773671507835388, 0.004070121329277754, -0.0010071983560919762, 0.008412666618824005, 0.00206443527713418, 0.08134857565164566, 0.03151664510369301, -0.03314210847020149, -0.1608702689409256, -0.15632756054401398, -0.047310952097177505, -0.040798891335725784, 0.018463190644979477, 0.051147133111953735, -0.003655208507552743, -0.04664676636457443, -0.0454254187643528, -0.0747358575463295, -0.03178035095334053, 0.02543156035244465, -0.009310591965913773, 0.045025479048490524, 0.010025380179286003, -0.032902296632528305, -0.025907859206199646, -0.02863471582531929, 0.0691426545381546, 0.02263675257563591, 0.14597733318805695, 0.2004004269838333, 0.09063981473445892, 0.16164933145046234, -0.09812722355127335, -0.013438038527965546, -0.08557387441396713, 0.006245252210646868, -0.0374169759452343, 0.05766567960381508, -0.041005730628967285, -0.0378691703081131, -0.10199116170406342, -0.038788508623838425, -0.1304297149181366, -0.08012852817773819, -0.09366504848003387, -0.12659922242164612, -0.03588823601603508, -0.02919859252870083, -0.0443003885447979, -0.01610666513442993, 0.07558070123195648, 